w11,w12,w13,w21,w22,w23,w31,w32,w33,w41,w42,w43
0.021750873,0.04964152,0.0138631845,-0.018919,0.037788425,0.03943715,-0.015789455,-0.020356812,-0.015715988,0.005624355,-0.017433023,-0.010687289
0.021661121,0.049540084,0.0138959335,-0.018917779,0.03785506,0.039449103,-0.015814397,-0.020346448,-0.015715973,0.0056247646,-0.017430253,-0.01072278
0.021711165,0.04966035,0.013896386,-0.01892026,0.037646014,0.03903179,-0.015781218,-0.02038624,-0.015714142,0.005658081,-0.017433206,-0.010787508
0.021746729,0.04968086,0.013927976,-0.018917548,0.037642263,0.039341576,-0.01568305,-0.020313343,-0.01572976,0.0056407875,-0.01743812,-0.0106722955
0.02164181,0.049661476,0.01394663,-0.018917195,0.03772551,0.039220136,-0.015709946,-0.020335885,-0.015721442,0.005555195,-0.017440928,-0.010688133
0.021663394,0.049676593,0.013962946,-0.018918006,0.037760805,0.039321963,-0.015696406,-0.020312559,-0.01571737,0.005586674,-0.017444618,-0.010642532
0.021672992,0.049709577,0.013925377,-0.018921262,0.037844997,0.039495587,-0.01582119,-0.020314157,-0.015722835,0.0055646836,-0.01744419,-0.010633036
0.02166028,0.049695835,0.0139781255,-0.01891933,0.037624516,0.03928117,-0.015699398,-0.02035207,-0.0157276,0.0055565927,-0.01744604,-0.010617731
0.021751698,0.04972525,0.013906864,-0.018918857,0.037772574,0.039560482,-0.015774675,-0.020266842,-0.015764333,0.0055761985,-0.01745013,-0.010570183
0.021647817,0.04981924,0.0139364535,-0.018915897,0.037583828,0.03883674,-0.015764778,-0.020295884,-0.015769107,0.0055634123,-0.017447362,-0.0107414285
0.021593932,0.049719006,0.013948521,-0.01891551,0.0377873,0.039322294,-0.01573653,-0.020291343,-0.01579629,0.0055636014,-0.01744484,-0.010678377
0.021637553,0.04977976,0.013940467,-0.018916432,0.037764013,0.039390273,-0.015667535,-0.0203369,-0.015779413,0.005572843,-0.017443452,-0.010685521
0.02161088,0.04966953,0.013972351,-0.01891883,0.037894636,0.039709456,-0.015616078,-0.020329237,-0.015778964,0.0055730576,-0.017441507,-0.010645394
0.0216955,0.04983273,0.013939252,-0.018921087,0.037760496,0.039551716,-0.015628275,-0.020355554,-0.01577391,0.0055879797,-0.017443113,-0.010770989
0.021597713,0.049646653,0.013985119,-0.01891811,0.037830908,0.0396558,-0.015704632,-0.02032245,-0.015776023,0.0056131147,-0.017442362,-0.010673131
0.02152873,0.049727283,0.013997317,-0.018916605,0.037675656,0.039110024,-0.015789362,-0.020341808,-0.015768042,0.0056001316,-0.017440973,-0.010728042
0.021549635,0.04964498,0.013991119,-0.018918313,0.037776604,0.039480455,-0.01572647,-0.020282067,-0.015801609,0.0056243245,-0.017440263,-0.01069824
0.021485047,0.049705755,0.013985995,-0.018917115,0.037841376,0.039434094,-0.015751945,-0.020313913,-0.01577134,0.0056229657,-0.017435642,-0.010689842
0.02150039,0.049745176,0.014013816,-0.018918356,0.03787339,0.03943543,-0.015796231,-0.0203258,-0.015788464,0.005652418,-0.01743596,-0.010715611
0.021434646,0.04976389,0.013981325,-0.018913057,0.037904613,0.039529458,-0.015971003,-0.020325903,-0.015798429,0.005659481,-0.017436925,-0.010752333
0.021459809,0.04972092,0.014027125,-0.018916186,0.037767004,0.039392944,-0.015954733,-0.020337295,-0.01579241,0.005670719,-0.017434489,-0.0107995365
0.021494353,0.049751557,0.013985146,-0.018917255,0.037953716,0.03984763,-0.016011154,-0.020276342,-0.015809948,0.0056512067,-0.017431453,-0.010746318
0.021474522,0.049767498,0.014078037,-0.018913448,0.037831582,0.039381325,-0.01600248,-0.020324562,-0.015807059,0.0056470567,-0.017432401,-0.0108441105
0.021503476,0.049761046,0.014009759,-0.01891577,0.03795154,0.03958783,-0.016084783,-0.02028011,-0.01582781,0.005648019,-0.01742871,-0.010859094
0.021522827,0.049755596,0.013992938,-0.018911466,0.037884485,0.03954564,-0.016146474,-0.020313079,-0.015809175,0.005659001,-0.01742921,-0.010886076
0.02154426,0.049859796,0.013962841,-0.018914163,0.037802707,0.039366435,-0.016058398,-0.020363685,-0.015825361,0.005666065,-0.017429847,-0.010862078
0.021501653,0.04961461,0.013970095,-0.01891098,0.03800372,0.03982282,-0.016112005,-0.020334493,-0.015831493,0.0056452574,-0.017432002,-0.010849923
0.021567795,0.049925126,0.013956644,-0.018911244,0.037698448,0.03937511,-0.016012648,-0.0203541,-0.01582248,0.005721475,-0.017430676,-0.010890045
0.021472005,0.049830087,0.013984825,-0.01890104,0.037616685,0.039118722,-0.016148416,-0.020293718,-0.01583494,0.005738626,-0.01742612,-0.010914152
0.021420967,0.049728397,0.01398898,-0.01890181,0.037779033,0.039429717,-0.016161567,-0.020315634,-0.015832165,0.0057358653,-0.017429387,-0.010848834
0.02157679,0.049964007,0.013898968,-0.01889618,0.03773836,0.039508626,-0.01619968,-0.020207552,-0.015838636,0.00574097,-0.017433139,-0.010872459
0.021454701,0.049781077,0.013921367,-0.018900596,0.03769733,0.039188378,-0.016174115,-0.020207763,-0.015845444,0.0057646474,-0.01742715,-0.010777014
0.021482028,0.04983716,0.013921694,-0.018897107,0.037663497,0.039081503,-0.0161477,-0.020203428,-0.01584233,0.0057691657,-0.017428104,-0.010982738
0.02137531,0.049648717,0.013969898,-0.018894816,0.037680548,0.03919358,-0.016188908,-0.02021553,-0.01580782,0.005775028,-0.017427776,-0.010957298
0.021365482,0.0496393,0.013974052,-0.018891377,0.037683923,0.039107755,-0.016299842,-0.020251501,-0.015809711,0.005727978,-0.017430687,-0.011012358
0.021371763,0.04963322,0.013951519,-0.01889096,0.03767627,0.039290313,-0.016222758,-0.02020686,-0.015849039,0.0057475856,-0.017439825,-0.011011917
0.02136579,0.049731847,0.01391155,-0.018890383,0.037614513,0.039213367,-0.016271867,-0.02020487,-0.015808607,0.0058358735,-0.017439364,-0.011002649
0.02131163,0.04948561,0.013961091,-0.018892951,0.03763713,0.039160296,-0.016282836,-0.020188503,-0.015801104,0.0058127735,-0.017444475,-0.010979988
0.02138009,0.049458392,0.013995062,-0.018897839,0.03758047,0.03926582,-0.016213182,-0.020205865,-0.01580503,0.005789439,-0.017443852,-0.010985722
0.021402888,0.049445853,0.014028157,-0.018900556,0.03762373,0.039106417,-0.016351175,-0.020259535,-0.015789535,0.0058056205,-0.017439982,-0.010949105
0.02147318,0.049722847,0.014038127,-0.018900055,0.037464075,0.039011553,-0.01604798,-0.020317595,-0.015775543,0.0058030174,-0.017435418,-0.011073362
0.021567281,0.04954617,0.014047565,-0.018897114,0.03754191,0.039239537,-0.01621632,-0.020389756,-0.015742986,0.005780706,-0.017431263,-0.011029159
0.021550354,0.049603008,0.013982876,-0.018895034,0.03763766,0.039356764,-0.016197573,-0.020418854,-0.015782205,0.0057269153,-0.017433502,-0.011010466
0.021512263,0.04965425,0.013981578,-0.018895328,0.037614677,0.03927946,-0.016233694,-0.020407228,-0.015785383,0.005683088,-0.017434984,-0.011006181
0.021544069,0.04954218,0.013925593,-0.018895935,0.037670586,0.039450668,-0.016244255,-0.020269893,-0.015818693,0.0056905537,-0.017428396,-0.011030417
0.021528702,0.04952034,0.013978326,-0.01890003,0.037547696,0.03917817,-0.016380832,-0.02022426,-0.01584411,0.0056185476,-0.017428352,-0.011105835
0.021651221,0.049733073,0.013988891,-0.018903464,0.03726096,0.038851473,-0.016358882,-0.020338751,-0.01581251,0.0057045603,-0.017427804,-0.011100414
0.021579923,0.049540535,0.014017755,-0.018902397,0.037198097,0.03878966,-0.01645672,-0.020319343,-0.015834158,0.0056967563,-0.017429348,-0.011049079
0.02165403,0.049764767,0.014035851,-0.018891899,0.03734605,0.03932844,-0.016420988,-0.0202873,-0.015848381,0.005718367,-0.017429642,-0.011020699
0.021573346,0.049545277,0.0140432585,-0.018896144,0.037391346,0.03936631,-0.016422642,-0.020296672,-0.015832126,0.005733406,-0.017425891,-0.010922201
0.021609984,0.04959186,0.014032803,-0.018896483,0.037364103,0.039259832,-0.016354118,-0.02026012,-0.015844012,0.005748016,-0.017426364,-0.010958625
0.021563152,0.04956159,0.014004821,-0.018889047,0.03727007,0.039206564,-0.016515784,-0.020274943,-0.015859284,0.0057447995,-0.017424548,-0.011003475
0.021528376,0.049498495,0.014009962,-0.01888888,0.037206914,0.03906712,-0.016578624,-0.020305542,-0.015857775,0.0057736295,-0.017425712,-0.011003623
0.021573208,0.049592286,0.014000516,-0.018900292,0.037306037,0.03951601,-0.016586728,-0.020304069,-0.015859984,0.0057878788,-0.017423047,-0.011017828
0.02160031,0.049683437,0.014022535,-0.018896503,0.03708407,0.038985353,-0.01652423,-0.020440347,-0.015848055,0.0057259733,-0.017419025,-0.011057324
0.021636263,0.049666576,0.013990432,-0.018900309,0.037224315,0.039444026,-0.016595671,-0.020433916,-0.015859365,0.005630212,-0.01741559,-0.011059028
0.021501735,0.04955507,0.014026324,-0.018901909,0.037216384,0.039029513,-0.016563645,-0.02047276,-0.015862236,0.0056097447,-0.017413516,-0.011045677
0.021491926,0.0495531,0.014018823,-0.018901661,0.03734754,0.039396655,-0.016499659,-0.020430053,-0.015853887,0.005660602,-0.01741155,-0.010975232
0.021458676,0.04967176,0.013991464,-0.018902346,0.037297934,0.03912277,-0.016506406,-0.020478148,-0.015853122,0.0057231914,-0.01741235,-0.010965736
0.021443823,0.049511723,0.014028622,-0.018895864,0.037336275,0.039446104,-0.016451925,-0.02046007,-0.015861107,0.005663386,-0.017412268,-0.010963684
0.02145647,0.049523816,0.014063766,-0.01889818,0.03731463,0.039254684,-0.016424594,-0.020438539,-0.015849357,0.0056225136,-0.017409826,-0.010920688
0.02142544,0.049541514,0.01405922,-0.01889668,0.03748799,0.039331988,-0.01640191,-0.020480238,-0.01587889,0.005622558,-0.017410912,-0.010866398
0.021526508,0.049663614,0.014063123,-0.018892983,0.03737245,0.039343588,-0.016398866,-0.020440321,-0.015873615,0.0056404145,-0.017412204,-0.0109520005
0.02154894,0.049714603,0.014068093,-0.01889504,0.037370227,0.039376214,-0.016535057,-0.02038,-0.015901878,0.0056245434,-0.017411636,-0.010855955
0.021514488,0.049703643,0.014044695,-0.018896284,0.037329525,0.03915239,-0.016529309,-0.020364843,-0.015924692,0.005593964,-0.017414523,-0.0109252585
0.021521553,0.04991093,0.014022346,-0.018895233,0.037314206,0.03903128,-0.016574372,-0.02030291,-0.015935179,0.0056457114,-0.017414847,-0.010918418
0.021478124,0.049796537,0.014060918,-0.018896755,0.037359357,0.039032068,-0.016472826,-0.020258425,-0.016015083,0.005650586,-0.017416503,-0.010960351
0.021567391,0.04978213,0.0140478825,-0.018897615,0.037306987,0.03926794,-0.0164338,-0.020225061,-0.01600374,0.005655007,-0.017416699,-0.010880152
0.02149373,0.049786907,0.014092363,-0.018898226,0.03731511,0.039078712,-0.016368117,-0.020268591,-0.016030388,0.0056002554,-0.017426366,-0.010856393
0.021519523,0.049885053,0.014042827,-0.018901318,0.03717083,0.039020922,-0.016397892,-0.020307774,-0.015999435,0.0056028916,-0.01743184,-0.0108637875
0.02145831,0.049861275,0.014042414,-0.018909939,0.03730159,0.03929866,-0.016311705,-0.020267162,-0.015979547,0.005554496,-0.017428176,-0.010828038
0.021366458,0.049829144,0.014092999,-0.018911261,0.037313387,0.039020598,-0.016279094,-0.020314656,-0.015977897,0.005563094,-0.017427403,-0.010849122
0.021359572,0.04983649,0.014059548,-0.018909713,0.03744576,0.03937512,-0.01610472,-0.020293828,-0.016003644,0.0055405414,-0.017428985,-0.010886551
0.021457525,0.049945015,0.014029192,-0.018909026,0.03737721,0.039485183,-0.016073354,-0.020396026,-0.015981967,0.0055679576,-0.017427232,-0.010890096
0.02144478,0.04995728,0.013954813,-0.018917143,0.037538018,0.039834164,-0.016048737,-0.020245874,-0.01598219,0.0055369437,-0.017425312,-0.010865388
0.021384101,0.050025195,0.013956954,-0.01891389,0.03726691,0.03920279,-0.016071899,-0.020306682,-0.015963238,0.005549203,-0.017419914,-0.010981414
0.021399943,0.049941197,0.013940681,-0.018917779,0.037435774,0.03993313,-0.016202262,-0.020242704,-0.015979433,0.005585118,-0.017417418,-0.010979594
0.021399952,0.050011612,0.013934507,-0.018918416,0.03742172,0.039531585,-0.01623927,-0.020207612,-0.01598627,0.0056009023,-0.017422436,-0.010953125
0.021370914,0.049892362,0.013957543,-0.018925564,0.037626904,0.04011068,-0.016198507,-0.02016654,-0.015989546,0.005593466,-0.01742515,-0.01091992
0.02136124,0.04994105,0.013967708,-0.018932132,0.037582636,0.039866958,-0.016238151,-0.02016294,-0.015994411,0.0055996156,-0.017428588,-0.010981751
0.021176724,0.049737517,0.014033024,-0.018928178,0.03774067,0.04000596,-0.016275808,-0.020210087,-0.015985154,0.0055809105,-0.01742799,-0.011013994
0.02120602,0.049940467,0.013965258,-0.01892897,0.037724372,0.04005021,-0.016281744,-0.02013542,-0.016005235,0.005580217,-0.017428182,-0.011042637
0.021135561,0.04995124,0.014046536,-0.018926738,0.037729777,0.039541353,-0.016367357,-0.020220982,-0.015969953,0.005606812,-0.017426604,-0.010968235
0.021327991,0.04991564,0.013952398,-0.018925326,0.037856933,0.040225778,-0.01637689,-0.02008771,-0.015979877,0.005569839,-0.017429546,-0.01090583
0.021415155,0.050187454,0.014042756,-0.018910967,0.037465334,0.039080992,-0.016378539,-0.02013743,-0.015973538,0.005529238,-0.017430888,-0.011084565
0.021361174,0.050038453,0.014075863,-0.018914694,0.03759244,0.039358154,-0.016414633,-0.02014707,-0.015964538,0.005532507,-0.017426446,-0.011028841
0.021324344,0.05002569,0.014041062,-0.018919308,0.03773682,0.039874364,-0.016459798,-0.02014248,-0.015964793,0.0055487924,-0.017426359,-0.010958985
0.02128542,0.05001256,0.013999919,-0.018928071,0.037815418,0.039774835,-0.016467474,-0.020122426,-0.015964562,0.005563244,-0.017425671,-0.010953025
0.02133199,0.049911056,0.014006266,-0.018929064,0.037851226,0.040107097,-0.01656401,-0.020210506,-0.015952056,0.005583733,-0.017425532,-0.010921719
0.021304596,0.04993303,0.014022107,-0.01893253,0.037947927,0.040269107,-0.016556554,-0.020212887,-0.015957778,0.0055995937,-0.017424807,-0.0109246755
0.021255704,0.04984868,0.0139786145,-0.01893444,0.03781169,0.039883528,-0.016450237,-0.020200513,-0.015997583,0.0055850367,-0.017425422,-0.010950577
0.02122771,0.04986425,0.013978922,-0.018938448,0.037784442,0.039843194,-0.016474845,-0.020177055,-0.016006956,0.0055819754,-0.017418394,-0.010932625
0.021264637,0.049957015,0.013963773,-0.01894855,0.037647776,0.039721053,-0.016415171,-0.020249082,-0.015981019,0.0056202454,-0.017423484,-0.011013454
0.021139214,0.049833395,0.014015537,-0.01894546,0.037738476,0.03935065,-0.016484557,-0.020257533,-0.016012944,0.005616282,-0.017424736,-0.010961617
0.021317191,0.050232567,0.013903707,-0.018945327,0.03771438,0.03943816,-0.016435904,-0.020259967,-0.015976056,0.005692995,-0.017423863,-0.010921415
0.021102933,0.049977787,0.0139721325,-0.018938871,0.03766623,0.03910988,-0.016629383,-0.020264808,-0.015954532,0.005732704,-0.01741766,-0.010933914
0.021233875,0.05016616,0.013851623,-0.018938523,0.037895,0.039460037,-0.016411383,-0.02004241,-0.015968882,0.005733844,-0.017424097,-0.010756306
0.021120751,0.050131008,0.013923024,-0.018934311,0.03782969,0.039029468,-0.016423682,-0.020073662,-0.015944341,0.0057562306,-0.017420072,-0.010730504
0.021117894,0.0501273,0.013914501,-0.018929994,0.03795035,0.039140917,-0.016416112,-0.020090634,-0.01593739,0.005752745,-0.017416622,-0.010708719
0.021089733,0.050065838,0.013945857,-0.018929595,0.037899233,0.039026853,-0.016451538,-0.020094158,-0.015944563,0.005760539,-0.017414559,-0.010763322
0.021048963,0.050023366,0.013937655,-0.018933628,0.03794946,0.039059892,-0.016494464,-0.020047637,-0.015958266,0.0057825395,-0.017416375,-0.010666752
0.021003319,0.050123323,0.013941914,-0.018935397,0.037837222,0.03883091,-0.0164234,-0.020101879,-0.015966836,0.0058038994,-0.017415877,-0.0107371975
0.021003969,0.04997885,0.013959133,-0.01893501,0.037965205,0.039151102,-0.016419323,-0.020071253,-0.015961492,0.0058034034,-0.01741516,-0.010666557
0.021077069,0.049993854,0.013940986,-0.018936383,0.037928123,0.03924662,-0.016432522,-0.020150173,-0.015934652,0.0058335043,-0.01741237,-0.010685174
0.02109097,0.050017625,0.0139351245,-0.018934302,0.037817206,0.038984254,-0.016421294,-0.020140193,-0.015950881,0.0058332263,-0.017415207,-0.010656814
0.021112721,0.050006915,0.013959847,-0.01893419,0.03774644,0.038719654,-0.016490346,-0.020160384,-0.01596512,0.0058619143,-0.017401952,-0.0107351085
0.021061458,0.04995299,0.013959457,-0.018936835,0.037737712,0.038901463,-0.016375614,-0.020114195,-0.015971195,0.0057853973,-0.017404493,-0.010728214
0.021092586,0.04997278,0.013915299,-0.018937457,0.03770441,0.03884882,-0.01655762,-0.020123955,-0.015917333,0.005895794,-0.017402973,-0.010648065
0.021021698,0.04980594,0.013993983,-0.018933974,0.03759956,0.0388086,-0.016632218,-0.020177625,-0.015937548,0.0058475253,-0.017408352,-0.010589645
0.02109829,0.049963545,0.013969138,-0.018938953,0.037550304,0.038838614,-0.016523289,-0.020018797,-0.015901374,0.005898419,-0.017408881,-0.010690464
0.02115253,0.050119996,0.013886386,-0.018938659,0.037493963,0.038896922,-0.016626384,-0.020085635,-0.015926778,0.0059683956,-0.017404458,-0.010656142
0.020980148,0.049990725,0.013952922,-0.018942283,0.03760012,0.038852654,-0.016625762,-0.020072164,-0.015959468,0.0059063467,-0.017407104,-0.010563608
0.020987025,0.050027728,0.01393064,-0.018944357,0.037422214,0.038940586,-0.016765926,-0.020029534,-0.01592123,0.0059403535,-0.017400622,-0.0106167365
0.021075822,0.049846593,0.013945062,-0.01894353,0.037485205,0.039188728,-0.016828926,-0.019985303,-0.015958719,0.0058992067,-0.017401658,-0.010634313
0.021132804,0.050084796,0.013951085,-0.018948797,0.037339997,0.038765058,-0.016858054,-0.01997884,-0.01596413,0.005906025,-0.017406436,-0.010718963
0.021080637,0.049879,0.014017205,-0.018946402,0.03741477,0.03883081,-0.016868217,-0.019981219,-0.015959067,0.005904788,-0.017405871,-0.010668864
0.02109057,0.049897145,0.014007493,-0.018954854,0.037528094,0.038975764,-0.01680102,-0.019984012,-0.01596075,0.005902212,-0.017408136,-0.010718413
0.021026742,0.049864545,0.014102976,-0.018956792,0.037338253,0.038537417,-0.01695746,-0.020001335,-0.015959926,0.005886538,-0.017414259,-0.010776249
0.021150028,0.049964763,0.014092392,-0.018960794,0.03739091,0.038808662,-0.016847827,-0.019990675,-0.015963394,0.005886147,-0.017412217,-0.010795142
0.021072797,0.04998999,0.014046443,-0.018945036,0.037422936,0.03858329,-0.016799588,-0.01997759,-0.015966697,0.005858566,-0.017410468,-0.010821352
0.021081856,0.049907558,0.014082867,-0.018948073,0.037376214,0.038650256,-0.01676359,-0.020068517,-0.015928423,0.0059130616,-0.017408894,-0.0108045265
0.021072544,0.050025918,0.014050432,-0.018949749,0.03732594,0.03860993,-0.01671452,-0.020081125,-0.0159478,0.0058636675,-0.01741718,-0.010811474
0.020996211,0.04985478,0.014112271,-0.018949367,0.037494138,0.0387986,-0.016693264,-0.020069053,-0.015959013,0.0058245608,-0.017415173,-0.010775398
0.021014694,0.049933083,0.014048135,-0.018956397,0.03748564,0.038925968,-0.01682437,-0.020047113,-0.01595908,0.005920938,-0.017414156,-0.010740138
0.020989932,0.049817353,0.014064116,-0.018950874,0.037441544,0.03889302,-0.016855752,-0.02001558,-0.015945077,0.005907215,-0.017411398,-0.010686433
0.021018708,0.04996726,0.014029565,-0.018952504,0.037418418,0.038767003,-0.016841976,-0.020057468,-0.01593702,0.0059107095,-0.017413454,-0.010739749
0.020915175,0.04986064,0.014059092,-0.018951531,0.03767674,0.039185483,-0.016894506,-0.020032376,-0.015951002,0.0058764345,-0.017414477,-0.010623394
0.020949904,0.050003428,0.014102347,-0.018949326,0.03742795,0.03882171,-0.016804049,-0.020079596,-0.0159261,0.0059411493,-0.017411837,-0.010699129
0.020800065,0.049982283,0.014091452,-0.018933766,0.03731999,0.038680397,-0.016810125,-0.02008672,-0.015950777,0.0059046084,-0.017412355,-0.010685982
0.020903211,0.049983967,0.014104663,-0.018932974,0.037400972,0.038990933,-0.016794773,-0.02005178,-0.015936768,0.0059307013,-0.01741593,-0.010721437
0.020931678,0.050119538,0.014141635,-0.018935638,0.03746693,0.039126318,-0.01666359,-0.020000935,-0.0159431,0.0059186774,-0.017417155,-0.010688503
0.02099497,0.050133105,0.014085164,-0.018932464,0.03738857,0.03909647,-0.016696904,-0.019930542,-0.015946709,0.0058787023,-0.017417124,-0.010686886
0.020855105,0.050116606,0.01412534,-0.01893118,0.037362684,0.03879489,-0.01674408,-0.019985236,-0.015955746,0.005878455,-0.017416878,-0.010609274
0.020856915,0.05002737,0.014144832,-0.018933916,0.037486933,0.039073132,-0.016766215,-0.019953875,-0.015965324,0.0059125395,-0.017417258,-0.010554902
0.020812202,0.04992116,0.014181826,-0.018930217,0.037552062,0.039080616,-0.016833164,-0.020001918,-0.015981931,0.005917787,-0.01741497,-0.010572988
0.020858359,0.050023995,0.0141563155,-0.018933127,0.037443716,0.038917962,-0.016825272,-0.019993158,-0.015957002,0.0059164446,-0.01741293,-0.010536422
0.02077319,0.049858853,0.014170758,-0.018926134,0.03766118,0.039131183,-0.016880995,-0.01996617,-0.015951727,0.0058827973,-0.017418439,-0.010536854
0.02080878,0.05003394,0.014096122,-0.018923346,0.037506305,0.03907351,-0.016950546,-0.020016897,-0.015903395,0.005962112,-0.017417714,-0.010716066
0.020741563,0.04984284,0.014141058,-0.018928034,0.037610687,0.039524004,-0.016949276,-0.019992692,-0.015899414,0.0059522702,-0.01741762,-0.010653379
0.020688873,0.04981514,0.01409903,-0.018927466,0.037663534,0.03912045,-0.01696748,-0.019946877,-0.015901033,0.005928335,-0.01741682,-0.010679768
0.020796143,0.049906805,0.01405225,-0.01892254,0.037585728,0.03927162,-0.016849516,-0.0199514,-0.015913723,0.0059171272,-0.017415812,-0.0108177345
0.020539263,0.049612667,0.014150717,-0.018920029,0.037903633,0.03912134,-0.016916966,-0.01994001,-0.015898712,0.0058718165,-0.017411316,-0.010754447
0.02066317,0.049650922,0.014046865,-0.018921198,0.037901442,0.03918991,-0.0170861,-0.019749679,-0.015895179,0.0059060236,-0.017412806,-0.010763222
0.020719422,0.04975893,0.014076126,-0.018919334,0.037743237,0.03911755,-0.017088966,-0.019755853,-0.015901674,0.005907412,-0.017412147,-0.01081724
0.020858254,0.04980259,0.014097326,-0.018920342,0.037695833,0.03913807,-0.016955815,-0.019809132,-0.015914878,0.005869519,-0.017414145,-0.010809943
0.020796739,0.04961304,0.014101986,-0.018920554,0.03782116,0.03941035,-0.016956726,-0.01979034,-0.015898855,0.0058555077,-0.017413324,-0.010750239
0.020877173,0.049722735,0.014124146,-0.018930629,0.037737787,0.03936302,-0.01693227,-0.019794185,-0.015917236,0.0058636507,-0.017416997,-0.010819991
0.020890221,0.04972984,0.014073941,-0.018934298,0.037729874,0.039452646,-0.017074417,-0.019754505,-0.015953816,0.005817031,-0.017420586,-0.01081545
0.02093725,0.049819056,0.014104936,-0.01893233,0.03764033,0.039016053,-0.017023163,-0.0197888,-0.015944362,0.005836255,-0.017419856,-0.010757469
0.020916479,0.04963781,0.014137268,-0.01892244,0.037626922,0.03924098,-0.017003234,-0.019748941,-0.015952269,0.005798129,-0.01741794,-0.010695756
0.021021526,0.049857955,0.014113736,-0.018926576,0.03756863,0.039151195,-0.016947567,-0.019729739,-0.015935255,0.0057779225,-0.017417485,-0.010744983
0.021000639,0.049878497,0.014100037,-0.018928332,0.037632868,0.039381504,-0.016960746,-0.01974665,-0.01595899,0.005777171,-0.017420618,-0.010721376
0.020999545,0.049886823,0.014098127,-0.018927358,0.03766479,0.03945921,-0.016945716,-0.0197827,-0.01595453,0.005830302,-0.017423749,-0.01079712
0.020968147,0.049738385,0.014154686,-0.018919922,0.037754342,0.039694335,-0.01691277,-0.019805703,-0.015921922,0.0058156066,-0.017422771,-0.010710579
0.020889308,0.04977929,0.014143954,-0.018919064,0.03772698,0.03959766,-0.016783098,-0.01977122,-0.01597152,0.0058024935,-0.017426914,-0.010707137
0.020940252,0.04994216,0.014133566,-0.01891701,0.03767353,0.0397019,-0.0167556,-0.019812575,-0.015953183,0.005832848,-0.01742563,-0.0107759135
0.020955982,0.049967136,0.014089497,-0.018916227,0.03757414,0.03991104,-0.016771948,-0.019754471,-0.015990425,0.0058341427,-0.017428316,-0.010687807
0.020884378,0.050033502,0.014071005,-0.018919563,0.037598,0.039304603,-0.016767401,-0.019878253,-0.015957922,0.0058699367,-0.017423663,-0.010783077
0.020853015,0.049937777,0.01405429,-0.018914651,0.037717063,0.039922107,-0.016779779,-0.019845895,-0.015978454,0.0058242218,-0.017426781,-0.010734613
0.020933352,0.050098177,0.01397384,-0.0189156,0.037550185,0.039660186,-0.016789097,-0.019813707,-0.015990214,0.005756554,-0.017425155,-0.0107640205
0.02097748,0.05009457,0.014004434,-0.018917965,0.037516523,0.039854866,-0.016804596,-0.019793168,-0.015976407,0.0057638637,-0.017423708,-0.010704942
0.020918004,0.050093386,0.013994832,-0.018920068,0.037595496,0.039858263,-0.016800113,-0.019807238,-0.01597219,0.0057947794,-0.017419932,-0.010834266
0.020934414,0.050047114,0.013984393,-0.018919239,0.037575442,0.039740946,-0.016814498,-0.019792115,-0.015992139,0.005729401,-0.017421324,-0.010843341
0.02092416,0.05011478,0.013996807,-0.018916877,0.037522726,0.03977167,-0.016846756,-0.019801134,-0.01600404,0.0057126037,-0.017423073,-0.010786645
0.0209533,0.050149944,0.013981172,-0.018921046,0.037432887,0.03967319,-0.01688181,-0.019846175,-0.016012805,0.0057665478,-0.017423013,-0.010667528
0.020889776,0.050037846,0.014039052,-0.018919585,0.03757196,0.03973898,-0.016842091,-0.019860936,-0.016029142,0.0057037184,-0.017421007,-0.010665275
0.021060072,0.0502333,0.01396594,-0.018924916,0.03751252,0.039654274,-0.016804574,-0.019938638,-0.01601058,0.005720375,-0.0174205,-0.010725963
0.020995311,0.05003428,0.013972658,-0.018929027,0.03759258,0.039698355,-0.016857604,-0.019893793,-0.01600551,0.0056873895,-0.017419267,-0.010702627
0.021057155,0.050060336,0.013976546,-0.018932622,0.03739778,0.039451186,-0.016914798,-0.019854892,-0.016009226,0.0057491427,-0.01741104,-0.010675016
0.021018518,0.05010874,0.013958183,-0.01893586,0.037384357,0.03959831,-0.016899835,-0.019825462,-0.016013894,0.005734225,-0.017413545,-0.010644448
0.020908972,0.050094303,0.013959696,-0.018937213,0.037447933,0.039531138,-0.01693684,-0.019891333,-0.016028779,0.005719705,-0.017415006,-0.010676554
0.02099711,0.050173525,0.013918463,-0.01892803,0.037390295,0.040023852,-0.016932901,-0.019844703,-0.016016645,0.005718571,-0.017414616,-0.01069954
0.020755129,0.050009575,0.014026658,-0.018923456,0.037443195,0.039388217,-0.016966233,-0.019879946,-0.01601536,0.005668406,-0.017409917,-0.010658273
0.020905644,0.050262887,0.013926332,-0.01891508,0.037339404,0.03946334,-0.016910242,-0.019951835,-0.016017213,0.005684301,-0.017411167,-0.010607369
0.02078658,0.050043438,0.014049426,-0.018909609,0.037404045,0.03968604,-0.016978234,-0.019946927,-0.015989382,0.005676298,-0.017401755,-0.010574931
0.020777948,0.050167095,0.014020183,-0.018907633,0.037387054,0.03959023,-0.016987294,-0.01990193,-0.015987972,0.0056844517,-0.01740097,-0.010818313
0.020738773,0.05008157,0.014038578,-0.01890957,0.037452728,0.039560344,-0.016984398,-0.019937292,-0.015973479,0.005683009,-0.017399034,-0.010794365
0.02074116,0.050053842,0.01402689,-0.01890441,0.03765256,0.039979156,-0.017147793,-0.01991138,-0.015983019,0.0056922683,-0.017400045,-0.010832786
0.020694366,0.05001684,0.014042615,-0.018906146,0.03762673,0.039834917,-0.017204575,-0.019986354,-0.015979454,0.0057253977,-0.01740349,-0.0108323535
0.020722337,0.05015583,0.014006805,-0.01890905,0.037641365,0.03995175,-0.017103964,-0.019916894,-0.015983673,0.005752292,-0.017404815,-0.010794024
0.020699788,0.05003788,0.014051688,-0.018903859,0.037693102,0.0398314,-0.01705876,-0.019939326,-0.015965352,0.0057557826,-0.017406395,-0.010829312
0.020742327,0.050095417,0.013938363,-0.018902764,0.03769645,0.03976773,-0.016962772,-0.01990003,-0.015988583,0.005691305,-0.017407011,-0.010840139
0.020689776,0.04987219,0.014014825,-0.018908625,0.03774804,0.039841995,-0.017041214,-0.019848498,-0.015964948,0.005718717,-0.017405858,-0.010735621
0.020635901,0.049893733,0.014030068,-0.018906506,0.037697803,0.03953595,-0.017062705,-0.01992102,-0.015978463,0.0056721033,-0.017409084,-0.01089242
0.020675289,0.049938872,0.014044094,-0.018903267,0.037752807,0.039754596,-0.016981348,-0.019864893,-0.01597978,0.005667864,-0.017412815,-0.010874746
0.02063729,0.0498617,0.014044831,-0.018897297,0.03778171,0.03981573,-0.016993534,-0.019893387,-0.015977608,0.0056660315,-0.017421031,-0.010866201
0.020678809,0.050031357,0.014029788,-0.018890174,0.037654795,0.03955226,-0.0169565,-0.01988244,-0.016000887,0.0056983978,-0.017419646,-0.010930337
0.020607775,0.049764775,0.014082028,-0.018889368,0.0379021,0.039962977,-0.017038431,-0.019864563,-0.015999114,0.005746728,-0.01741905,-0.01087341
0.020601118,0.0498547,0.01408901,-0.01888914,0.037789613,0.0397197,-0.017009828,-0.019863982,-0.015991416,0.0057746004,-0.017420573,-0.01094408
0.020668313,0.049827393,0.0140798185,-0.018886125,0.037804697,0.039848972,-0.017115556,-0.019872667,-0.015996778,0.0058144787,-0.017418401,-0.010939074
0.02064001,0.04972552,0.014087817,-0.01888673,0.037797324,0.039851245,-0.01709271,-0.019912079,-0.016001277,0.005799113,-0.017419044,-0.010978403
0.020633647,0.049706813,0.014137462,-0.018896278,0.03782106,0.04004246,-0.017140938,-0.019918574,-0.016005447,0.0058432473,-0.017417904,-0.011080004
0.02067503,0.049878467,0.014098094,-0.018888498,0.037730884,0.039882656,-0.01709823,-0.019950517,-0.016015226,0.005808584,-0.017422747,-0.0111293765
0.02070512,0.04979854,0.014116517,-0.018887931,0.03772657,0.03979489,-0.017147958,-0.019951997,-0.016007412,0.005788748,-0.017427225,-0.01107529
0.020694677,0.049774975,0.014103013,-0.018887155,0.037895486,0.03981642,-0.017170146,-0.020002168,-0.016022254,0.0057470216,-0.017425869,-0.011082471
0.020672338,0.0497625,0.014094686,-0.018885758,0.03797651,0.040214993,-0.017167322,-0.020027326,-0.016024288,0.0057822405,-0.017424582,-0.010999927
0.020599507,0.04970593,0.014124711,-0.018874899,0.03802582,0.040019058,-0.017167605,-0.020053238,-0.016021991,0.005737753,-0.017426115,-0.011022232
0.020701457,0.049841978,0.014139517,-0.018875418,0.03791598,0.0399006,-0.017080655,-0.020105006,-0.016034197,0.0057102116,-0.017426908,-0.011036781
0.020816837,0.049897816,0.0140652675,-0.01887733,0.037932385,0.039901987,-0.017217027,-0.020113401,-0.016041322,0.00578308,-0.017426848,-0.011022793
0.020789444,0.049923036,0.01406038,-0.018881768,0.03800691,0.04011601,-0.017221184,-0.020101592,-0.01604242,0.005759927,-0.017426997,-0.011060143
0.02076068,0.04977477,0.014064171,-0.018889317,0.03789374,0.040091727,-0.017185016,-0.019990476,-0.016033685,0.0057540773,-0.017424777,-0.010993145
0.020751605,0.049891114,0.014052959,-0.01889931,0.03798502,0.040014714,-0.017023696,-0.0199937,-0.016032567,0.005768737,-0.017427756,-0.011153712
0.020780975,0.049834672,0.01407943,-0.018903643,0.038062,0.041008104,-0.017118787,-0.019988203,-0.016050823,0.00576333,-0.017427713,-0.011134892
0.020618899,0.049788367,0.014128669,-0.01889256,0.037739426,0.039620504,-0.017229857,-0.020099208,-0.016035596,0.0056304918,-0.017424004,-0.011073491
0.020803692,0.049980402,0.013935541,-0.01889051,0.0378852,0.0404051,-0.017140934,-0.02007173,-0.016032752,0.0055940817,-0.017423121,-0.01108505
0.020797953,0.04992359,0.013972036,-0.018887348,0.037844513,0.041043848,-0.017151969,-0.020084802,-0.016028916,0.005621437,-0.017412756,-0.01121414
0.020773716,0.05001451,0.014023743,-0.018893063,0.037763942,0.04076554,-0.017183946,-0.020059895,-0.01603921,0.0056001144,-0.01741029,-0.011358875
0.020738747,0.04996028,0.014076679,-0.018895218,0.03778885,0.04062246,-0.017219625,-0.020044515,-0.016042126,0.0055892477,-0.017409237,-0.011283951
0.020759756,0.049981795,0.014053806,-0.01889741,0.037776448,0.04055735,-0.017332047,-0.020008361,-0.016030198,0.0056025363,-0.017411407,-0.011300207
0.020727472,0.05005917,0.014067335,-0.018893402,0.037756678,0.04056435,-0.017316021,-0.020034732,-0.016010055,0.00560447,-0.017412141,-0.011320813
0.020750789,0.050138254,0.014074076,-0.018896665,0.03777657,0.040663395,-0.017263982,-0.020065809,-0.015989054,0.005631522,-0.017412866,-0.011340096
0.020616995,0.050146695,0.014070121,-0.018901074,0.037624173,0.040159695,-0.017293965,-0.020110343,-0.015997393,0.005645116,-0.017408842,-0.01134379
0.020643054,0.050107032,0.014072693,-0.018904824,0.03772789,0.040479623,-0.017320182,-0.020079616,-0.01597953,0.005655977,-0.017408539,-0.011366388
0.020648599,0.050181538,0.014095956,-0.018907433,0.03770307,0.040233284,-0.017307939,-0.020113464,-0.015980076,0.005684049,-0.017409965,-0.011433114
0.020661682,0.050037254,0.014117881,-0.018904483,0.037782084,0.040305007,-0.017327419,-0.020051504,-0.015983863,0.0057744053,-0.017412333,-0.011308967
0.02082435,0.05022727,0.014087787,-0.018901577,0.037693087,0.04032514,-0.01728062,-0.020130716,-0.015971709,0.0058107194,-0.01741302,-0.011328317
0.020762093,0.050114397,0.014119552,-0.018905021,0.03786974,0.04060443,-0.01736516,-0.020108933,-0.015993558,0.0058212886,-0.017413057,-0.011296818
0.020723296,0.050115664,0.0141055565,-0.018908642,0.03781038,0.040578403,-0.017388625,-0.0200953,-0.015992245,0.0058662114,-0.017413888,-0.011257328
0.020778328,0.05018691,0.014042045,-0.018910082,0.03763139,0.04045461,-0.01730589,-0.020048685,-0.015976386,0.0059002787,-0.017417686,-0.011382923
0.020747026,0.05016762,0.014023524,-0.018905168,0.03766509,0.04054079,-0.01733487,-0.020032113,-0.0160118,0.005883764,-0.017420547,-0.011342997
0.020763498,0.05025826,0.014015574,-0.01890681,0.037488956,0.040303275,-0.01733694,-0.019973364,-0.015996167,0.0058897254,-0.017416568,-0.011430633
0.020680157,0.05022586,0.014015936,-0.018907651,0.03757511,0.040410332,-0.0173777,-0.019842986,-0.015989264,0.005841439,-0.017420555,-0.011443742
0.020610198,0.050168086,0.014024841,-0.018904831,0.03767974,0.040547628,-0.017374227,-0.0198465,-0.015973004,0.005860621,-0.017420156,-0.011450471
0.02068039,0.050273653,0.013992621,-0.018909123,0.037620693,0.040577177,-0.017345464,-0.019754423,-0.01596271,0.0058754333,-0.017418448,-0.011544543
0.020604761,0.050247867,0.014066459,-0.018908748,0.037542917,0.040313095,-0.017314924,-0.019783871,-0.015982045,0.0058147996,-0.017422948,-0.011522156
0.020653913,0.0503171,0.014006849,-0.018915376,0.037492532,0.040443163,-0.017339008,-0.019847369,-0.016002694,0.0059034554,-0.01742032,-0.011685574
0.020655379,0.050218947,0.014029349,-0.018914279,0.037572615,0.040584274,-0.017334536,-0.019825207,-0.015999103,0.0058854087,-0.01742258,-0.011765302
0.020577574,0.050284266,0.014114065,-0.018905565,0.03750707,0.040471666,-0.017326614,-0.01985812,-0.01600169,0.005862745,-0.017418792,-0.011788331
0.020661118,0.050184514,0.014054239,-0.018899322,0.03756715,0.04094334,-0.017364021,-0.019750876,-0.016003126,0.005870153,-0.017420322,-0.011665235
0.02066649,0.05030756,0.014031424,-0.018896747,0.037372418,0.040572457,-0.017416615,-0.019784475,-0.015998635,0.005871972,-0.017421147,-0.011744117
0.020651618,0.05022028,0.0140894335,-0.01889625,0.037431717,0.04078346,-0.017395196,-0.019779483,-0.01600343,0.005885479,-0.017423168,-0.011656872
0.02067305,0.050107792,0.014060856,-0.01889567,0.03746557,0.04088394,-0.017375683,-0.019693585,-0.016018892,0.005916096,-0.01742363,-0.011618366
0.020581236,0.050043628,0.014102818,-0.018900545,0.037458148,0.040566992,-0.017474057,-0.0197458,-0.016021116,0.00588957,-0.017425658,-0.011614749
0.020654494,0.04999151,0.014128752,-0.018898088,0.037385248,0.040584438,-0.017445475,-0.019721856,-0.016005404,0.0059603937,-0.017425716,-0.011562665
0.020715855,0.05022246,0.014093073,-0.01889388,0.037344497,0.04016031,-0.017348073,-0.019719502,-0.016049987,0.0059718713,-0.017422719,-0.011683895
0.020668022,0.050157633,0.0140605355,-0.018898448,0.037513494,0.04031073,-0.017465746,-0.019719873,-0.016044587,0.0060034394,-0.01742605,-0.0115760295
0.020585788,0.05012141,0.014090581,-0.018904792,0.03755093,0.04030442,-0.017408956,-0.019703805,-0.016036248,0.0060157184,-0.017426187,-0.011594715
0.020552633,0.050126337,0.014163728,-0.018907033,0.037599567,0.0400579,-0.017355915,-0.019729495,-0.016051786,0.005983262,-0.017427696,-0.011543277
0.020536495,0.05014499,0.014169305,-0.0189092,0.037560254,0.040191915,-0.017317222,-0.019750925,-0.016044147,0.0059603993,-0.01742667,-0.011581349
0.020453634,0.05011062,0.014198671,-0.01890327,0.037512075,0.039732154,-0.017406221,-0.019740716,-0.016053427,0.005970605,-0.017425464,-0.011547776
0.020571925,0.05019226,0.014226808,-0.018905273,0.037365075,0.039940014,-0.017232543,-0.019754773,-0.016036144,0.0060507758,-0.017427942,-0.011508222
0.020450657,0.050230213,0.014252514,-0.018904677,0.03735791,0.03926907,-0.017334672,-0.019751413,-0.016025238,0.0059989486,-0.017427213,-0.011635824
0.020507457,0.050240353,0.014217937,-0.018903814,0.03736311,0.03923874,-0.0173374,-0.019747466,-0.01603081,0.0060336404,-0.01742291,-0.01158494
0.020494543,0.050119262,0.014266581,-0.01890956,0.03743112,0.03959236,-0.01730448,-0.019802041,-0.016026743,0.0060359403,-0.017425356,-0.011592283
0.020460868,0.049982365,0.014266813,-0.018910397,0.03742333,0.039833277,-0.01728481,-0.019800218,-0.016033046,0.006056962,-0.017420078,-0.011552301
0.0204413,0.05018285,0.014201979,-0.01891805,0.03739396,0.039592925,-0.017469404,-0.019803729,-0.016024584,0.006020229,-0.017423341,-0.011557917
0.02042833,0.050155412,0.014200475,-0.01891598,0.03746064,0.039732445,-0.017467927,-0.019796513,-0.016023867,0.005993777,-0.017422074,-0.011542371
0.020422425,0.050218236,0.014192962,-0.018925019,0.03754016,0.039790094,-0.017499117,-0.019827237,-0.016011192,0.0060031046,-0.017424684,-0.011512485
0.02045706,0.05015536,0.014155495,-0.018925438,0.037583612,0.039973464,-0.017489646,-0.019818993,-0.016020223,0.005995458,-0.017426524,-0.011479177
0.020449305,0.050164726,0.014170268,-0.018926047,0.03762472,0.040211897,-0.017632136,-0.019853847,-0.016009124,0.006000055,-0.017425157,-0.011531164
0.02042808,0.050269976,0.014217509,-0.018931475,0.03756162,0.04009484,-0.017692694,-0.019925965,-0.01602239,0.00605297,-0.017418878,-0.0114928745
0.020422263,0.05013805,0.01421609,-0.018933205,0.037579246,0.04028641,-0.01786,-0.01988432,-0.016035672,0.006034944,-0.017420063,-0.011515564
0.020332104,0.05010031,0.014319615,-0.018937143,0.037608083,0.03992132,-0.017780289,-0.01991319,-0.016025249,0.0059810104,-0.017421035,-0.011527854
0.020408293,0.050355345,0.014290517,-0.018943192,0.037633374,0.039995283,-0.017818294,-0.01989683,-0.016023947,0.0059926035,-0.017422823,-0.011629649
0.020232107,0.049827218,0.014443353,-0.01894137,0.037935317,0.040341858,-0.017784674,-0.019868813,-0.01603049,0.0059598484,-0.017423984,-0.011600091
0.020327417,0.05005695,0.014394141,-0.018935783,0.037779316,0.03989061,-0.017808251,-0.019858338,-0.016056467,0.005942225,-0.017432349,-0.01168584
0.020372551,0.05001413,0.014417966,-0.018938828,0.03775706,0.040127102,-0.017777242,-0.019836886,-0.016059304,0.005981725,-0.01743472,-0.011499928
0.020391928,0.049937062,0.014398153,-0.018938605,0.03780162,0.04040322,-0.017750919,-0.019837847,-0.01606366,0.0060175215,-0.017435089,-0.011414504
0.020374497,0.04999125,0.0143481465,-0.018940864,0.037682537,0.040095277,-0.017755087,-0.019804906,-0.016060023,0.006023613,-0.017433599,-0.011525649
0.020355454,0.04996913,0.014352808,-0.01893065,0.037461814,0.0397542,-0.017750517,-0.019793784,-0.016080474,0.0060845343,-0.01743071,-0.011497608
0.02042245,0.05002781,0.014391037,-0.018935628,0.03741068,0.039819248,-0.017796572,-0.019777387,-0.016073374,0.0060597574,-0.017437533,-0.011375565
0.020360723,0.049968574,0.014418894,-0.018936828,0.037457384,0.039868183,-0.017791573,-0.019813208,-0.016059114,0.0060269753,-0.017435724,-0.011385102
0.020317316,0.049977418,0.014368453,-0.018936098,0.037512798,0.039818525,-0.01780225,-0.019813437,-0.01603434,0.0060339593,-0.017433902,-0.011358645
0.020329364,0.049987588,0.014331492,-0.018939037,0.03755991,0.03999357,-0.017831283,-0.019748151,-0.016026417,0.0060347617,-0.017437387,-0.011315342
0.020364871,0.05003429,0.01434407,-0.018948032,0.037396576,0.039646197,-0.01775247,-0.019747084,-0.01600487,0.006039865,-0.017433202,-0.011433359
0.020397583,0.049946167,0.014302267,-0.018949073,0.03724692,0.039620813,-0.017727433,-0.019708598,-0.016014498,0.0059873024,-0.017434362,-0.011325557
0.020406261,0.050143436,0.014302543,-0.018949505,0.03722967,0.03920501,-0.017772451,-0.01978136,-0.016016643,0.0060118437,-0.017439207,-0.011264569
0.020419165,0.05011071,0.014284362,-0.01894625,0.03727385,0.039556567,-0.017804343,-0.019767812,-0.016033346,0.0059491973,-0.017436191,-0.011312258
0.02038105,0.049984876,0.014342795,-0.018950265,0.03724885,0.039298765,-0.01792559,-0.019796452,-0.016029425,0.0059202965,-0.017436065,-0.011343111
0.02054141,0.04997033,0.014270822,-0.018937849,0.037174392,0.039541516,-0.018039826,-0.019727238,-0.01602058,0.005943716,-0.017437449,-0.011228953
0.02050953,0.049877316,0.014301843,-0.018937783,0.037239715,0.039477468,-0.018002942,-0.019721042,-0.016023207,0.005906766,-0.017438278,-0.011272105
0.020484129,0.049920235,0.014310352,-0.018940143,0.037301317,0.039424952,-0.017931039,-0.019787466,-0.016029635,0.0058798827,-0.017438095,-0.011213369
0.020600015,0.049979456,0.014361677,-0.018938279,0.037274864,0.039608132,-0.017938688,-0.01977894,-0.016021315,0.0058541754,-0.017442146,-0.011289222
0.02050138,0.049928185,0.014384792,-0.018933602,0.03747782,0.039425522,-0.017976776,-0.019764446,-0.016003791,0.0058698882,-0.017443499,-0.011190724
0.02054149,0.050040174,0.014395026,-0.018929565,0.037498612,0.03963334,-0.01790021,-0.01969937,-0.016015034,0.0059161554,-0.017442709,-0.011244218
0.020520551,0.049971692,0.014399571,-0.018931909,0.037514042,0.03990306,-0.017922647,-0.019682521,-0.01604898,0.005945855,-0.017438088,-0.0112711415
0.020473666,0.05005445,0.014382844,-0.018935217,0.037404433,0.039655957,-0.017915433,-0.019735724,-0.016061978,0.0059485924,-0.017438393,-0.01130831
0.020335035,0.05002415,0.014365611,-0.01893709,0.037404403,0.039360728,-0.017913258,-0.019736923,-0.016078057,0.0059058405,-0.017435411,-0.011305879
0.020403791,0.05000102,0.014364213,-0.018941907,0.03734413,0.039474793,-0.017901503,-0.019747904,-0.0160817,0.0059978864,-0.017432105,-0.01133599
0.020343415,0.0499553,0.014324602,-0.018935781,0.037405826,0.03941139,-0.017895246,-0.019734642,-0.016091168,0.005977064,-0.017434273,-0.011319398
0.020358285,0.049884617,0.014358665,-0.01893526,0.0373313,0.03929167,-0.017947888,-0.019694474,-0.016091306,0.0059385845,-0.01743637,-0.011362394
0.020356936,0.04985304,0.0143856285,-0.018934848,0.03718239,0.03923851,-0.017926933,-0.019712346,-0.016076274,0.0059218984,-0.017440623,-0.011318291
0.020324802,0.049828514,0.014378781,-0.018933855,0.037210923,0.039477333,-0.017926263,-0.019674346,-0.01610043,0.0058904258,-0.017441008,-0.011328821
0.02026717,0.04981039,0.0143943485,-0.018941436,0.037265617,0.039220482,-0.017961428,-0.019756155,-0.016126256,0.0058685294,-0.017441392,-0.011330939
0.020305192,0.049771197,0.014368421,-0.018942986,0.037259433,0.039407916,-0.017914614,-0.019758422,-0.016120184,0.0058821714,-0.017447514,-0.011306036
0.020300642,0.049936555,0.014372876,-0.018939642,0.03722137,0.03916558,-0.01790114,-0.019782208,-0.01610557,0.0058780764,-0.01744821,-0.0113215465
0.020358475,0.049968887,0.014346611,-0.018943831,0.03724939,0.039409187,-0.017871572,-0.019742638,-0.016086446,0.00589214,-0.01744618,-0.011331736
0.020272888,0.049852606,0.014404059,-0.018943004,0.037322983,0.03926245,-0.017919766,-0.01977515,-0.016058665,0.005859173,-0.01744583,-0.011215226
0.020327382,0.04977209,0.014348229,-0.0189468,0.037335165,0.039469495,-0.017987644,-0.01977016,-0.016050953,0.005890702,-0.017441154,-0.01123006
0.020353608,0.049851354,0.014348498,-0.018959181,0.03727193,0.03969127,-0.017859854,-0.019783888,-0.016042974,0.0059528244,-0.017439915,-0.011302712
0.02023495,0.049809605,0.014353519,-0.018949334,0.037344955,0.039926887,-0.01788056,-0.019757966,-0.016061127,0.005885877,-0.017433908,-0.011350438
0.020278316,0.049825996,0.014373329,-0.018957283,0.03722141,0.039714076,-0.017888077,-0.019807681,-0.016048742,0.0059914566,-0.01743361,-0.011289039
0.020272499,0.04970762,0.014397319,-0.018952351,0.037278716,0.040046975,-0.017849535,-0.019747581,-0.01606987,0.0059596575,-0.017435623,-0.011244311
0.020286748,0.049762804,0.014398155,-0.018956171,0.03724175,0.03964126,-0.017892351,-0.019752923,-0.016065598,0.0060018986,-0.01743541,-0.011251695
0.020241609,0.04961572,0.014418239,-0.018951463,0.037223294,0.03970996,-0.018013619,-0.019749954,-0.01609522,0.0059897853,-0.01743497,-0.011195476
0.020315396,0.049760215,0.014368368,-0.018948516,0.037101135,0.039362513,-0.017937861,-0.01975524,-0.016078588,0.0060210316,-0.017433854,-0.011303352
0.020224025,0.049658746,0.014367504,-0.018953737,0.037287615,0.039983224,-0.0179299,-0.019733338,-0.016101575,0.0059857955,-0.01743616,-0.011226643
0.020071778,0.049794283,0.014389455,-0.018946368,0.037306074,0.03949509,-0.017943362,-0.019851226,-0.016100734,0.0059665716,-0.017434334,-0.011241502
0.020048315,0.049704727,0.014343889,-0.018939007,0.03728022,0.039890233,-0.017959422,-0.019826094,-0.016092017,0.0059796185,-0.017431883,-0.011208883
0.020056434,0.04974684,0.014354889,-0.018941874,0.037274238,0.039941534,-0.017972685,-0.019913042,-0.016079169,0.005977339,-0.017429816,-0.011281148
0.020076994,0.04978719,0.0143136885,-0.018944921,0.037301693,0.04021326,-0.017996592,-0.01989634,-0.016059924,0.0060116705,-0.017430754,-0.01130685
0.020039875,0.049680013,0.014366895,-0.018945154,0.037376866,0.040270556,-0.018007388,-0.019888014,-0.016096612,0.0060241637,-0.017430058,-0.011208765
0.020070199,0.04972202,0.014352517,-0.01895484,0.037227947,0.03999989,-0.018028034,-0.019995056,-0.016101219,0.0060322317,-0.01743264,-0.011330316
0.019894402,0.049628515,0.014412069,-0.018951904,0.037340928,0.039828148,-0.018099915,-0.019993907,-0.016123518,0.006016363,-0.017430192,-0.01132026
0.019954387,0.04957225,0.014365957,-0.01895426,0.037260372,0.039935537,-0.018303737,-0.019932192,-0.016100213,0.006047466,-0.017429141,-0.011341407
0.01997255,0.049687307,0.01436317,-0.018954147,0.037261568,0.03999634,-0.01816046,-0.019953908,-0.016124448,0.0060714246,-0.017429011,-0.01129387
0.019926466,0.04965024,0.014386485,-0.018951416,0.03729841,0.040124603,-0.01811688,-0.019914074,-0.01610133,0.0061227633,-0.017428625,-0.011352086
0.020045787,0.04982591,0.014269145,-0.018949404,0.037243787,0.04026967,-0.018127663,-0.01988312,-0.016069407,0.0060805823,-0.017429844,-0.011331382
0.02015491,0.049853493,0.014289553,-0.018952379,0.037350178,0.039945558,-0.018106518,-0.019898592,-0.016064063,0.006009043,-0.017426005,-0.011344291
0.020140002,0.049788922,0.014257203,-0.018958002,0.037347805,0.03995032,-0.018020706,-0.01991794,-0.016068082,0.00602309,-0.017428484,-0.011355473
0.020150512,0.049707577,0.014316104,-0.018957669,0.03746878,0.040379126,-0.018089645,-0.01989544,-0.016077656,0.0060469895,-0.017427709,-0.011311965
0.020327806,0.049980897,0.01424327,-0.018951403,0.0372539,0.040182877,-0.018078547,-0.019954253,-0.016062422,0.0060778097,-0.017424302,-0.011419931
0.020186601,0.049638104,0.014311536,-0.018946514,0.03748636,0.04045608,-0.018140724,-0.019929403,-0.016079914,0.006071347,-0.017425269,-0.011315389
0.0202797,0.04992105,0.014321478,-0.018951282,0.037357245,0.040427443,-0.018032644,-0.019959262,-0.016084865,0.00612773,-0.017424708,-0.011340503
0.020211069,0.049860764,0.014355906,-0.018957317,0.03744731,0.040454544,-0.018002728,-0.01998974,-0.01609935,0.0060649416,-0.017425235,-0.011241496
0.020142367,0.049764324,0.014419593,-0.018958239,0.037568167,0.040680587,-0.01798616,-0.020031668,-0.016116144,0.0060528824,-0.01742344,-0.011246749
0.02015403,0.049912557,0.014358952,-0.018965326,0.037508994,0.040342852,-0.018104933,-0.020044692,-0.016114589,0.0060663796,-0.017419348,-0.011313461
0.020195529,0.04979643,0.01436774,-0.018964142,0.03762139,0.040620532,-0.01812944,-0.020018302,-0.01611293,0.0060535297,-0.017417716,-0.011279424
0.020172896,0.049897645,0.014396596,-0.018964807,0.037610617,0.04011669,-0.018091734,-0.020048883,-0.016088137,0.006099881,-0.017418185,-0.011313351
0.020174677,0.049734343,0.014374979,-0.018967547,0.037713964,0.040534604,-0.018027462,-0.019993812,-0.01615838,0.006059032,-0.017424613,-0.011202505
0.020122271,0.04982844,0.014430048,-0.018965451,0.03765291,0.040361524,-0.018029626,-0.020062486,-0.016147438,0.0061107464,-0.017423756,-0.011167054
0.020135675,0.049849723,0.014358246,-0.018967774,0.037754506,0.04075381,-0.018008044,-0.020055696,-0.016139127,0.0061122268,-0.017423106,-0.011120675
0.020094683,0.04970886,0.014360665,-0.018973917,0.037650883,0.040552523,-0.017989917,-0.020027997,-0.016144717,0.0061923494,-0.01742143,-0.011102162
0.020019224,0.049825303,0.014404167,-0.01896907,0.037672862,0.040094983,-0.018053684,-0.020035822,-0.016160628,0.0061690435,-0.017422024,-0.011091148
0.020002997,0.049924504,0.014406799,-0.018965788,0.037609063,0.039885122,-0.017986244,-0.020013891,-0.016157001,0.006203238,-0.01741946,-0.011148731
0.019978885,0.04994747,0.0144332405,-0.018957028,0.037608072,0.040167373,-0.018033154,-0.020032559,-0.016144268,0.006167603,-0.017418455,-0.011111934
0.02010885,0.0499741,0.014421158,-0.018956484,0.037602697,0.040066198,-0.018118516,-0.020032076,-0.016159337,0.0061709043,-0.017421497,-0.011011855
0.020066677,0.049901437,0.014384455,-0.018959504,0.03769193,0.040451705,-0.018150164,-0.020047868,-0.016170308,0.0060868007,-0.017421022,-0.01095142
0.020007718,0.050050512,0.014395786,-0.018946523,0.037629243,0.039927546,-0.018243149,-0.020029575,-0.016151614,0.0060709408,-0.017418377,-0.010929442
0.020011777,0.049913373,0.014382375,-0.018945538,0.037756674,0.04029337,-0.01823935,-0.02003833,-0.016166376,0.006082914,-0.017409248,-0.0109732775
0.019957338,0.049937792,0.014316434,-0.018946728,0.037692443,0.04020909,-0.0182844,-0.02004825,-0.016156536,0.0061212685,-0.0174063,-0.010974774
0.019865386,0.049673684,0.014498199,-0.01895182,0.037785288,0.040174205,-0.018340291,-0.020049352,-0.016156666,0.006065197,-0.01740401,-0.010890307
0.019924546,0.049833603,0.01447454,-0.018953627,0.037544772,0.03983026,-0.018370226,-0.02001616,-0.016217913,0.0059729535,-0.017411154,-0.0110423155
0.019886054,0.04976828,0.014519808,-0.018959654,0.03771137,0.040009424,-0.01831525,-0.020047065,-0.016194463,0.0060262918,-0.01740717,-0.010981635
0.019879507,0.04978035,0.014545202,-0.018958498,0.037765406,0.040148918,-0.01831317,-0.020119425,-0.016203664,0.0060053095,-0.017407998,-0.011080112
0.019902375,0.049799293,0.014537446,-0.01896145,0.03763662,0.039692327,-0.01836859,-0.0201308,-0.016184077,0.006042175,-0.017411662,-0.011143383
0.019937094,0.049827255,0.0144798765,-0.018959804,0.037742034,0.040303994,-0.018152766,-0.020081533,-0.016176324,0.0060436707,-0.01741843,-0.011068439
0.019903876,0.04983906,0.014536421,-0.018953202,0.03753739,0.039720587,-0.018119873,-0.02009102,-0.01618784,0.005993479,-0.017418694,-0.011212588
0.019783396,0.049697664,0.014544851,-0.0189611,0.03770216,0.040058427,-0.018191818,-0.020056723,-0.016197642,0.005987901,-0.017415382,-0.011099541
0.019779805,0.04968782,0.014604467,-0.018962348,0.03773462,0.04007121,-0.018152842,-0.020072239,-0.01617563,0.0059585846,-0.017413966,-0.011100852
0.01980996,0.04969311,0.014590057,-0.01897217,0.037782025,0.0400023,-0.018151565,-0.02011189,-0.016185874,0.005990431,-0.017410917,-0.011074241
0.019853514,0.049745973,0.014568329,-0.018975317,0.037830736,0.040210545,-0.018049648,-0.020110952,-0.016166281,0.0059836577,-0.017416935,-0.011093447
0.019856488,0.04975672,0.014550317,-0.018971596,0.037979256,0.040404074,-0.018115932,-0.020147527,-0.01615929,0.005927906,-0.01742294,-0.011054048
0.019799396,0.049764555,0.014558712,-0.018968562,0.03786297,0.040101133,-0.01817993,-0.020154316,-0.016148407,0.0060085766,-0.017420352,-0.011122387
0.01977421,0.049707312,0.014554302,-0.01896574,0.037997495,0.04045248,-0.018289853,-0.020043401,-0.016158512,0.0059753964,-0.017419234,-0.011079819
0.019724255,0.049669888,0.014610541,-0.018960414,0.038101275,0.040680278,-0.018287675,-0.020092439,-0.016166633,0.0059044715,-0.017414445,-0.011115807
0.019699799,0.049524076,0.014640122,-0.01895422,0.037819006,0.040144816,-0.018231401,-0.020144152,-0.016169904,0.0059664855,-0.01741659,-0.011155583
0.019765565,0.049573693,0.014616045,-0.018953621,0.037973225,0.040395714,-0.018123839,-0.020168671,-0.016186947,0.0058443956,-0.017428592,-0.011243231
0.01973642,0.04954931,0.014669875,-0.018961724,0.038068235,0.040606637,-0.018134097,-0.020186614,-0.01616906,0.0058729183,-0.017427579,-0.011180446
0.019763593,0.04952782,0.014619901,-0.01894517,0.038054902,0.040800344,-0.018221663,-0.020082004,-0.016185861,0.005843245,-0.017429603,-0.011186106
0.019829772,0.04970884,0.01465248,-0.018942842,0.037980143,0.040879406,-0.0182057,-0.020094536,-0.016178675,0.0058317245,-0.017425928,-0.011206663
0.019807983,0.049833264,0.014657493,-0.018950133,0.037873838,0.0407387,-0.018100664,-0.020111809,-0.016176349,0.0057969596,-0.017423974,-0.011245622
0.019808745,0.04983202,0.014599646,-0.018941412,0.037806958,0.040734686,-0.018265167,-0.020112835,-0.016175775,0.005776183,-0.017422993,-0.011260218
0.019885514,0.049842328,0.0145892,-0.01894196,0.037663084,0.040639963,-0.018169297,-0.020104125,-0.016185462,0.005759686,-0.017426558,-0.011284682
0.01994977,0.049940396,0.014622037,-0.01894256,0.03765529,0.040653285,-0.018102871,-0.020115992,-0.016182961,0.0057979343,-0.017420145,-0.0111853555
0.01985152,0.049857214,0.014647576,-0.018940069,0.037678406,0.04054228,-0.01805679,-0.020145006,-0.016186168,0.005781146,-0.017420946,-0.01120161
0.019816805,0.049844347,0.014584861,-0.018934412,0.03769172,0.04064816,-0.018073687,-0.020068519,-0.01620392,0.0057288017,-0.01741823,-0.011180336
0.019725421,0.049791638,0.014636891,-0.018936094,0.03756252,0.040326815,-0.018102307,-0.020113153,-0.016181096,0.005840109,-0.01741323,-0.011163484
0.019757925,0.049879096,0.014611894,-0.018945549,0.037588403,0.04078665,-0.017948858,-0.020113712,-0.016215986,0.0058345217,-0.017413722,-0.011087252
0.019741239,0.04979719,0.014637241,-0.018942941,0.037523,0.040453475,-0.01807914,-0.020125935,-0.01623447,0.0058102203,-0.017412577,-0.011124601
0.01968323,0.04982848,0.014680077,-0.018929882,0.037466083,0.04027474,-0.018161615,-0.020111524,-0.016217422,0.0058537684,-0.017413294,-0.011163152
0.019722112,0.04976954,0.014464747,-0.018944621,0.03733589,0.040447794,-0.018209612,-0.020065244,-0.016218295,0.005779443,-0.017411228,-0.011120262
0.01960127,0.049764477,0.014466422,-0.018947022,0.037505206,0.040543847,-0.018158391,-0.020049866,-0.016228314,0.00579345,-0.017407494,-0.011136931
0.01955984,0.049780596,0.014439283,-0.018938614,0.037531547,0.04052595,-0.01821425,-0.0200216,-0.016253933,0.005771325,-0.017408663,-0.011160057
0.019508827,0.049772102,0.014480559,-0.01893047,0.037475124,0.040013317,-0.018215807,-0.020041462,-0.016242161,0.0057338565,-0.01740655,-0.011140093
0.019463351,0.049786754,0.014523467,-0.018933462,0.03760674,0.040351514,-0.018140288,-0.020101147,-0.016276032,0.0057013314,-0.017406333,-0.011094486
0.01950518,0.049875416,0.014474679,-0.018934652,0.037748627,0.04091538,-0.018130017,-0.020136641,-0.01627712,0.0056693163,-0.017407166,-0.011264033
0.019569404,0.050133027,0.014467455,-0.018931996,0.037619233,0.040732887,-0.01808675,-0.020157242,-0.016260985,0.0057413564,-0.017407347,-0.011335865
0.019514406,0.04998851,0.014498763,-0.018932087,0.037603524,0.040937692,-0.018172769,-0.020159325,-0.016274426,0.0058595696,-0.0174041,-0.011174306
0.019455263,0.050006352,0.0144604305,-0.01892971,0.037564456,0.04060854,-0.018179726,-0.020156913,-0.016284816,0.005862017,-0.017404176,-0.011216029
0.019503677,0.04985363,0.014433571,-0.018937385,0.037485864,0.040684663,-0.018223524,-0.020125525,-0.016274167,0.0059048203,-0.017408865,-0.01121612
0.019518305,0.049892295,0.014442092,-0.018942477,0.037441764,0.040750388,-0.018208094,-0.020129416,-0.016282571,0.005900372,-0.017406683,-0.01107629
0.01956811,0.049945295,0.014447406,-0.018938765,0.03740301,0.040358897,-0.018279705,-0.020169543,-0.016256249,0.005890333,-0.01740574,-0.011159249
0.019540122,0.049904697,0.014432786,-0.018944893,0.037413735,0.04027853,-0.018387318,-0.020112365,-0.01627367,0.0059187147,-0.017397998,-0.011207554
0.019504627,0.050089553,0.014529943,-0.018954732,0.037303694,0.039521065,-0.018349912,-0.020156961,-0.01627656,0.005862926,-0.017394906,-0.011317577
0.019631388,0.050301295,0.014490453,-0.018953633,0.037294924,0.03965338,-0.018259827,-0.020104958,-0.01627665,0.0059073055,-0.017392257,-0.011328697
0.019434944,0.049801867,0.014792561,-0.018954765,0.037583675,0.03996558,-0.01824108,-0.020105328,-0.016299356,0.005904801,-0.017391428,-0.011274223
0.019488517,0.05039819,0.014726589,-0.018955382,0.037246797,0.039243985,-0.018332861,-0.020110324,-0.016278101,0.005987914,-0.017386047,-0.011450628
0.01939397,0.050181117,0.014751006,-0.018954337,0.03752564,0.039937224,-0.018331997,-0.020130677,-0.016280625,0.0059326696,-0.017377893,-0.01133478
0.019449657,0.050236437,0.014747435,-0.018953439,0.037512556,0.04008059,-0.018284693,-0.020196734,-0.01627594,0.0058921073,-0.01737976,-0.011274482
0.019391809,0.050357334,0.014756181,-0.018955266,0.037513155,0.039900973,-0.018338919,-0.020191096,-0.016288418,0.0059094927,-0.017377079,-0.011250538
0.019442761,0.050183818,0.0147159025,-0.018959174,0.03749444,0.03983967,-0.018378682,-0.020169152,-0.016289258,0.0059097647,-0.01738074,-0.011297587
0.019444488,0.050096862,0.014750364,-0.018952008,0.037528213,0.039692186,-0.018399794,-0.020187613,-0.016277583,0.0059327497,-0.017375633,-0.011276035
0.019447645,0.05000567,0.014742278,-0.018957308,0.037758738,0.040406175,-0.018399166,-0.020178217,-0.016247602,0.0059541995,-0.017377483,-0.011290362
0.019495256,0.05007601,0.014764401,-0.018956548,0.037648916,0.04021535,-0.018307516,-0.020262158,-0.01624881,0.005919042,-0.017381683,-0.011327564
0.019468697,0.050001066,0.014704362,-0.01895622,0.03767504,0.040297404,-0.018394455,-0.020220645,-0.016293995,0.0059112883,-0.01738769,-0.011259951
0.019441161,0.049839843,0.014726321,-0.018956356,0.037664205,0.040376414,-0.018396087,-0.020207426,-0.016276265,0.005913948,-0.017383173,-0.011167637
0.019473841,0.050066113,0.014688409,-0.018960025,0.037503418,0.040146828,-0.018374093,-0.020202281,-0.01627226,0.0058961245,-0.017389284,-0.011131416
0.019418571,0.050023552,0.014750147,-0.018955246,0.037589062,0.040040668,-0.018338732,-0.020201815,-0.016269913,0.005790787,-0.017387869,-0.011190061
0.019398961,0.049938627,0.014820201,-0.018958462,0.037644565,0.040150315,-0.018365268,-0.02019377,-0.016266014,0.0058201016,-0.01738364,-0.01114033
0.019566933,0.049975388,0.0147499805,-0.018957907,0.037547197,0.040320758,-0.018335804,-0.020181438,-0.016251994,0.0058875647,-0.017385256,-0.011108275
0.01952845,0.050040882,0.014762479,-0.01896137,0.03748513,0.039877295,-0.018290203,-0.020184683,-0.016245708,0.0058989553,-0.017390493,-0.01110989
0.01943806,0.049824532,0.014840195,-0.018953048,0.037524614,0.04010756,-0.018213548,-0.02017778,-0.01625603,0.0058737365,-0.01739107,-0.011141894
0.019429903,0.05005081,0.0148000475,-0.01895672,0.037606943,0.040040873,-0.01811427,-0.020213392,-0.01621636,0.0059089935,-0.017393852,-0.0113125695
0.01928183,0.0499001,0.014744293,-0.018955467,0.037565663,0.03965095,-0.018299967,-0.020211043,-0.016249172,0.005979835,-0.017372571,-0.011237549
0.019297995,0.049971428,0.014728249,-0.018962272,0.037656676,0.03982756,-0.018208565,-0.020239236,-0.016261837,0.006016032,-0.017372234,-0.011299644
0.019315785,0.0497292,0.014735032,-0.018955862,0.037738957,0.04017915,-0.018249406,-0.020221239,-0.016263893,0.0060168356,-0.017369566,-0.011345002
0.019291418,0.049646154,0.014773197,-0.01895826,0.03769333,0.040288053,-0.018271372,-0.020231884,-0.016237827,0.006041007,-0.017371096,-0.011263647
0.01929295,0.049623813,0.014825004,-0.018955236,0.03775549,0.040502213,-0.018337775,-0.020224504,-0.016231993,0.0060546375,-0.017370073,-0.011234588
0.019314423,0.049611397,0.014861904,-0.01895111,0.037626434,0.040089753,-0.01832412,-0.020213954,-0.016235461,0.0060718986,-0.017367553,-0.011328641
0.019377762,0.04970855,0.014859363,-0.018948102,0.037703983,0.04021361,-0.018369984,-0.020247836,-0.016209288,0.0061477195,-0.017365044,-0.011342647
0.01936274,0.049774222,0.014826696,-0.018939182,0.037815392,0.040088456,-0.018276624,-0.020236664,-0.016228145,0.006076721,-0.017375162,-0.011329895
0.019321045,0.049509082,0.014827959,-0.018944172,0.037724525,0.040241424,-0.01827165,-0.02018296,-0.016205056,0.0060506905,-0.017370796,-0.011286319
0.019360825,0.04967888,0.014779213,-0.018949889,0.03772061,0.04016869,-0.018252598,-0.020199815,-0.016216068,0.006028284,-0.01737119,-0.011288666
0.019318027,0.049605854,0.014816409,-0.018950047,0.03781691,0.04031957,-0.018235723,-0.020200986,-0.016231362,0.0060155634,-0.01737764,-0.011189827
0.019329457,0.049662672,0.014781888,-0.018951802,0.037763063,0.040312853,-0.018156275,-0.020219129,-0.016246423,0.005932437,-0.01737721,-0.011139954
0.019361679,0.049721885,0.014810621,-0.018945904,0.03750298,0.039880145,-0.018181238,-0.020291327,-0.016221497,0.005990193,-0.017371325,-0.011219709
0.019313576,0.04952697,0.014863604,-0.01893883,0.037577234,0.04001433,-0.018189415,-0.02022815,-0.016231088,0.005957427,-0.01737728,-0.011201227
0.019436365,0.049649052,0.014867403,-0.018943047,0.03737101,0.0399586,-0.01818702,-0.020317886,-0.016210686,0.005962844,-0.017376497,-0.011276025
0.019245425,0.0496317,0.0148860905,-0.018934254,0.03740087,0.038359683,-0.018214734,-0.020300606,-0.016255744,0.0057772337,-0.017386714,-0.011318283
0.019301081,0.049731012,0.014801641,-0.01892951,0.037379537,0.038743936,-0.018325943,-0.020290803,-0.016278645,0.005753181,-0.017386375,-0.0112869
0.019294422,0.049720563,0.014858677,-0.018918317,0.037442755,0.03870573,-0.01833629,-0.020275552,-0.016272215,0.0057238652,-0.017382888,-0.011248941
0.01927692,0.04973468,0.014859163,-0.018922707,0.037571736,0.039030682,-0.018371416,-0.020280726,-0.016255062,0.0057975203,-0.017383236,-0.011292221
0.019235803,0.049583364,0.014873398,-0.018924579,0.037685588,0.03921452,-0.01832956,-0.020286115,-0.016267957,0.0057960353,-0.017372172,-0.01125514
0.019299295,0.04971254,0.014717313,-0.018930541,0.037600856,0.039235972,-0.018302966,-0.020171583,-0.016262714,0.005678973,-0.017369438,-0.011368761
0.019218475,0.04943492,0.014729566,-0.018930648,0.03775293,0.039298758,-0.018406643,-0.020210441,-0.016250856,0.005781683,-0.01735535,-0.011425413
0.019239169,0.04932503,0.014782121,-0.01893228,0.037784733,0.039669126,-0.018382175,-0.020208314,-0.016252121,0.0056885174,-0.017350867,-0.011361736
0.019227087,0.049371894,0.014781955,-0.018931348,0.037788343,0.039746657,-0.018502705,-0.020254932,-0.016241962,0.0057229376,-0.017357154,-0.011352641
0.019226851,0.049332537,0.014783464,-0.018933423,0.03775831,0.03973358,-0.018445404,-0.020203846,-0.016254432,0.005764097,-0.017351853,-0.01137272
0.01919505,0.049560864,0.014723278,-0.018925942,0.03772387,0.039515495,-0.018441055,-0.020255866,-0.016274458,0.0057224836,-0.017354388,-0.011458885
0.019233672,0.049512684,0.014756957,-0.018925156,0.037640557,0.039427746,-0.018436277,-0.020282922,-0.01625787,0.0056913686,-0.017355535,-0.011448355
0.019323954,0.049518272,0.014787686,-0.018931452,0.037565295,0.039306257,-0.018444581,-0.020262998,-0.016265804,0.005710923,-0.017354265,-0.011411247
0.019290356,0.049471803,0.014753823,-0.018931478,0.037503105,0.039485905,-0.018454095,-0.020187987,-0.01625908,0.0058008856,-0.017353885,-0.0113777295
0.019294366,0.049464125,0.014740414,-0.018927075,0.037495777,0.039238326,-0.018518679,-0.020230947,-0.01626027,0.0058131125,-0.017349599,-0.011419407
0.019291798,0.04961512,0.014778193,-0.018934645,0.037522487,0.03920945,-0.018589593,-0.020261938,-0.016244061,0.0058761253,-0.017359968,-0.01138016
0.019239092,0.04946126,0.014748586,-0.018935138,0.037482683,0.039104965,-0.018554479,-0.020286253,-0.016260007,0.005853257,-0.01735829,-0.011389729
0.019282766,0.049470756,0.014715481,-0.018935869,0.037655193,0.039492853,-0.018534306,-0.020292003,-0.016274992,0.0058124186,-0.017362384,-0.011367464
0.01936349,0.049682207,0.014670013,-0.01894179,0.037561744,0.03922771,-0.018537931,-0.020334737,-0.016276073,0.0057605095,-0.017366422,-0.011412672
0.01937988,0.049543567,0.014691452,-0.018935047,0.037734814,0.039559092,-0.018597001,-0.020305026,-0.01625727,0.00577754,-0.017361484,-0.011334535
0.019403292,0.04983646,0.01468956,-0.018936023,0.03752121,0.03918229,-0.018665818,-0.02039927,-0.016267285,0.005839876,-0.017363556,-0.011349774
0.019425431,0.049752373,0.014623236,-0.018937664,0.037536673,0.039532796,-0.01850172,-0.020336192,-0.016269652,0.005686925,-0.017367436,-0.011410498
0.019320576,0.0497519,0.014591551,-0.018940749,0.03758953,0.0394416,-0.0185453,-0.020313386,-0.01626333,0.005713695,-0.017368713,-0.011315592
0.019355685,0.049831394,0.014601424,-0.018936086,0.037563063,0.039677314,-0.01853827,-0.020333061,-0.016285606,0.0057205353,-0.017367603,-0.011467288
0.01934662,0.04975294,0.014598479,-0.018932596,0.037624013,0.03966214,-0.018482596,-0.020315027,-0.01627795,0.005679409,-0.017372523,-0.011496276
0.01936572,0.049728993,0.014640533,-0.018932628,0.037721343,0.039878085,-0.018493699,-0.020342635,-0.016252154,0.0056712325,-0.01736664,-0.011505477
0.019329097,0.04972264,0.014666573,-0.01893894,0.037805427,0.03976946,-0.018549563,-0.020343877,-0.016265325,0.0056963735,-0.017361712,-0.011513041
0.019281939,0.049615704,0.014658935,-0.018939568,0.037714556,0.03968934,-0.018575322,-0.020324038,-0.016255055,0.0056762225,-0.017361151,-0.011561794
0.019273577,0.04959992,0.014663202,-0.018944532,0.037697524,0.039455827,-0.018625181,-0.020339783,-0.01628533,0.0056291004,-0.017369939,-0.011564179
0.01926164,0.04949023,0.014687708,-0.01894126,0.03766226,0.03951036,-0.018694066,-0.020335821,-0.01628548,0.005655393,-0.017371595,-0.011531369
0.019358829,0.049759198,0.014524388,-0.01894793,0.03762212,0.039103605,-0.018783594,-0.020314235,-0.016304085,0.005729124,-0.017372066,-0.01167547
0.019269884,0.049731076,0.014597468,-0.018956268,0.03781355,0.039366115,-0.018801631,-0.020312613,-0.016314007,0.0057348083,-0.017373107,-0.011585022
0.019193722,0.049663473,0.014614463,-0.018949084,0.03787927,0.039583303,-0.018812936,-0.020287037,-0.01630166,0.0057064425,-0.01737253,-0.011577518
0.019276438,0.049691144,0.014543476,-0.018951986,0.037794814,0.03991443,-0.0187997,-0.020253725,-0.016294723,0.005778251,-0.01737877,-0.011620053
0.019180955,0.049719788,0.0146400975,-0.018959561,0.037824534,0.039562915,-0.01896784,-0.020257425,-0.016347228,0.0058127376,-0.01737346,-0.011563835
0.019237226,0.049846973,0.014620775,-0.018955465,0.037891906,0.039833,-0.018803729,-0.020173248,-0.01634825,0.00570185,-0.017383834,-0.011544733
0.019271312,0.050039537,0.014597511,-0.018954761,0.037786443,0.03934058,-0.018844498,-0.020211376,-0.016355438,0.0056855227,-0.017382711,-0.011595407
0.01924742,0.049934566,0.0145891225,-0.018946799,0.037835337,0.03977908,-0.018829158,-0.020163994,-0.016354676,0.0057211486,-0.017370587,-0.0116175255
0.019159554,0.049790807,0.014647593,-0.018947309,0.03802051,0.039719656,-0.018820537,-0.020219488,-0.016337186,0.0057495977,-0.017366659,-0.011574557
0.019197807,0.04973906,0.014698585,-0.018947445,0.03801166,0.039848614,-0.01875331,-0.020188881,-0.016321255,0.005785696,-0.017372608,-0.011547616
0.019043855,0.049547162,0.014692627,-0.018943574,0.037960023,0.039899945,-0.018805355,-0.020184945,-0.016324172,0.005783865,-0.01736983,-0.011505098
0.019049406,0.049690224,0.014724948,-0.018943714,0.0378464,0.039876796,-0.01880769,-0.020190312,-0.016312245,0.005706743,-0.017370056,-0.011546384
0.019004792,0.04967464,0.014795401,-0.018944712,0.037896853,0.03980336,-0.018708156,-0.020218536,-0.016321477,0.0056767,-0.01736645,-0.011602948
0.01903277,0.049559563,0.014793833,-0.018946154,0.03785365,0.03993265,-0.018812101,-0.020194937,-0.016307918,0.0057660276,-0.017360881,-0.011556445
0.019073563,0.049684383,0.014716891,-0.01894737,0.037971284,0.04025822,-0.018857155,-0.020159123,-0.016273163,0.0058642873,-0.017363507,-0.011506583
0.01913296,0.049892507,0.014796444,-0.018952517,0.03782726,0.03980789,-0.01882664,-0.020171992,-0.01628926,0.005833872,-0.01736086,-0.011613347
0.01899301,0.04964533,0.014817005,-0.018958898,0.03800649,0.040057503,-0.018923666,-0.020166673,-0.016280556,0.0057892557,-0.0173646,-0.011579365
0.019092754,0.049651362,0.01486428,-0.01896077,0.038060416,0.040285714,-0.018905146,-0.020128863,-0.016313625,0.005753798,-0.017363777,-0.011628942
0.019040247,0.0497762,0.014788553,-0.018960549,0.03811989,0.040350623,-0.01884967,-0.020189714,-0.016325423,0.005802086,-0.01736395,-0.011641018
0.019054772,0.049883384,0.014772147,-0.018956956,0.038127773,0.04024001,-0.019071806,-0.020232592,-0.016334536,0.005750619,-0.017365826,-0.011608753
0.019113785,0.04967166,0.01477042,-0.018956352,0.038020708,0.040301397,-0.019066555,-0.020200722,-0.016315373,0.0057249693,-0.017367411,-0.011510015
0.019031132,0.04977053,0.014799791,-0.01895928,0.03786474,0.03982666,-0.019067362,-0.020230066,-0.016334014,0.005756353,-0.017364973,-0.01155376
0.019096475,0.04963995,0.014752166,-0.018969497,0.037749954,0.04005744,-0.019054893,-0.020232404,-0.016369857,0.0057070116,-0.017364508,-0.01148107
0.019081205,0.049739484,0.014842391,-0.018969117,0.037729897,0.039849203,-0.01902351,-0.020260446,-0.01639331,0.005724981,-0.017365478,-0.011574199
0.019124983,0.04990247,0.014765837,-0.018969405,0.037848663,0.04013327,-0.018870175,-0.020226238,-0.016426098,0.005719776,-0.017364433,-0.011577809
0.019071717,0.049894832,0.014766459,-0.018969182,0.037929714,0.040462065,-0.018939784,-0.020200014,-0.016398277,0.0057247803,-0.017366532,-0.011549634
0.019139709,0.04999336,0.0148045905,-0.018965796,0.037842676,0.040216375,-0.018881448,-0.020264288,-0.016438808,0.0056987144,-0.017369395,-0.011549692
0.019155895,0.04995203,0.014810344,-0.018966395,0.03792151,0.040374205,-0.018967556,-0.020318972,-0.016441928,0.0057182186,-0.01737805,-0.011584633
0.019213866,0.04989497,0.014792796,-0.018968392,0.0378951,0.04057941,-0.019033499,-0.020354914,-0.01642741,0.005711836,-0.017367091,-0.011594239
0.019125609,0.050011303,0.014800043,-0.018973216,0.037823573,0.040061317,-0.019065468,-0.020390484,-0.01641737,0.0057112207,-0.017368838,-0.011624682
0.01911684,0.049989913,0.014760533,-0.01897286,0.037839483,0.04028688,-0.01902373,-0.020312557,-0.016471302,0.005620235,-0.017378366,-0.011565558
0.019112583,0.050122876,0.01478975,-0.019003084,0.03750556,0.040054746,-0.019109631,-0.020295698,-0.016403828,0.0058936356,-0.017364962,-0.0116746435
0.019069811,0.050005026,0.014808589,-0.01900009,0.037620023,0.04006497,-0.019195013,-0.020267947,-0.01647201,0.0057409042,-0.017369771,-0.0116535695
0.019102812,0.050053827,0.014759262,-0.018997794,0.03766759,0.040086064,-0.0191302,-0.020249808,-0.016465852,0.00572236,-0.01736701,-0.011665399
0.019087736,0.05004624,0.014793669,-0.018997813,0.037693784,0.040149894,-0.019265369,-0.02027688,-0.016414385,0.0057243453,-0.017369546,-0.011584803
0.019094603,0.050115626,0.014829467,-0.019001272,0.037532378,0.039606206,-0.019307114,-0.02032747,-0.016416855,0.0057531465,-0.017368156,-0.011651699
0.019073876,0.050166838,0.014645741,-0.019009411,0.037562292,0.04026044,-0.019323358,-0.020299168,-0.016376443,0.0058063148,-0.017356016,-0.011602269
0.019039573,0.05029858,0.014682216,-0.019002596,0.037402697,0.039756812,-0.019338831,-0.020270446,-0.01635897,0.0057955068,-0.017347826,-0.011698812
0.018869834,0.049959786,0.014749467,-0.019005952,0.037366293,0.038936146,-0.019431125,-0.020255709,-0.016332928,0.0058163726,-0.017341442,-0.011670915
0.018897893,0.05003859,0.014662453,-0.019004976,0.037342854,0.038883228,-0.01942731,-0.02026521,-0.016278334,0.0058553675,-0.017375277,-0.011871422
0.018923854,0.049940187,0.014721427,-0.019019486,0.037139893,0.038586844,-0.019283488,-0.020313261,-0.016282644,0.0058340733,-0.0173725,-0.011851718
0.018864062,0.050016902,0.014717698,-0.019021858,0.0371963,0.038441125,-0.019272098,-0.020254731,-0.016286446,0.0058449027,-0.017378211,-0.011864151
0.018812364,0.049840167,0.014746782,-0.019025218,0.03738943,0.038827732,-0.019326996,-0.0202121,-0.016301379,0.005906984,-0.017377172,-0.011751219
0.018830793,0.04991978,0.0147321895,-0.019025432,0.03733996,0.03872747,-0.019256575,-0.020199029,-0.0162805,0.0058154566,-0.017394139,-0.011781735
0.01881649,0.049902223,0.01470855,-0.019024702,0.037308127,0.03893587,-0.019203696,-0.020187827,-0.016314954,0.00586083,-0.017388873,-0.011814647
0.01879069,0.049950443,0.014639665,-0.019019874,0.037255686,0.038961295,-0.019193375,-0.020061718,-0.016299566,0.005886483,-0.017399805,-0.011781029
0.018737938,0.05004579,0.014658194,-0.019020813,0.03725328,0.03861983,-0.019212244,-0.020060007,-0.016300397,0.0059061632,-0.01739889,-0.011841713
0.018985799,0.05007739,0.01463053,-0.01902306,0.037394173,0.038888715,-0.019202814,-0.020015232,-0.016348446,0.0058506965,-0.017385028,-0.011769097
0.01896522,0.050009098,0.014664803,-0.019018773,0.0375265,0.039038595,-0.019202935,-0.02000825,-0.016349934,0.0058516827,-0.017380742,-0.011709848
0.01891837,0.05005068,0.014689508,-0.019015778,0.037342776,0.038729887,-0.019179624,-0.02003894,-0.0163507,0.0058823307,-0.017390301,-0.011754335
0.018943114,0.05025584,0.0146765355,-0.019029878,0.037253007,0.038530424,-0.019175889,-0.020067804,-0.01630178,0.0059317257,-0.017400114,-0.01169036
0.018831704,0.0500024,0.014684461,-0.019027593,0.037328932,0.03901949,-0.01908495,-0.020045694,-0.016318103,0.0059087677,-0.01739274,-0.011629879
0.018819345,0.04989698,0.014691868,-0.019022753,0.037357975,0.039323606,-0.019123765,-0.020052087,-0.016315375,0.0058838227,-0.01739139,-0.011616677
0.018790811,0.049827766,0.014751631,-0.019022752,0.037382595,0.039225385,-0.01905504,-0.020107852,-0.0163438,0.005848744,-0.017392773,-0.0116029885
0.01878985,0.049850702,0.014800405,-0.019022403,0.037322447,0.039099295,-0.0189609,-0.020138534,-0.01632669,0.005922956,-0.017392935,-0.011767261
0.018918857,0.04964474,0.014723224,-0.019019244,0.037404757,0.039493587,-0.019779526,-0.020127326,-0.016522458,0.0058967844,-0.017394092,-0.011791218
0.01883569,0.049616594,0.014697462,-0.019023279,0.037587363,0.03930989,-0.019813133,-0.020109048,-0.016524227,0.005901403,-0.017409945,-0.011692225
0.018881023,0.049781784,0.014554485,-0.01902079,0.037519965,0.03942551,-0.01979485,-0.020163573,-0.016580362,0.0058488483,-0.01741282,-0.011718921
0.018818894,0.0497076,0.014622548,-0.019018633,0.037454557,0.03905884,-0.019871539,-0.02018844,-0.016565764,0.0059600663,-0.017406864,-0.011637688
0.018835027,0.049735703,0.014661262,-0.01901556,0.03735528,0.03908717,-0.019855833,-0.020149205,-0.016603917,0.0060410653,-0.01740403,-0.011816973
0.018796815,0.049643602,0.014704782,-0.019014047,0.037535302,0.039383724,-0.019840406,-0.020165494,-0.016610626,0.0061609433,-0.017402755,-0.011742406
0.018931568,0.049782123,0.014640632,-0.019011479,0.037312903,0.039265778,-0.019720426,-0.020132385,-0.016620185,0.006008206,-0.017410452,-0.011749918
0.018942282,0.049679663,0.014630675,-0.01901218,0.037365947,0.039641757,-0.01971472,-0.0201341,-0.016623985,0.0060795294,-0.017383646,-0.011844337
0.018916449,0.04989798,0.014601476,-0.01901604,0.037351053,0.039287917,-0.01975104,-0.020165058,-0.016636046,0.0060348026,-0.017383732,-0.011816633
0.01889589,0.04966805,0.014470499,-0.019021278,0.0375446,0.039620806,-0.019797387,-0.020139903,-0.0166229,0.00604868,-0.017383434,-0.01174923
0.01883799,0.049718916,0.014492887,-0.019020682,0.03746043,0.039505675,-0.019815935,-0.020176707,-0.016603842,0.0060947114,-0.017383551,-0.011826701
0.01885018,0.049743008,0.014428563,-0.01902196,0.037416838,0.039776225,-0.019862877,-0.020082153,-0.016609218,0.006081323,-0.017397523,-0.011897925
0.018676635,0.04978041,0.014501269,-0.019015575,0.03732619,0.039080493,-0.019892992,-0.020388853,-0.0166003,0.0060745873,-0.017396452,-0.011947491
0.018841447,0.050142195,0.014387399,-0.019016504,0.03734057,0.039431877,-0.019862363,-0.020368887,-0.016598213,0.0059620505,-0.017406773,-0.011908285
0.018730171,0.04976326,0.014539686,-0.01902132,0.037416767,0.039636098,-0.019902118,-0.020353206,-0.016614353,0.0060052834,-0.017408203,-0.011817492
0.018823355,0.049850248,0.014503888,-0.019023364,0.037483674,0.039845064,-0.019915117,-0.020330226,-0.016612113,0.0060291016,-0.017409561,-0.011906103
0.018837499,0.05001272,0.014464404,-0.019020727,0.037461605,0.039748464,-0.019912302,-0.020312404,-0.01660908,0.0060227932,-0.01740787,-0.012022356
0.01885594,0.049969662,0.014507395,-0.019019812,0.037419446,0.039475136,-0.020072296,-0.020314863,-0.0166106,0.006044671,-0.017397862,-0.012099621
0.018829966,0.049918346,0.014588148,-0.01901821,0.037422106,0.039301224,-0.020168513,-0.0203076,-0.016608933,0.006020777,-0.017396653,-0.012020644
0.019168792,0.050130963,0.014651219,-0.019026773,0.037110377,0.0387177,-0.02021852,-0.020338966,-0.016594732,0.006025709,-0.017397866,-0.012106294
0.01905645,0.0498975,0.014742564,-0.019025248,0.037352175,0.03903163,-0.020081615,-0.020332094,-0.016578874,0.0060867025,-0.017394044,-0.011998473
0.019203935,0.050063737,0.014651164,-0.019025525,0.03733983,0.03930876,-0.02015219,-0.02032202,-0.016536823,0.006032915,-0.017393088,-0.012158429
0.018908722,0.049582176,0.014892672,-0.01901613,0.03785055,0.039610237,-0.020279871,-0.020293739,-0.016550485,0.006145547,-0.01738488,-0.012080421
0.01904963,0.049655005,0.014725561,-0.019018171,0.037877433,0.039700024,-0.020174544,-0.02038722,-0.016532518,0.0060146945,-0.0173893,-0.012039712
0.0190664,0.049586024,0.0147718135,-0.019019008,0.03775781,0.039596647,-0.020307079,-0.020399934,-0.016520396,0.0060875183,-0.017387612,-0.012102033
0.019036505,0.04953206,0.014820133,-0.019017434,0.03788707,0.04011323,-0.02031614,-0.020375596,-0.01652266,0.0061276285,-0.017385013,-0.0120900255
0.018953996,0.049542744,0.014868616,-0.019012824,0.037781473,0.03980539,-0.02032573,-0.020465735,-0.016510896,0.006120828,-0.017389752,-0.012001608
0.019109499,0.049532987,0.014782062,-0.019010443,0.037589,0.03982149,-0.020289807,-0.02038592,-0.016534686,0.0061421455,-0.017382666,-0.0121068
0.018986462,0.049468886,0.01478934,-0.019013278,0.037598073,0.039614815,-0.020215552,-0.02047632,-0.016553758,0.006140172,-0.0173992,-0.01201859
0.018971894,0.049471635,0.014788554,-0.019015534,0.03760097,0.03979058,-0.020234967,-0.02045348,-0.016565898,0.0061387694,-0.017402973,-0.011983766
0.019049507,0.049651064,0.014765036,-0.01901831,0.03748185,0.03955735,-0.020271387,-0.020492166,-0.016575087,0.0062307483,-0.017408948,-0.011992848
0.019048177,0.04945242,0.014830457,-0.01901887,0.037578702,0.039588846,-0.020116309,-0.020468792,-0.016595839,0.00616801,-0.017400948,-0.0119593805
0.01905416,0.049649715,0.0148065705,-0.019023865,0.03754154,0.039652534,-0.020099172,-0.020473374,-0.016585233,0.006166151,-0.017408563,-0.011919284
0.0188722,0.049750254,0.014876444,-0.019024694,0.037510034,0.039285913,-0.020070843,-0.02048874,-0.016566603,0.0061758133,-0.017409442,-0.011976949
0.018877618,0.049697716,0.0148230465,-0.01901476,0.037641436,0.039930012,-0.020090485,-0.020467374,-0.01661431,0.0061827074,-0.017406419,-0.01196424
0.018874865,0.049748357,0.014834666,-0.0190176,0.03755559,0.039575182,-0.020156976,-0.02049746,-0.016594948,0.006218544,-0.017408531,-0.012045606
0.018909302,0.049936824,0.014837007,-0.01902361,0.037574742,0.03940912,-0.020151183,-0.020506036,-0.01660117,0.006284239,-0.017412871,-0.0120732095
0.018770339,0.04974639,0.014901301,-0.01902348,0.03791424,0.039690662,-0.020163758,-0.0204906,-0.016594786,0.006296017,-0.017413946,-0.011935879
0.018794794,0.049932968,0.01490153,-0.019028768,0.037807778,0.039367292,-0.020069435,-0.020524219,-0.01657995,0.006317047,-0.017404223,-0.012084675
0.018739464,0.049807973,0.014945651,-0.019027948,0.03791432,0.039627,-0.019978741,-0.020519307,-0.0165924,0.0062929783,-0.017406017,-0.011962188
0.018837675,0.04996652,0.014850906,-0.019027159,0.037982076,0.039866682,-0.020110052,-0.020544156,-0.016542293,0.0063770576,-0.017405761,-0.0119900955
0.018739803,0.04974679,0.014983377,-0.019029314,0.038201597,0.039986886,-0.020059759,-0.020562645,-0.016553154,0.006374625,-0.017403929,-0.011996724
0.018797712,0.049781084,0.014928721,-0.019029692,0.038148586,0.040133208,-0.020187452,-0.020571902,-0.016601013,0.006327342,-0.017390989,-0.012117885
0.01876874,0.049737252,0.01496419,-0.019024296,0.038353313,0.040301874,-0.020170748,-0.020590827,-0.01659231,0.006326541,-0.017386692,-0.012010348
0.018728344,0.04959428,0.014963516,-0.019025931,0.03844939,0.040328827,-0.020095058,-0.020580122,-0.016597575,0.0063202935,-0.017376205,-0.011973403
0.018760918,0.049749948,0.014837876,-0.019021751,0.03843024,0.04038651,-0.02021602,-0.020534953,-0.016582986,0.006324649,-0.01737015,-0.012007408
0.018767051,0.049849376,0.014866936,-0.01901794,0.038324114,0.039864536,-0.020161698,-0.020569496,-0.016579676,0.006227559,-0.017367398,-0.011993277
0.018763376,0.049681794,0.014871106,-0.019011384,0.038607992,0.04071042,-0.02020552,-0.020585554,-0.016571682,0.006231094,-0.017361166,-0.011952804
0.018814284,0.050057564,0.014895882,-0.0190163,0.038327094,0.040100098,-0.019928671,-0.020615518,-0.016630458,0.0062022926,-0.017360454,-0.01206073
0.018863631,0.05000784,0.014746452,-0.01901889,0.038400136,0.04035901,-0.020019496,-0.02059309,-0.016617902,0.006185361,-0.017363891,-0.012006329
0.018763222,0.049942497,0.014760239,-0.019019412,0.03831121,0.040567197,-0.020042948,-0.020625819,-0.016615622,0.006154208,-0.017372988,-0.0119266575
0.018680291,0.049838632,0.014794834,-0.019020744,0.038448468,0.040721487,-0.020044226,-0.020601263,-0.0166117,0.006177113,-0.017371485,-0.011905252
0.018637713,0.04983021,0.01476409,-0.01902307,0.038411442,0.04064905,-0.020028984,-0.020602955,-0.01659308,0.0061641796,-0.017369952,-0.011904945
0.018657906,0.04991514,0.014746696,-0.019020785,0.03833149,0.040637817,-0.020214463,-0.020576535,-0.016606698,0.0062725283,-0.017367838,-0.011920549
0.018628363,0.050019857,0.0146682635,-0.019025361,0.038328383,0.040541757,-0.020216065,-0.020595433,-0.016610082,0.0062310076,-0.017372118,-0.011928531
0.01856883,0.049877137,0.0146530755,-0.01902731,0.038493406,0.040848624,-0.020327179,-0.020585947,-0.016624607,0.0062868213,-0.017367935,-0.011905759
0.018584019,0.049799997,0.01463536,-0.019024013,0.038396988,0.040716197,-0.020326689,-0.020582393,-0.01661587,0.006413931,-0.01736921,-0.011942896
0.018636314,0.049883656,0.014545392,-0.01902682,0.038406033,0.04072621,-0.020351563,-0.02052677,-0.016689325,0.006357423,-0.017379241,-0.01190752
0.018664584,0.049706057,0.01462184,-0.019032259,0.038528267,0.04100303,-0.02029199,-0.020512441,-0.016673451,0.006377373,-0.017374728,-0.011928522
0.018685915,0.04981915,0.014590196,-0.019039452,0.03847432,0.041153137,-0.020175112,-0.020550411,-0.016715704,0.0062553985,-0.017388318,-0.011972969
0.018660044,0.049688797,0.014587136,-0.019046532,0.038509686,0.041227657,-0.020172227,-0.020536726,-0.016654981,0.0061087487,-0.017385071,-0.011915008
0.018654233,0.04949533,0.014544059,-0.019045012,0.038573857,0.041530896,-0.02017166,-0.02055017,-0.016675627,0.0060944343,-0.017385365,-0.011885395
0.018657705,0.049637806,0.014580842,-0.01904631,0.038417947,0.04097028,-0.020119302,-0.020645997,-0.016662499,0.0060879868,-0.017384145,-0.011798427
0.018795356,0.04958295,0.014525172,-0.019041482,0.03839384,0.041288655,-0.020185176,-0.020642912,-0.016708836,0.0060768398,-0.01738729,-0.011694211
0.018763471,0.049633935,0.0145689435,-0.019034747,0.03814797,0.0403908,-0.020117097,-0.020693656,-0.016692368,0.006102919,-0.01737662,-0.011763734
0.01877597,0.049576275,0.014541582,-0.019038398,0.03835357,0.040990904,-0.02009079,-0.020660449,-0.016687784,0.006056279,-0.017381107,-0.011787895
0.018749539,0.049498845,0.014598175,-0.019035978,0.03835564,0.040892366,-0.020065723,-0.020686045,-0.016709335,0.0060388814,-0.017409515,-0.011715809
0.018757736,0.04950302,0.014627178,-0.019036688,0.038419705,0.041384958,-0.020078922,-0.02065472,-0.01666906,0.0060558035,-0.01739953,-0.011853828
0.018843735,0.049699236,0.014622454,-0.019033784,0.038341854,0.04108647,-0.020191602,-0.02067832,-0.016649283,0.005889045,-0.01741426,-0.011779692
0.018820576,0.04961501,0.01462238,-0.019035757,0.03853995,0.041365348,-0.020141864,-0.020690009,-0.016637318,0.0059478995,-0.017408652,-0.011728659
0.01884192,0.04953469,0.014644944,-0.019036427,0.03848072,0.041389737,-0.020132964,-0.020673662,-0.016662704,0.005930406,-0.017406471,-0.011731431
0.018881772,0.04952606,0.014717624,-0.019033048,0.038390584,0.04122621,-0.020086376,-0.020684082,-0.016659675,0.0059137777,-0.017440297,-0.011791848
0.018968673,0.04973016,0.014796799,-0.0190298,0.038335357,0.04091842,-0.020255396,-0.02070114,-0.016650656,0.005942517,-0.017434126,-0.011882804
0.018968198,0.049645856,0.014771316,-0.019030107,0.038435638,0.041290548,-0.020318551,-0.020647112,-0.016612746,0.0059179934,-0.017425805,-0.011848919
0.018969528,0.04972262,0.014801778,-0.019028466,0.038477942,0.041020125,-0.020389035,-0.020641005,-0.016666116,0.0059749996,-0.017419439,-0.011755337
0.018976359,0.04964515,0.014783157,-0.019026056,0.038356483,0.041120764,-0.020182105,-0.020599194,-0.016613543,0.0059324005,-0.017424628,-0.011720231
0.019033108,0.049644906,0.014793907,-0.0190297,0.038205806,0.04088149,-0.020200465,-0.020624965,-0.016634401,0.005900501,-0.017431788,-0.011661003
0.01896093,0.04964739,0.014875763,-0.019033,0.038237136,0.040885035,-0.020139785,-0.020611763,-0.016622987,0.0058484008,-0.017415555,-0.0117460415
0.01896031,0.049741402,0.01482031,-0.019027108,0.038259637,0.041003402,-0.020442205,-0.020640394,-0.016631788,0.005856711,-0.017415699,-0.01178532
0.018922457,0.049579788,0.014805468,-0.019027729,0.03820956,0.04101129,-0.020297388,-0.020572593,-0.016686399,0.0058146524,-0.017422095,-0.011806715
0.018899413,0.049658503,0.014853498,-0.01903021,0.038045548,0.04058526,-0.020345774,-0.020637663,-0.016660802,0.0058714715,-0.017402282,-0.011723189
0.01896176,0.049775805,0.014733953,-0.0190289,0.038071707,0.040525865,-0.020493561,-0.020625142,-0.016651569,0.005861272,-0.017422078,-0.011657088
0.018893005,0.049715627,0.014744664,-0.01902948,0.03817942,0.040695544,-0.020620393,-0.020648824,-0.016653243,0.005918135,-0.017427588,-0.011611054
0.018948484,0.049779598,0.0147491405,-0.019023644,0.03807243,0.040987816,-0.020615412,-0.02065169,-0.016671294,0.0058775074,-0.01742619,-0.011625948
0.01893877,0.049678326,0.014795435,-0.01901805,0.03799549,0.040897965,-0.020665538,-0.020627137,-0.016680328,0.0058771865,-0.017421488,-0.011613121
0.018924221,0.049717985,0.014783945,-0.019015402,0.037981957,0.04087022,-0.020738717,-0.020620732,-0.016629087,0.0059014633,-0.017420964,-0.011572735
0.018898197,0.04964,0.014770918,-0.019019466,0.03802704,0.04099203,-0.020734262,-0.020579685,-0.01664263,0.005819029,-0.017437173,-0.011533065
0.018939689,0.049836613,0.014735016,-0.01901836,0.037875183,0.040901467,-0.02071172,-0.020637924,-0.016561728,0.005882356,-0.01743608,-0.011598023
0.018932559,0.04960984,0.014721106,-0.019025229,0.037940755,0.04145141,-0.020685207,-0.020632392,-0.016584935,0.005751142,-0.017437039,-0.0115787145
0.018904036,0.049806595,0.014762404,-0.019023575,0.037887633,0.04107732,-0.02064799,-0.020655176,-0.016646361,0.005729565,-0.017444316,-0.011713648
0.018870836,0.049855236,0.014766004,-0.019025663,0.03795987,0.04152897,-0.020633224,-0.020629695,-0.016629562,0.0056830035,-0.017432489,-0.011661343
0.018865645,0.049729414,0.014805746,-0.019030847,0.038017154,0.041410718,-0.020638391,-0.020553691,-0.016703768,0.005661667,-0.017438708,-0.011672192
0.018864186,0.04985975,0.014816087,-0.019028258,0.03804822,0.041458867,-0.020778373,-0.020602541,-0.016706906,0.0056925495,-0.017438564,-0.011731058
0.01885521,0.04983049,0.014849445,-0.019026237,0.038134042,0.04166641,-0.020744093,-0.02056248,-0.01673201,0.0056353942,-0.017442679,-0.011592705
0.018858282,0.050013922,0.014833724,-0.019028092,0.038007516,0.041488983,-0.020682145,-0.020628424,-0.016722664,0.005622719,-0.017448118,-0.011565624
0.018844465,0.05004289,0.014828588,-0.019028287,0.037924007,0.04097185,-0.020608973,-0.020623771,-0.016723193,0.0056130057,-0.017464628,-0.011633913
0.018769514,0.049935184,0.014855907,-0.019033436,0.037989885,0.041032255,-0.020592745,-0.020618483,-0.016726688,0.005605573,-0.017455505,-0.011570354
0.018754506,0.050062556,0.014811595,-0.019031828,0.037972726,0.04115101,-0.020487636,-0.020582153,-0.01670502,0.0056343805,-0.01744853,-0.0115916915
0.01869482,0.04991391,0.014864759,-0.019022977,0.037927184,0.040549308,-0.020560427,-0.02059299,-0.016718347,0.005654211,-0.01743295,-0.01160991
0.018774342,0.04979679,0.0147547675,-0.019022407,0.037869547,0.04086839,-0.020535404,-0.02051419,-0.016728597,0.005645768,-0.017424658,-0.011598526
0.018697768,0.0499467,0.014784845,-0.019020136,0.037892584,0.04051421,-0.020472411,-0.020523075,-0.016734002,0.0056232284,-0.017434897,-0.01164275
0.018687354,0.049809754,0.014780351,-0.019022226,0.037908237,0.040982977,-0.020666866,-0.02049059,-0.016727025,0.0056746644,-0.017427754,-0.011574374
0.01867179,0.050011437,0.014874489,-0.019026823,0.037822694,0.040700607,-0.020654084,-0.020492937,-0.016752476,0.0056307428,-0.017449519,-0.011697268
0.01864098,0.049908582,0.01478032,-0.019032544,0.037884325,0.041003413,-0.020574821,-0.020503793,-0.016734697,0.005614708,-0.017453678,-0.011716882
0.018570377,0.049953617,0.0148408655,-0.019031648,0.03798294,0.041020606,-0.020660823,-0.020515976,-0.016743306,0.005658929,-0.017442683,-0.011689197
0.018568525,0.049838264,0.014836306,-0.019036792,0.038112316,0.04139004,-0.02061392,-0.020486685,-0.01674442,0.0056500565,-0.017442359,-0.011687637
0.018492484,0.049881384,0.014828379,-0.019032188,0.038085252,0.041190006,-0.020610845,-0.020491209,-0.016744079,0.005640018,-0.017437438,-0.011706416
0.01853638,0.04985389,0.014755704,-0.019033749,0.038147673,0.041409727,-0.020431288,-0.020391578,-0.01676128,0.0055930903,-0.01742845,-0.011651609
0.018610936,0.04984244,0.0147831235,-0.019040825,0.03801859,0.041285846,-0.020471575,-0.020410463,-0.016747067,0.0055932766,-0.017429912,-0.011729803
0.01852561,0.04980692,0.014819094,-0.01903711,0.038063653,0.04120301,-0.020419158,-0.02040199,-0.01676212,0.005604026,-0.017436618,-0.011739591
0.018559989,0.049935993,0.014748405,-0.019043207,0.037974067,0.041406706,-0.020554874,-0.020446075,-0.016758554,0.0056737666,-0.01743607,-0.011660111
0.01855589,0.05005018,0.014732966,-0.019042939,0.037870232,0.04123,-0.020435236,-0.020404957,-0.016776513,0.0056447797,-0.017442588,-0.011690542
0.01841894,0.04992695,0.014810078,-0.019043867,0.03794685,0.04119801,-0.020432135,-0.02036138,-0.01676591,0.005645889,-0.017407827,-0.011700432
0.018472843,0.049916446,0.014792744,-0.019048227,0.038091034,0.041317176,-0.020462072,-0.0204015,-0.016767243,0.005630789,-0.017418776,-0.011776721
0.018516893,0.049851537,0.014758968,-0.019048536,0.038090866,0.041781384,-0.020484447,-0.020342182,-0.016772231,0.0055637714,-0.017410658,-0.0117788715
0.018521842,0.050335795,0.014769916,-0.019045278,0.03782515,0.04126013,-0.020621205,-0.020432835,-0.016787302,0.005620569,-0.01741178,-0.011788005
0.018506635,0.0500787,0.014884751,-0.019039888,0.037861582,0.04143846,-0.020653239,-0.020424347,-0.016811619,0.005580572,-0.017414073,-0.011821133
0.018477611,0.049910847,0.014903919,-0.019043315,0.037976205,0.04168237,-0.02064299,-0.02040282,-0.016811725,0.0055649476,-0.017410053,-0.011761608
0.018469429,0.04995202,0.014922805,-0.019041874,0.038146652,0.04185272,-0.020658744,-0.020386735,-0.016808985,0.005549993,-0.017407635,-0.011862447
0.018604431,0.05010023,0.014831181,-0.019044662,0.038110122,0.041819777,-0.020565417,-0.020437617,-0.016798802,0.005493627,-0.017401388,-0.011942196
0.01860878,0.050102934,0.014871288,-0.01904846,0.037889995,0.041383162,-0.02046262,-0.020466587,-0.01684129,0.005446636,-0.017391013,-0.011979032
0.018511007,0.05001182,0.014883756,-0.01905544,0.038051687,0.04141924,-0.02045435,-0.020395912,-0.0168325,0.005451033,-0.01738495,-0.011989363
0.018466478,0.049863983,0.014950849,-0.019056983,0.03803991,0.041369677,-0.020367108,-0.02035308,-0.016866563,0.005478652,-0.017386239,-0.0120026795
0.018473275,0.04995767,0.01490604,-0.019057835,0.038004998,0.04099797,-0.020222446,-0.020292485,-0.016851602,0.0053903637,-0.01739635,-0.012013189
0.018486856,0.05006586,0.014907045,-0.019060893,0.03821662,0.041444764,-0.020306107,-0.02030727,-0.016799713,0.005443603,-0.017402587,-0.012019636
0.018452708,0.050001737,0.014876241,-0.019063456,0.03820458,0.04130928,-0.020253347,-0.02029621,-0.016795142,0.0054000393,-0.017406702,-0.012025468
0.01825286,0.04981031,0.014914558,-0.019060211,0.038060833,0.04070508,-0.020291196,-0.020287825,-0.016771259,0.005409659,-0.01741299,-0.011986958
0.01827022,0.050106164,0.01489619,-0.01906218,0.038055863,0.040701773,-0.02024905,-0.020314768,-0.016777564,0.00536147,-0.017419668,-0.012115349
0.018195685,0.049924828,0.014958394,-0.019069811,0.038082045,0.04085144,-0.020260885,-0.020300128,-0.01681238,0.0054444945,-0.0174184,-0.012060509
0.018266706,0.05014719,0.014941667,-0.019076802,0.037979588,0.040576357,-0.020203486,-0.020327942,-0.016778246,0.005491811,-0.017423503,-0.012074901
0.01832615,0.05013437,0.014914677,-0.01906709,0.037834283,0.040388696,-0.02015716,-0.020240525,-0.01678419,0.005411981,-0.017424878,-0.011990303
0.01823595,0.050075874,0.0149673205,-0.019071199,0.03789362,0.040421475,-0.020158745,-0.020250836,-0.016754588,0.0054287696,-0.017425211,-0.011988997
0.018264128,0.050113462,0.014902274,-0.019072462,0.0378256,0.04048308,-0.020068951,-0.020218309,-0.016761767,0.005424441,-0.017433468,-0.012007144
0.018107137,0.04994903,0.015087489,-0.01905361,0.037987404,0.040560156,-0.02031422,-0.020218652,-0.016702201,0.005527138,-0.017385839,-0.011972383
0.018183,0.05010143,0.014964716,-0.019058023,0.037998497,0.040606827,-0.02021807,-0.02011619,-0.016739298,0.005501448,-0.01739109,-0.012004129
0.01824116,0.05063547,0.014922246,-0.019065903,0.03782452,0.040386196,-0.020439183,-0.020126188,-0.016720703,0.0055980626,-0.017382922,-0.012135763
0.018232381,0.05025956,0.014963875,-0.019064406,0.037978318,0.040562898,-0.020420639,-0.020075181,-0.016733514,0.0056057298,-0.017382631,-0.012134113
0.018165195,0.050327897,0.014962003,-0.019069998,0.03803222,0.040316284,-0.020399086,-0.020089732,-0.016731227,0.00553147,-0.017382322,-0.012158666
0.018185655,0.05010801,0.014965175,-0.019070834,0.03814179,0.040961545,-0.02038163,-0.020087054,-0.016716605,0.0055046002,-0.017375087,-0.012035811
0.018257337,0.050215628,0.014974127,-0.019073835,0.03811239,0.040774096,-0.020358132,-0.020058975,-0.016712064,0.005428161,-0.017386394,-0.012124318
0.018271975,0.05020631,0.014884696,-0.019072339,0.03802979,0.0406103,-0.020472817,-0.020033378,-0.01672304,0.005458629,-0.017382322,-0.012127434
0.018258044,0.050373666,0.014885683,-0.019072404,0.037956294,0.040363763,-0.020484505,-0.02004574,-0.016690925,0.0053314767,-0.017393012,-0.012054165
0.018240988,0.050172843,0.014858546,-0.019073475,0.03798664,0.04058361,-0.020626584,-0.020072876,-0.016735677,0.0053095436,-0.017380873,-0.01202402
0.018311244,0.050231874,0.0148773445,-0.019075207,0.037861574,0.0402956,-0.020545678,-0.020112103,-0.016724134,0.0053344886,-0.017402308,-0.012032416
0.018314656,0.050050523,0.014909555,-0.019072007,0.037920505,0.040512923,-0.020597765,-0.02010014,-0.016735436,0.005272405,-0.017407833,-0.012007008
0.018367765,0.050174482,0.014865042,-0.019074682,0.037734233,0.040218547,-0.020596975,-0.020153536,-0.016775316,0.00529632,-0.017409643,-0.012028384
0.018328575,0.0500406,0.014821847,-0.01907488,0.03790205,0.040398724,-0.02076183,-0.02017256,-0.016780928,0.0052892747,-0.017411876,-0.012014813
0.018279854,0.049949907,0.014860899,-0.019073768,0.037900705,0.040708035,-0.020672165,-0.020159105,-0.016780274,0.0052669654,-0.017407034,-0.012013643
0.018129375,0.04985326,0.014912572,-0.01907737,0.037831575,0.040315516,-0.020725517,-0.020147167,-0.01676348,0.005283425,-0.017399063,-0.012014109
0.018293222,0.04997596,0.0148128355,-0.019075777,0.037934944,0.04058773,-0.020665923,-0.02012335,-0.016723597,0.005371865,-0.017404838,-0.012046493
0.018170474,0.049904704,0.014857374,-0.019073842,0.037504442,0.039667282,-0.02073995,-0.020160995,-0.016728984,0.005354253,-0.017395327,-0.012095134
0.018158836,0.04985325,0.014886565,-0.0190759,0.03762587,0.039874434,-0.020687796,-0.020174371,-0.016711514,0.005384106,-0.017392771,-0.0121329995
0.018150168,0.049713433,0.014927461,-0.019077793,0.03774143,0.039972294,-0.02071354,-0.020210741,-0.016692486,0.0054181796,-0.01739319,-0.012108329
0.018141083,0.04978338,0.014917641,-0.019066619,0.037676927,0.03975839,-0.020747364,-0.020270884,-0.01674404,0.0054025315,-0.017396497,-0.012070716
0.01814088,0.049591396,0.014864456,-0.01906647,0.037764613,0.040265184,-0.020767488,-0.02025287,-0.016737368,0.0054112743,-0.017407184,-0.012043464
0.018130666,0.049809255,0.014880416,-0.019066442,0.037536666,0.039507974,-0.020825233,-0.020262511,-0.01672551,0.005395764,-0.017414674,-0.012096827
0.01807791,0.04971606,0.014958291,-0.01907657,0.037708737,0.039880436,-0.020908847,-0.02026976,-0.016684445,0.0054501304,-0.017415518,-0.011996344
0.018083865,0.049546357,0.014991622,-0.019072086,0.03781201,0.040280282,-0.020843718,-0.020211404,-0.016645232,0.0054692733,-0.017414799,-0.012024766
0.018111248,0.049615916,0.014894796,-0.0190762,0.03768681,0.040233277,-0.02080753,-0.020185495,-0.016631143,0.005473375,-0.01741458,-0.011983093
0.018126884,0.049743727,0.014844099,-0.019080155,0.037663948,0.040101327,-0.020793045,-0.02028359,-0.0166506,0.005524393,-0.01741025,-0.012017071
0.018084979,0.04972649,0.014832326,-0.019082328,0.037821602,0.04047266,-0.020778,-0.020215511,-0.016626999,0.005484207,-0.017411435,-0.012000907
0.018020064,0.04980778,0.014818678,-0.019090073,0.037866466,0.04039529,-0.020802626,-0.020211153,-0.016614983,0.0055153137,-0.017409757,-0.011980552
0.018114185,0.04966635,0.014740677,-0.019072773,0.03780128,0.040682733,-0.020711873,-0.020092273,-0.016710296,0.0055052675,-0.017409144,-0.011935475
0.018167999,0.049741887,0.014763394,-0.019070351,0.03781384,0.040510356,-0.02081594,-0.020158973,-0.016685657,0.0055371984,-0.017409373,-0.011928593
0.018138736,0.04985478,0.014730073,-0.019065684,0.037851118,0.040525552,-0.020851316,-0.020132395,-0.016660927,0.005541864,-0.017407453,-0.011981045
0.01813361,0.049849607,0.014757594,-0.01905819,0.03779481,0.040380113,-0.02086532,-0.020174887,-0.016674455,0.005496339,-0.017404282,-0.011968918
0.018097328,0.049838148,0.014769611,-0.019052763,0.03781547,0.0404574,-0.020851824,-0.020146998,-0.016698353,0.005504376,-0.017405042,-0.011958165
0.018123541,0.049926832,0.014770712,-0.019056473,0.03765249,0.040295005,-0.020887403,-0.0201701,-0.016669117,0.005613861,-0.017408777,-0.011934123
0.017944392,0.049849458,0.0148297725,-0.019060506,0.038043834,0.040504202,-0.020952884,-0.020189945,-0.016610261,0.0057015554,-0.0173606,-0.011935207
0.018015802,0.05004897,0.014726404,-0.019061035,0.037946604,0.040374275,-0.02078951,-0.020160666,-0.016645974,0.0056968033,-0.017360777,-0.012011185
0.017964406,0.04987737,0.01482178,-0.019064203,0.038146734,0.04075831,-0.020888451,-0.020198738,-0.016637148,0.0057130195,-0.017364178,-0.01200161
0.017990528,0.049923707,0.014875298,-0.019062668,0.038166903,0.04066057,-0.020873802,-0.02018951,-0.016637238,0.005775408,-0.01736109,-0.011968011
0.018102385,0.05016938,0.014777896,-0.01905857,0.037969273,0.04037453,-0.020836757,-0.02015051,-0.016623594,0.0057504284,-0.017360378,-0.011944322
0.018077768,0.05005142,0.014799868,-0.01906026,0.037951976,0.040491704,-0.020757416,-0.020147571,-0.01665414,0.005711132,-0.017366417,-0.012031452
0.01813458,0.050195243,0.014804915,-0.019050514,0.037874337,0.040537238,-0.020714989,-0.020178262,-0.016600223,0.0057747597,-0.017366942,-0.011997864
0.018198164,0.049925175,0.0147699015,-0.019047467,0.03770084,0.04022241,-0.020711737,-0.020146033,-0.016592678,0.005597907,-0.017357154,-0.0119069535
