w11,w12,w13,w21,w22,w23,w31,w32,w33,w41,w42,w43
0.02181972,0.049698,0.013898502,-0.018918602,0.037854597,0.039648294,-0.015838467,-0.02036804,-0.015732406,0.005613509,-0.017429965,-0.010643635
0.021896211,0.049834605,0.013911962,-0.01891747,0.03767297,0.039533757,-0.015717236,-0.020340787,-0.015728755,0.005663316,-0.017432814,-0.010686073
0.021867016,0.049745698,0.013941182,-0.018918375,0.037740033,0.039663836,-0.015783006,-0.02027774,-0.015730523,0.005656509,-0.01743076,-0.01067546
0.021825925,0.0498249,0.013977245,-0.018921133,0.03775466,0.039732605,-0.015764022,-0.020304475,-0.015730632,0.005657128,-0.017429352,-0.010788346
0.021773703,0.049811997,0.013953842,-0.018923994,0.037776094,0.03987181,-0.015798273,-0.02025718,-0.015749903,0.005671342,-0.01743042,-0.010680057
0.021739792,0.04982823,0.013946267,-0.018918075,0.03765743,0.03956703,-0.015779352,-0.02037135,-0.01573738,0.005691137,-0.017428752,-0.010792294
0.021818021,0.049892128,0.013916624,-0.018922912,0.03767319,0.039792072,-0.015872119,-0.020288264,-0.015769733,0.005693219,-0.01743251,-0.010767748
0.021757038,0.049679406,0.014041351,-0.018918043,0.03767512,0.03972747,-0.016074019,-0.020302517,-0.01576442,0.005702965,-0.017429804,-0.010637872
0.021865442,0.04993055,0.013952881,-0.018918918,0.037535522,0.03923628,-0.01604285,-0.020316426,-0.015781565,0.005683562,-0.017442632,-0.010969549
0.02176084,0.0497118,0.014049859,-0.018915685,0.03765779,0.039354216,-0.01613846,-0.020299917,-0.015757052,0.005659767,-0.017440232,-0.010933681
0.02172621,0.049619123,0.014089267,-0.018915692,0.03762595,0.03949142,-0.016098293,-0.020303925,-0.015765954,0.005678114,-0.01744417,-0.010883014
0.021739954,0.04974558,0.014050015,-0.01892414,0.03758072,0.039127633,-0.016108328,-0.020341033,-0.015763463,0.005689725,-0.017445002,-0.01087057
0.021657344,0.04977699,0.013994092,-0.018922826,0.037667826,0.03911226,-0.01610955,-0.02034559,-0.015765077,0.005677971,-0.017443515,-0.010866283
0.021551253,0.04960271,0.014002888,-0.018927572,0.037763793,0.03904631,-0.01612258,-0.020332376,-0.015768941,0.005682646,-0.017443953,-0.01081712
0.021572659,0.049595397,0.014050747,-0.018922122,0.03760615,0.038823087,-0.016055616,-0.020398919,-0.015776949,0.005704648,-0.017442172,-0.01085256
0.021610832,0.049678214,0.013989682,-0.0189171,0.037653655,0.039101865,-0.01614978,-0.020360136,-0.015771015,0.005743202,-0.017439535,-0.010767269
0.021575112,0.049785208,0.014021172,-0.018916702,0.037486978,0.03861503,-0.016205816,-0.02035285,-0.015762947,0.005758215,-0.01744098,-0.010753091
0.021609606,0.049700797,0.013967068,-0.018911319,0.03744664,0.03870746,-0.016237183,-0.020268723,-0.01575295,0.005801249,-0.017439505,-0.010774154
0.021477604,0.049396332,0.013942901,-0.018905029,0.037353825,0.038221102,-0.016337687,-0.020314462,-0.015733352,0.005810832,-0.01744067,-0.010779865
0.021779427,0.04973471,0.01361689,-0.018907623,0.03744015,0.038891282,-0.016402533,-0.019948015,-0.015772985,0.005863032,-0.017441357,-0.010901356
0.021749321,0.049783666,0.013624701,-0.018909557,0.037362617,0.03856376,-0.016409555,-0.01996463,-0.015766915,0.005867374,-0.017439561,-0.01085134
0.021681381,0.049622152,0.013656936,-0.018908974,0.03747261,0.03878651,-0.016428782,-0.019963522,-0.015765898,0.005868829,-0.017436072,-0.010733428
0.021665674,0.049655557,0.013671756,-0.018905597,0.03744328,0.038719192,-0.01643454,-0.019970194,-0.015764585,0.005874678,-0.017434794,-0.010836829
0.021603055,0.049580563,0.013721987,-0.018910564,0.03754317,0.03895787,-0.016421773,-0.019985558,-0.01576077,0.005868217,-0.017439187,-0.010854264
0.021491667,0.04948887,0.013801349,-0.018901616,0.03754353,0.038986698,-0.016458737,-0.019974452,-0.015767017,0.005847182,-0.017435463,-0.010908152
0.021696236,0.049900744,0.013772077,-0.018907504,0.036956973,0.037889913,-0.016432451,-0.020007882,-0.015758416,0.00589674,-0.017451733,-0.011173651
0.02161101,0.049705785,0.013813309,-0.018901885,0.037062295,0.038181104,-0.01665544,-0.019995239,-0.01573146,0.005889398,-0.017442951,-0.011150044
0.021524781,0.049489036,0.013890103,-0.01889991,0.037211332,0.03857942,-0.016631495,-0.019983182,-0.015746014,0.005880544,-0.017436367,-0.011127111
0.021497333,0.04941107,0.013944682,-0.018898,0.03733848,0.038746964,-0.01659034,-0.019987518,-0.015735438,0.005876738,-0.017443907,-0.011069443
0.021537919,0.04947634,0.01389182,-0.018900834,0.037312333,0.038635682,-0.016598098,-0.020025935,-0.015724583,0.005900766,-0.017442882,-0.011068596
0.02153722,0.049432434,0.013932653,-0.01890063,0.037238628,0.038665723,-0.016457973,-0.020026524,-0.015753416,0.005849059,-0.017437676,-0.011059993
0.02144936,0.049447317,0.013912675,-0.018898455,0.037383165,0.038739063,-0.016486317,-0.020054214,-0.01572999,0.005838665,-0.017434647,-0.011038274
0.02145568,0.04944997,0.013947764,-0.018901506,0.037573297,0.03909188,-0.016467467,-0.0200929,-0.015710013,0.005840375,-0.017432133,-0.011033488
0.021507362,0.049469266,0.013906253,-0.018903289,0.037569728,0.039195288,-0.01648553,-0.020090012,-0.015727138,0.005923542,-0.01742722,-0.010999121
0.02150416,0.04950671,0.013981249,-0.018909844,0.037490346,0.03902457,-0.016555369,-0.020098906,-0.015722673,0.005942286,-0.01742186,-0.010876854
0.021441733,0.0495094,0.013966008,-0.018905109,0.0375437,0.038820766,-0.016586967,-0.02011697,-0.015732411,0.005887473,-0.017418833,-0.010885249
0.021416036,0.049717348,0.013947926,-0.01890101,0.037597213,0.038928997,-0.016485851,-0.020112693,-0.015743662,0.005911864,-0.017416863,-0.010903967
0.021569818,0.04966005,0.013937934,-0.01890989,0.037757754,0.039793234,-0.016437752,-0.020079404,-0.015755564,0.005923304,-0.01742193,-0.010852531
0.021509077,0.04975887,0.013982827,-0.018907381,0.037598312,0.03939969,-0.016449774,-0.020169215,-0.015749635,0.005901181,-0.017421057,-0.010877265
0.021454979,0.04966548,0.013985616,-0.018906971,0.037632946,0.039501816,-0.016502522,-0.020194799,-0.015737526,0.005909793,-0.017417328,-0.010807722
0.021371912,0.049572986,0.013985013,-0.018904483,0.037631795,0.039607763,-0.016395606,-0.020146841,-0.015760645,0.005894647,-0.017418478,-0.010851536
0.021350713,0.049516708,0.013992354,-0.018903306,0.037607614,0.03942704,-0.016326621,-0.020131141,-0.015770644,0.005902163,-0.017426183,-0.01082946
0.021372275,0.04953495,0.014049135,-0.018899478,0.03745547,0.0392001,-0.016505526,-0.02012874,-0.015712395,0.005902339,-0.017415406,-0.010796856
0.021355242,0.04951499,0.014081379,-0.01889558,0.03752837,0.03932215,-0.016465155,-0.020143628,-0.015735226,0.005907667,-0.017419023,-0.010819958
0.021322295,0.049566753,0.014007107,-0.01889727,0.037401736,0.03904952,-0.016458787,-0.02012435,-0.015743623,0.005874492,-0.017417228,-0.010898506
0.021269398,0.049542785,0.014023921,-0.018893141,0.037234176,0.038377464,-0.016500624,-0.020170404,-0.015734363,0.00588567,-0.017419418,-0.010899008
0.021332117,0.0494918,0.014011075,-0.018897308,0.037281726,0.038444135,-0.016565224,-0.020212013,-0.015718952,0.005961978,-0.017419357,-0.010934235
0.021420812,0.049571298,0.01400193,-0.01889352,0.03723829,0.03847675,-0.016463634,-0.020226425,-0.015719313,0.005989681,-0.017419556,-0.010948
0.02136877,0.04950223,0.014007908,-0.01888874,0.037275765,0.038374595,-0.016318118,-0.02022981,-0.015718563,0.005927091,-0.017417574,-0.010901502
0.021300571,0.04942589,0.014018895,-0.018881347,0.037424296,0.038548086,-0.01638264,-0.02021149,-0.015729604,0.005967906,-0.017411485,-0.01093862
0.021403374,0.049486835,0.014041205,-0.018883273,0.037207883,0.03822383,-0.016357623,-0.020269547,-0.015727002,0.006041422,-0.017410953,-0.010912123
0.021392051,0.04947806,0.014054566,-0.018883772,0.03712297,0.038071603,-0.016325083,-0.020260291,-0.015730128,0.006050138,-0.017415257,-0.010930394
0.021318048,0.0494237,0.014048457,-0.018888123,0.037252057,0.03824585,-0.016344368,-0.020232376,-0.015731392,0.006017741,-0.017416611,-0.010856206
0.02134305,0.049534537,0.014037025,-0.018890789,0.037218753,0.03831278,-0.016412811,-0.020262538,-0.015720578,0.006080066,-0.017415822,-0.010943798
0.021323808,0.049403526,0.01403707,-0.01889019,0.037305348,0.03856086,-0.016367668,-0.020243064,-0.01572531,0.006025468,-0.01741436,-0.010991648
0.021370921,0.04941641,0.014035308,-0.018893665,0.037471488,0.03896498,-0.016427865,-0.020144459,-0.015733488,0.00605596,-0.01741209,-0.010886605
0.021384478,0.049538903,0.014043987,-0.018890213,0.03729056,0.038505364,-0.01642113,-0.020236792,-0.015711641,0.006043477,-0.017407075,-0.010902545
0.021388387,0.04946873,0.014022138,-0.018889565,0.03743976,0.039106153,-0.016509213,-0.020193597,-0.015727026,0.006103376,-0.017401887,-0.010863647
0.021405146,0.049521822,0.014055381,-0.018886367,0.037278824,0.03857743,-0.016488282,-0.020224323,-0.015710527,0.006063048,-0.017406845,-0.010916458
0.021447636,0.049497366,0.014026668,-0.018889207,0.037310634,0.038676687,-0.016552603,-0.02022457,-0.015715852,0.00606487,-0.017406974,-0.010874559
0.021409675,0.049541514,0.014061602,-0.01889712,0.037299298,0.0385237,-0.016479814,-0.020244539,-0.01573096,0.005996363,-0.017415537,-0.01080479
0.021392027,0.04939922,0.014086379,-0.018898599,0.03740962,0.038766637,-0.016573701,-0.020257741,-0.015722096,0.005981974,-0.017414948,-0.010707076
0.021426175,0.049527615,0.014052683,-0.018895546,0.03740202,0.038776,-0.016612494,-0.020224726,-0.015719872,0.005991641,-0.017411899,-0.010763565
0.02137327,0.04954217,0.014051845,-0.018889973,0.037493538,0.038680363,-0.016657425,-0.02021115,-0.015732057,0.005972453,-0.017417746,-0.010704984
0.02153389,0.04973694,0.013962059,-0.018891796,0.037202522,0.03852691,-0.016659517,-0.020234643,-0.01569359,0.006109574,-0.01741695,-0.010754826
0.02143221,0.049465258,0.01403918,-0.018884284,0.03732707,0.038572855,-0.016658142,-0.020244546,-0.015707768,0.005966221,-0.017439017,-0.010642967
0.021669058,0.049778223,0.013841658,-0.018893626,0.037194766,0.03841193,-0.016624577,-0.020232348,-0.015704542,0.005977835,-0.01743796,-0.010821397
0.021637894,0.04982102,0.013866742,-0.018887483,0.03723885,0.03861945,-0.016606819,-0.02019072,-0.015715001,0.005976708,-0.017439514,-0.010785971
0.021605449,0.049711194,0.013896684,-0.018885681,0.037253324,0.03867429,-0.016626934,-0.020193754,-0.015714666,0.005947345,-0.017442493,-0.010712877
0.021595702,0.049644075,0.013938227,-0.01888851,0.037200455,0.038410112,-0.016684912,-0.020219084,-0.015708983,0.005967411,-0.01744144,-0.010750709
0.021588838,0.04961298,0.013962162,-0.01889122,0.0373829,0.03863108,-0.016714279,-0.02013842,-0.015717508,0.005977527,-0.017448764,-0.010764563
0.02157166,0.049599845,0.013949278,-0.01888884,0.0373995,0.03858789,-0.016663276,-0.020085959,-0.015706215,0.006040724,-0.017446836,-0.010751519
0.021615904,0.049700063,0.014031604,-0.018885551,0.037236143,0.038428362,-0.01658712,-0.020147903,-0.015690528,0.006080025,-0.017442279,-0.010789942
0.021593934,0.04962039,0.014002312,-0.01888775,0.037367813,0.03865892,-0.016679956,-0.020089095,-0.015677497,0.006072462,-0.017444443,-0.010755633
0.02166819,0.04961435,0.014028487,-0.018892003,0.037493173,0.038608674,-0.01666448,-0.020110412,-0.015689638,0.006063214,-0.017444825,-0.010794933
0.021604894,0.04957424,0.014037067,-0.018888975,0.037505426,0.038480308,-0.01670909,-0.020090498,-0.015690984,0.006062828,-0.017439146,-0.010823204
0.021659637,0.049546737,0.014071982,-0.018877313,0.03766688,0.039200116,-0.016705152,-0.020081542,-0.015686078,0.006110677,-0.017434115,-0.010800066
0.02157682,0.049633916,0.014081307,-0.01887496,0.037238356,0.038492355,-0.0167763,-0.020151112,-0.015688192,0.006096933,-0.017427037,-0.010835755
0.021582952,0.049739636,0.014081528,-0.018876482,0.037292,0.038952935,-0.016653853,-0.02013742,-0.015703985,0.006156607,-0.017445182,-0.010841454
0.021506952,0.04964846,0.014122926,-0.018876271,0.037362475,0.039041206,-0.016700251,-0.020177806,-0.015696017,0.006136647,-0.017441746,-0.010809301
0.021537198,0.04967016,0.014127458,-0.018881774,0.037222773,0.0386399,-0.016606517,-0.020183343,-0.015691862,0.006150242,-0.017443834,-0.010804058
0.021529268,0.049707424,0.014153755,-0.018879335,0.037342392,0.039025735,-0.016463624,-0.020127041,-0.015700275,0.006090705,-0.017442517,-0.010816223
0.02142396,0.04954029,0.014156871,-0.018875139,0.037305,0.03875573,-0.01664715,-0.020033984,-0.015673023,0.006062183,-0.017442353,-0.010766065
0.02146084,0.049631607,0.014128768,-0.018875051,0.037353363,0.038840044,-0.016590526,-0.02001212,-0.015686875,0.006089168,-0.017449548,-0.010719784
0.021406306,0.049626168,0.014146938,-0.018874763,0.037389617,0.03907595,-0.016613297,-0.020033423,-0.015673848,0.006116622,-0.017446592,-0.010702968
0.02144377,0.04968782,0.014100972,-0.018879179,0.03739813,0.03914531,-0.01663831,-0.020051857,-0.01567153,0.00609509,-0.01744431,-0.010744836
0.02142713,0.049741514,0.014132858,-0.018890165,0.03742693,0.039169785,-0.01672549,-0.020057214,-0.01564888,0.006076346,-0.017448142,-0.010777744
0.021413384,0.049717523,0.014166432,-0.018890832,0.037403896,0.039106984,-0.016766088,-0.020067727,-0.015671683,0.006084889,-0.017456662,-0.010800214
0.021440601,0.049754824,0.014124462,-0.01888386,0.03733822,0.039165314,-0.016779562,-0.020045474,-0.015690085,0.006085916,-0.017455779,-0.010751486
0.021233562,0.049707912,0.014158568,-0.018871786,0.037458275,0.038895514,-0.016798537,-0.020018913,-0.015671669,0.006084802,-0.01745422,-0.010679195
0.021373423,0.050106578,0.014070968,-0.018871881,0.03725253,0.03865769,-0.016683426,-0.02010505,-0.015641598,0.006083234,-0.017457185,-0.010837791
0.021311937,0.049848255,0.014174208,-0.01885644,0.037465233,0.039132446,-0.016736282,-0.02006399,-0.015657099,0.00603278,-0.017457768,-0.010797174
0.02134828,0.04996818,0.014171522,-0.018864997,0.037461698,0.039290525,-0.016649192,-0.020094158,-0.015633397,0.006097877,-0.01745809,-0.011006933
0.021280779,0.049753103,0.014228189,-0.01885941,0.037529316,0.039524898,-0.01664248,-0.020089356,-0.015624991,0.006072904,-0.017460003,-0.011046279
0.02129106,0.049887065,0.014230697,-0.01886091,0.037591122,0.039703377,-0.016539043,-0.020112125,-0.015616543,0.006110465,-0.017452747,-0.011059742
0.021307684,0.04986269,0.014218677,-0.018868301,0.03760715,0.039735287,-0.016604414,-0.020158472,-0.015620209,0.006138973,-0.017456807,-0.01106759
0.021288587,0.04981304,0.014271935,-0.018868154,0.03758867,0.039680224,-0.016584259,-0.020171558,-0.015632436,0.006120603,-0.017464446,-0.011039146
0.021396913,0.04983754,0.014264527,-0.018866763,0.037572015,0.039793905,-0.01674,-0.020071302,-0.015664112,0.006082806,-0.017464668,-0.011052485
0.021297142,0.049917962,0.014354972,-0.01886668,0.037128665,0.038337022,-0.016822854,-0.02013083,-0.015595881,0.005971522,-0.017459655,-0.010936533
0.021424241,0.04997489,0.014329661,-0.018868841,0.037245564,0.038832333,-0.016773742,-0.02012095,-0.015600365,0.005977996,-0.017462404,-0.010891182
0.021335622,0.04990075,0.014314534,-0.018867197,0.037415937,0.03924387,-0.01676571,-0.020121403,-0.015620985,0.005995875,-0.017462412,-0.010909583
0.02135242,0.049996063,0.014285381,-0.018867863,0.03740915,0.039268762,-0.016757019,-0.02014107,-0.015592563,0.005999753,-0.017460799,-0.010925928
0.021256777,0.04982237,0.014300421,-0.018869705,0.037552364,0.039622243,-0.016758952,-0.020109277,-0.01560566,0.00595842,-0.017458647,-0.011011774
0.021315757,0.049858563,0.014264106,-0.018876702,0.03749937,0.039516833,-0.016918268,-0.02017752,-0.015588132,0.005953814,-0.017459268,-0.010990934
0.021254554,0.049818806,0.014282716,-0.018885396,0.0376174,0.03962509,-0.016988533,-0.020209972,-0.015575166,0.005966859,-0.017457228,-0.010999649
0.02122937,0.049856722,0.014319309,-0.018876957,0.037589,0.039416593,-0.01681776,-0.020179946,-0.015589374,0.00593211,-0.017460834,-0.011012784
0.021245833,0.04980347,0.01427491,-0.018881276,0.037566587,0.0393567,-0.016842708,-0.02017006,-0.015561678,0.005953566,-0.017463617,-0.010969452
0.021233851,0.0499726,0.014272903,-0.018885443,0.03739273,0.038883943,-0.01679108,-0.020143552,-0.015600569,0.005922036,-0.017466076,-0.011041922
0.021140428,0.049899172,0.014294827,-0.018889116,0.037465647,0.03903098,-0.016818484,-0.020164635,-0.015584144,0.005950393,-0.017461838,-0.011010597
0.021132305,0.04999343,0.014253496,-0.018892586,0.037579194,0.03922707,-0.016814178,-0.020160178,-0.01558629,0.005951105,-0.017466445,-0.011022737
0.02102731,0.049879856,0.014228049,-0.01889434,0.037580293,0.039204367,-0.016872492,-0.020155292,-0.015566875,0.005967889,-0.017469583,-0.011015574
0.021023577,0.050005686,0.014163908,-0.018891774,0.03744869,0.0388808,-0.016919857,-0.020165872,-0.015567152,0.006012537,-0.017467724,-0.010941258
0.02096085,0.04994186,0.014187952,-0.018885883,0.037391774,0.03894963,-0.016784754,-0.02016681,-0.0155677,0.005998881,-0.01746514,-0.010921087
0.02097718,0.049875524,0.014179293,-0.01888383,0.037521966,0.039163843,-0.016895428,-0.020107273,-0.015607481,0.006016955,-0.017468613,-0.01089326
0.021004997,0.049907733,0.014154065,-0.018874107,0.037358858,0.038931075,-0.01687749,-0.02019956,-0.015600517,0.006007001,-0.017468968,-0.010927822
0.021191308,0.05008231,0.014056977,-0.018888492,0.0371491,0.038728,-0.016876604,-0.020145787,-0.015652472,0.006091191,-0.017470328,-0.010905975
0.021145092,0.049890857,0.014055141,-0.01888161,0.037265074,0.038746256,-0.016964387,-0.020134024,-0.01563236,0.006063777,-0.017456526,-0.010847276
0.021229167,0.05007328,0.014026321,-0.018886657,0.037216336,0.03876525,-0.016947357,-0.020150088,-0.015626756,0.006104932,-0.017454525,-0.01078192
0.021246517,0.049943954,0.014034437,-0.01889542,0.037092965,0.038848102,-0.016913138,-0.02011751,-0.01562753,0.006107737,-0.01744922,-0.010788603
0.021150047,0.049863342,0.014050711,-0.018902421,0.037228078,0.038647793,-0.016950754,-0.020115292,-0.015642304,0.006074147,-0.01745159,-0.010770854
0.021202853,0.049777385,0.014115603,-0.018901382,0.03715794,0.03880571,-0.016948186,-0.020087888,-0.015644716,0.006114855,-0.017457023,-0.010785589
0.021232165,0.04986082,0.014042757,-0.018900694,0.037232634,0.039098587,-0.01692987,-0.020089334,-0.015666911,0.006135527,-0.017464384,-0.010828702
0.021227993,0.049796876,0.014004818,-0.018897943,0.03733327,0.039268564,-0.017036078,-0.02008603,-0.015632587,0.006171229,-0.017459262,-0.010775141
0.021064797,0.049874395,0.014081322,-0.018893987,0.03731305,0.038965702,-0.01703937,-0.02012934,-0.015629156,0.006140282,-0.0174527,-0.010660283
0.021107592,0.049929205,0.013947422,-0.018899081,0.037155483,0.03905234,-0.016969584,-0.019883726,-0.015711157,0.006034588,-0.017453784,-0.010747116
0.021027246,0.049700104,0.013934113,-0.018893616,0.03701866,0.03847184,-0.01719262,-0.019892251,-0.015700806,0.00601087,-0.017436199,-0.010545148
0.021004038,0.049949825,0.013932694,-0.018898621,0.03696167,0.038111627,-0.01717729,-0.019933106,-0.015704488,0.00603233,-0.017438462,-0.0105463
0.020887036,0.049694765,0.013968729,-0.018896466,0.037074722,0.03803195,-0.017214848,-0.019936955,-0.015710194,0.00599396,-0.017433776,-0.01049467
0.020897483,0.049734984,0.01399497,-0.018895792,0.036955014,0.038167637,-0.017226595,-0.019947845,-0.015721759,0.006029042,-0.017431233,-0.010542472
0.020849278,0.049600203,0.014062149,-0.018895948,0.037192214,0.038469207,-0.017242715,-0.01996499,-0.015688535,0.006015027,-0.01741875,-0.010497971
0.021052485,0.04985343,0.014074452,-0.01888217,0.03703228,0.03867806,-0.017190393,-0.020106304,-0.015678894,0.006010584,-0.017418586,-0.010576602
0.020992452,0.04978597,0.014090906,-0.018874409,0.037069872,0.038694613,-0.017267168,-0.020087505,-0.015677003,0.006034851,-0.017419606,-0.010542028
0.020943183,0.049732126,0.014131495,-0.018864801,0.03707401,0.038516473,-0.017329294,-0.020111786,-0.015680103,0.00601967,-0.017420297,-0.010540693
0.020948596,0.049782734,0.014060097,-0.01887341,0.037073247,0.03825352,-0.017340314,-0.020068543,-0.015676478,0.006028325,-0.01742176,-0.010583888
0.021000225,0.049843494,0.014077445,-0.018876405,0.037066165,0.038361747,-0.017375803,-0.019996872,-0.015671773,0.006044291,-0.017418224,-0.010575253
0.02097278,0.049832962,0.014098901,-0.01887346,0.037011635,0.038266964,-0.017404856,-0.020006802,-0.015655443,0.006020777,-0.017417353,-0.010628662
0.02091327,0.049740862,0.014128394,-0.018879242,0.03715133,0.03840823,-0.017399933,-0.020033,-0.015664915,0.005996319,-0.017418053,-0.010646242
0.020908495,0.049653415,0.014100546,-0.018872896,0.037232593,0.03873454,-0.017514575,-0.020001514,-0.015668783,0.005950823,-0.017418314,-0.010631587
0.020945707,0.04979272,0.014086531,-0.018880885,0.03703866,0.038583297,-0.017473938,-0.020116052,-0.015634524,0.005951112,-0.017419329,-0.010698678
0.0209826,0.0498912,0.014077326,-0.01887404,0.037078958,0.038659796,-0.017607631,-0.019993423,-0.015672091,0.005987811,-0.01742074,-0.010618105
0.02101642,0.049846042,0.014066584,-0.018878946,0.037131537,0.038770188,-0.01761524,-0.02002879,-0.015639972,0.006011741,-0.017418962,-0.010612525
0.020961054,0.04992842,0.014109722,-0.018884197,0.037124287,0.03864851,-0.017587293,-0.020029023,-0.015650295,0.005962158,-0.017416228,-0.010652188
0.020966575,0.049935848,0.014066094,-0.01888154,0.03715095,0.038649898,-0.017526556,-0.020011647,-0.015648363,0.00597065,-0.017412357,-0.010656732
0.021002486,0.049915787,0.014026764,-0.018878443,0.03711965,0.038738634,-0.017474947,-0.019936794,-0.015657963,0.005943833,-0.017412566,-0.010697993
0.020956565,0.049964365,0.014028465,-0.018882016,0.037164778,0.038652103,-0.017651578,-0.020001207,-0.015638022,0.005966401,-0.017412744,-0.010725386
0.02097189,0.050019838,0.014013891,-0.018887708,0.03712502,0.03863963,-0.017588444,-0.019985903,-0.015674897,0.006038381,-0.0174195,-0.010672809
0.020997845,0.0499862,0.014019433,-0.018896699,0.037188865,0.038820773,-0.017551864,-0.019954998,-0.015665926,0.006008732,-0.017413493,-0.0107121
0.020987414,0.0499878,0.014045833,-0.018893033,0.037158273,0.03879902,-0.01758531,-0.019954972,-0.015662882,0.006008895,-0.017415293,-0.010710115
0.020954795,0.0498254,0.014072239,-0.01889559,0.037252832,0.039140727,-0.017617505,-0.019964444,-0.015679834,0.006035372,-0.017421123,-0.010628504
0.020845285,0.04984268,0.014073317,-0.0188857,0.03725856,0.03900079,-0.017630054,-0.01997838,-0.015728654,0.00605236,-0.017421307,-0.01062742
0.020862196,0.049907003,0.014119,-0.018886754,0.037081126,0.03903086,-0.017633699,-0.019881474,-0.015737234,0.0061361,-0.017420532,-0.010491801
0.020757249,0.050014213,0.01412769,-0.018891478,0.036858633,0.038204618,-0.01759584,-0.020015817,-0.01573452,0.006022077,-0.017420052,-0.010677052
0.020786373,0.04998181,0.014091978,-0.018894237,0.03701592,0.03884635,-0.017605755,-0.019973908,-0.015702201,0.005994709,-0.017421197,-0.010685022
0.020734051,0.049835518,0.014159724,-0.018897459,0.037307076,0.039216004,-0.017661748,-0.0200183,-0.015671281,0.006011811,-0.017418982,-0.010632443
0.020793187,0.04993748,0.014109668,-0.018903516,0.03739068,0.03934959,-0.017645644,-0.020042146,-0.01563838,0.006038322,-0.017419094,-0.010726354
0.020706719,0.049842205,0.014136507,-0.018897373,0.03737833,0.039190777,-0.017678455,-0.019992355,-0.015660184,0.006028902,-0.017414115,-0.01056287
0.02082394,0.050085872,0.014047321,-0.01889605,0.03732362,0.039260287,-0.017601486,-0.01998917,-0.015642198,0.006025807,-0.017415097,-0.010590415
0.020769538,0.050147954,0.014033284,-0.01889284,0.037310753,0.03887724,-0.017622033,-0.020047845,-0.015643138,0.005978013,-0.017425124,-0.010537175
0.020727858,0.050069638,0.01405304,-0.018892843,0.03730632,0.038966186,-0.017697196,-0.02005974,-0.015599284,0.005948782,-0.017422277,-0.010491515
0.020758223,0.050268583,0.014012,-0.018892502,0.037277,0.038763277,-0.017682435,-0.020068875,-0.015611499,0.005924045,-0.017422695,-0.010546626
0.020701753,0.050099175,0.014067831,-0.018886732,0.037244435,0.03857884,-0.017742457,-0.020076288,-0.015611286,0.005928163,-0.017422263,-0.010517555
0.020721644,0.050148536,0.014076347,-0.018882692,0.03749369,0.039061617,-0.017641354,-0.020140406,-0.01564884,0.005896607,-0.01742118,-0.010495291
0.020707939,0.050033625,0.014101435,-0.018880023,0.037422728,0.039137848,-0.017635942,-0.020071432,-0.015642637,0.005933402,-0.017418658,-0.010523969
0.02057115,0.05005943,0.014146614,-0.018881492,0.03747646,0.038723826,-0.017598022,-0.020126289,-0.015624605,0.005998318,-0.017420439,-0.010527489
0.020636821,0.050102185,0.014036285,-0.018877951,0.037366305,0.038769383,-0.017595531,-0.020029275,-0.015698345,0.005963574,-0.017417457,-0.010553882
0.020586526,0.05018199,0.014078295,-0.018880805,0.037324905,0.03836622,-0.017633962,-0.02007475,-0.015689312,0.005947742,-0.017419519,-0.010515742
0.020655878,0.050132688,0.014051772,-0.018891253,0.037274305,0.038360402,-0.017687405,-0.020025883,-0.015711783,0.005975768,-0.017422019,-0.010495562
0.020650659,0.05009207,0.014063863,-0.018890904,0.03733343,0.03840951,-0.017759472,-0.020004379,-0.015732288,0.005927801,-0.017426115,-0.01049225
0.020631498,0.05002587,0.014057051,-0.018895153,0.03729095,0.03849893,-0.017831927,-0.019998103,-0.01568687,0.00594012,-0.017422715,-0.010462135
0.02064744,0.050099574,0.01407327,-0.018893428,0.03728602,0.038567,-0.017830098,-0.020004714,-0.015691552,0.005970748,-0.017425139,-0.010523779
0.020682309,0.050147858,0.014111713,-0.018905101,0.037336953,0.0384695,-0.017864667,-0.019993065,-0.015714338,0.005989786,-0.017429793,-0.010429624
0.020672932,0.0501787,0.01403532,-0.018905904,0.03744759,0.03856296,-0.01785948,-0.020011146,-0.01571788,0.00598664,-0.017434554,-0.010480365
0.020574385,0.050031282,0.014008929,-0.018902842,0.037520304,0.038704656,-0.017912287,-0.02004899,-0.015654424,0.005957185,-0.017425908,-0.010476183
0.02063956,0.050260335,0.013968059,-0.018913321,0.03733189,0.038792405,-0.017721804,-0.020133095,-0.015649458,0.005921765,-0.017432591,-0.010531281
0.020539923,0.0499362,0.013979385,-0.018908063,0.03751742,0.03896509,-0.017829848,-0.020120932,-0.015662275,0.005869181,-0.017429305,-0.010496962
0.020560915,0.05009114,0.013999206,-0.01891673,0.037332956,0.038561724,-0.01782615,-0.020159217,-0.01565444,0.005864312,-0.017427742,-0.010522424
0.020542137,0.050189216,0.013971715,-0.018918784,0.037370943,0.038929217,-0.017787265,-0.02008933,-0.015689773,0.005891421,-0.017429017,-0.010575511
0.02050907,0.050111998,0.013990936,-0.018914407,0.03729458,0.038742464,-0.017804503,-0.020075087,-0.015682006,0.005882641,-0.017424108,-0.010508712
0.020479642,0.050085235,0.014004864,-0.01891833,0.03735664,0.038737852,-0.017837435,-0.020106863,-0.015661899,0.005865801,-0.017423099,-0.010473976
0.020402454,0.049886547,0.014019222,-0.018915202,0.037387047,0.03897554,-0.017884014,-0.02002397,-0.01569121,0.005851039,-0.017424274,-0.010461852
0.020438634,0.050081648,0.014036997,-0.018914275,0.03726053,0.038709555,-0.017837323,-0.020002125,-0.0156751,0.005877808,-0.017425887,-0.010580463
0.020421134,0.050111517,0.014073695,-0.018912775,0.037308045,0.038606554,-0.01781608,-0.020022232,-0.015715742,0.00584339,-0.017425263,-0.010559454
0.020510705,0.050060026,0.014057121,-0.018907249,0.037137765,0.03826443,-0.017884174,-0.019894697,-0.015740117,0.005889738,-0.017425248,-0.010469333
0.020495206,0.050030466,0.014122234,-0.018904671,0.037160918,0.038132835,-0.01798239,-0.019866336,-0.015766805,0.005893107,-0.017423263,-0.010513363
0.02043627,0.04982689,0.014136283,-0.018905552,0.037261777,0.03818607,-0.017904656,-0.01987049,-0.0157584,0.005890503,-0.01742715,-0.010526337
0.020602182,0.049895786,0.01406406,-0.018919088,0.03708968,0.038289648,-0.01783091,-0.01992697,-0.0157346,0.005916807,-0.017426347,-0.010624412
0.020503102,0.04994288,0.014129642,-0.01892815,0.037328985,0.03851642,-0.01789855,-0.019947276,-0.01572831,0.005942704,-0.01742577,-0.010514349
0.020728005,0.050122898,0.014066211,-0.01893118,0.036997024,0.038419884,-0.017852215,-0.019887667,-0.015722081,0.005921285,-0.017428702,-0.010676742
0.020527069,0.049766626,0.014089297,-0.018925782,0.037188854,0.038039003,-0.018163458,-0.019881867,-0.01568167,0.005887352,-0.017424284,-0.01059281
0.020706864,0.049927216,0.014024999,-0.018924605,0.037162155,0.038368963,-0.018140906,-0.01985861,-0.015691426,0.005891418,-0.017429557,-0.010541067
0.020648854,0.04980538,0.014063565,-0.018927928,0.037267968,0.038506158,-0.018147187,-0.019851351,-0.01567031,0.005874789,-0.017426066,-0.010509938
0.020630263,0.04981297,0.014080208,-0.018925654,0.03741666,0.038890213,-0.018176526,-0.019821247,-0.015686877,0.005885382,-0.017427556,-0.010536059
0.020694958,0.050034843,0.014077054,-0.01891778,0.037174556,0.03839952,-0.018189127,-0.01985278,-0.01567937,0.005880099,-0.017428726,-0.010674772
0.020710295,0.049974423,0.014088843,-0.018918546,0.037269156,0.038793996,-0.018110842,-0.01978024,-0.01569141,0.005900905,-0.017429894,-0.010569684
0.02066338,0.050097995,0.01408628,-0.018915718,0.037208445,0.038650375,-0.01814039,-0.019776693,-0.015700987,0.005901712,-0.017429927,-0.010612668
0.020685114,0.04993198,0.014141888,-0.018917747,0.037237898,0.038775425,-0.018128231,-0.019873677,-0.015693601,0.005901829,-0.017428825,-0.010520901
0.020648727,0.049991753,0.014191537,-0.018905522,0.037066363,0.03855903,-0.018216858,-0.019820832,-0.015712734,0.005919753,-0.017428862,-0.010504464
0.020524936,0.049924683,0.014156406,-0.018907657,0.03706149,0.038785845,-0.018273795,-0.019819781,-0.015687307,0.005945287,-0.0174265,-0.010483041
0.02049787,0.04997881,0.014180055,-0.018905066,0.037103366,0.038468033,-0.018235167,-0.019957367,-0.015672999,0.005892565,-0.017427707,-0.010512257
0.020463146,0.0499689,0.014186231,-0.018903287,0.037241288,0.038574327,-0.018278252,-0.019870443,-0.015673839,0.005907669,-0.017428815,-0.010445092
0.02060572,0.050130438,0.014170209,-0.01891224,0.037086252,0.038455587,-0.018391673,-0.019841805,-0.015659047,0.005975535,-0.01743119,-0.010338245
0.020526439,0.049972612,0.014174013,-0.018916683,0.037293464,0.038840186,-0.018382177,-0.019839747,-0.015664559,0.005953023,-0.01743539,-0.010299628
0.020462826,0.04998446,0.014212461,-0.018918207,0.037231393,0.038816333,-0.018507889,-0.019885406,-0.015638907,0.005931807,-0.017434001,-0.010349519
0.02043836,0.049855724,0.014254723,-0.018916788,0.037458338,0.039257903,-0.018270388,-0.0198848,-0.015650496,0.005853213,-0.017436324,-0.010346564
0.020401055,0.04995171,0.01422097,-0.018917164,0.03735574,0.03869228,-0.018226625,-0.019783527,-0.015620695,0.005840417,-0.017434714,-0.010471906
0.020387562,0.04990179,0.014219748,-0.018913358,0.03747185,0.03919884,-0.01823235,-0.019809434,-0.015617595,0.005797788,-0.017438384,-0.01038405
0.020265525,0.049883373,0.014223226,-0.018912362,0.037557047,0.03908911,-0.018328143,-0.019862209,-0.015602926,0.00584896,-0.017438032,-0.010326223
0.020340769,0.04998262,0.014222308,-0.01890984,0.03753438,0.03901633,-0.018337635,-0.019837577,-0.015564113,0.005837046,-0.017440831,-0.010319509
0.020379797,0.049991596,0.014181935,-0.01890735,0.037611984,0.03903195,-0.01828457,-0.019861089,-0.015585193,0.005838573,-0.017441556,-0.010320129
0.020356217,0.04982845,0.014159528,-0.018897844,0.037579093,0.03949727,-0.018149,-0.019713113,-0.015572182,0.005845983,-0.017428817,-0.010350433
0.020351186,0.05003982,0.01420122,-0.018901028,0.03765287,0.039265964,-0.018147947,-0.019895483,-0.015572475,0.005812468,-0.017430715,-0.010509735
0.020325974,0.049925175,0.014227697,-0.018896239,0.03779006,0.039522666,-0.01816256,-0.019935982,-0.015566791,0.005827821,-0.017428236,-0.010445605
0.020310102,0.04984924,0.014248704,-0.018900808,0.037822388,0.039349616,-0.018177003,-0.01991359,-0.015583252,0.005814186,-0.017428886,-0.010380344
0.020281391,0.04992881,0.014259701,-0.018893808,0.0377493,0.03930611,-0.0181961,-0.019941883,-0.015572424,0.005853846,-0.017429871,-0.010387398
0.02027572,0.049867716,0.014266265,-0.018889628,0.03784352,0.039498307,-0.018161688,-0.019898223,-0.015572613,0.00584909,-0.017430559,-0.010321823
0.020355303,0.049901906,0.01430449,-0.018897528,0.037602358,0.03924105,-0.01808264,-0.019917333,-0.015536999,0.005825351,-0.017426511,-0.010488602
0.020322086,0.049946044,0.014287126,-0.018896116,0.03765726,0.039348204,-0.018148674,-0.019909589,-0.01558233,0.005854628,-0.017425332,-0.010488985
0.020326287,0.049818393,0.014317079,-0.01889957,0.037699454,0.039643858,-0.01819302,-0.01985988,-0.015578756,0.005852465,-0.017423451,-0.010430926
0.020271476,0.04988964,0.014299017,-0.018883258,0.037773196,0.03935206,-0.018197907,-0.019921193,-0.015585413,0.005867213,-0.017423334,-0.010515786
0.020244515,0.04972424,0.014321721,-0.018887153,0.037751272,0.039522823,-0.018116413,-0.019891087,-0.015526391,0.005855027,-0.01742248,-0.010504967
0.020351684,0.049889367,0.01425356,-0.01888692,0.037755664,0.039677422,-0.017974937,-0.019759903,-0.015533906,0.005828293,-0.017422674,-0.010638765
0.020238739,0.049858276,0.014319626,-0.018898351,0.0378484,0.039486974,-0.017973179,-0.019810045,-0.015574105,0.005848651,-0.01742193,-0.010704335
0.020312425,0.049917977,0.01431003,-0.018901074,0.037942648,0.039723933,-0.018082723,-0.0197988,-0.015568253,0.005835343,-0.017419463,-0.010649978
0.020276358,0.050147686,0.014303011,-0.018894441,0.037741877,0.039153438,-0.017990962,-0.019820888,-0.015548162,0.005836137,-0.017419001,-0.010785072
0.020226281,0.04991534,0.014281067,-0.01889609,0.03786426,0.039481286,-0.018018495,-0.019759554,-0.015568224,0.005844013,-0.017419185,-0.010718317
0.02024025,0.04982798,0.014265536,-0.01888661,0.037891295,0.03972423,-0.018168008,-0.019715318,-0.015564763,0.005844995,-0.017418558,-0.010695001
0.020315915,0.049949467,0.014249148,-0.018889707,0.03783744,0.039485168,-0.018116223,-0.019698612,-0.015585266,0.005837259,-0.017418066,-0.010766535
0.020357993,0.04996395,0.014254446,-0.018888608,0.037746847,0.039870717,-0.018187389,-0.019707765,-0.015617583,0.005865614,-0.017419247,-0.010662149
0.020297803,0.04993638,0.01428536,-0.018884594,0.03786717,0.039967597,-0.018260438,-0.019736074,-0.015578008,0.005873728,-0.017419523,-0.010560134
0.020290164,0.04998481,0.014270994,-0.018886184,0.03787993,0.04013043,-0.018264886,-0.019670434,-0.015615149,0.005900207,-0.017420603,-0.010544035
0.020326266,0.050083935,0.014250567,-0.018880652,0.03784599,0.039990097,-0.018256923,-0.019737951,-0.015602869,0.005910071,-0.01741934,-0.010632413
0.020237982,0.05002242,0.01430304,-0.018879881,0.0379175,0.04010174,-0.018272944,-0.019642059,-0.015622117,0.005905978,-0.01742148,-0.010610205
0.020277277,0.050109237,0.014328133,-0.018872377,0.03789072,0.03991958,-0.018332846,-0.019756278,-0.01563258,0.005929861,-0.017422037,-0.01074982
0.020142328,0.04994527,0.01433032,-0.018858818,0.037977554,0.039930705,-0.018418275,-0.019619774,-0.015628403,0.005936288,-0.017419146,-0.010776654
0.020236084,0.050112158,0.014300866,-0.018860102,0.037925094,0.0398085,-0.018378781,-0.019778913,-0.015602567,0.005870483,-0.017421212,-0.010918871
0.020245044,0.050041214,0.014286749,-0.018851753,0.037727296,0.039334666,-0.018391298,-0.019756457,-0.015596816,0.005881419,-0.017423382,-0.010870264
0.020096656,0.049743272,0.014339018,-0.018871922,0.037893407,0.03932202,-0.01834634,-0.019869557,-0.015642771,0.005870539,-0.01742269,-0.010767687
0.020237504,0.04994647,0.014277226,-0.018861493,0.037545905,0.038940124,-0.01825059,-0.019813582,-0.015666941,0.005907498,-0.017431954,-0.010807943
0.02020283,0.04987489,0.01429404,-0.018866146,0.037690684,0.039332673,-0.018295364,-0.019880291,-0.015629563,0.005929226,-0.017430518,-0.010766231
0.020246023,0.049873274,0.014302663,-0.018857641,0.037677765,0.039318655,-0.018404523,-0.019820705,-0.015633479,0.005911843,-0.017431147,-0.010779239
0.020218665,0.050017785,0.014298311,-0.018851975,0.037700985,0.03907213,-0.018422212,-0.019816194,-0.015648147,0.005930501,-0.017430514,-0.01084559
0.020265598,0.04987215,0.014308487,-0.018856563,0.037835676,0.03952446,-0.018343695,-0.019826626,-0.015661063,0.005875308,-0.01743086,-0.010767204
0.02025699,0.049891133,0.014337056,-0.018859949,0.037853025,0.03928134,-0.018241398,-0.019862661,-0.015660854,0.005926586,-0.017429989,-0.01068088
0.020296164,0.04996026,0.014299262,-0.018856406,0.03791668,0.039370824,-0.018315172,-0.019877682,-0.015660618,0.005825036,-0.017430421,-0.010699712
0.02023918,0.04998361,0.014270726,-0.018857742,0.037816174,0.03898263,-0.01830801,-0.019963833,-0.015620941,0.005906691,-0.017428407,-0.010656709
0.020406827,0.04996856,0.014210142,-0.018859886,0.037838273,0.039432164,-0.018229084,-0.019967638,-0.015617922,0.005879136,-0.017430907,-0.010602634
0.020354813,0.050064582,0.014216091,-0.018854553,0.0377869,0.03911032,-0.018115968,-0.019965911,-0.015635235,0.005839827,-0.017432583,-0.010584131
0.020245323,0.049935304,0.014300887,-0.018861925,0.03781329,0.0390154,-0.018095396,-0.019997587,-0.015609303,0.005932606,-0.01743163,-0.010578368
0.020390823,0.049991086,0.014271398,-0.018860862,0.03767477,0.03895056,-0.018011998,-0.020002164,-0.015627911,0.005970425,-0.01743517,-0.010535587
0.02029096,0.04996941,0.014240649,-0.01885287,0.037710562,0.03888133,-0.018027527,-0.020018112,-0.015633078,0.005943236,-0.017435819,-0.010484818
0.020324588,0.049971778,0.014246042,-0.018848788,0.037757985,0.038966462,-0.018014856,-0.0200577,-0.015621505,0.005947582,-0.017439304,-0.010471938
0.020397915,0.050212953,0.014189743,-0.018833784,0.037581865,0.03879886,-0.018066337,-0.019975329,-0.01560052,0.005992284,-0.017436577,-0.010502229
0.02028708,0.049972624,0.014272306,-0.018839426,0.03771769,0.03878788,-0.018120468,-0.019947974,-0.0156121,0.005999665,-0.01743195,-0.010430358
0.020325102,0.05000977,0.014271636,-0.018837098,0.03758239,0.038944725,-0.018131131,-0.01994897,-0.015584405,0.006033783,-0.01742735,-0.010483942
0.020318316,0.050181605,0.014294674,-0.018828016,0.03754521,0.038609564,-0.018078038,-0.020010952,-0.01561009,0.006024865,-0.01742759,-0.010343198
0.020348791,0.05017468,0.014242786,-0.018832121,0.037503544,0.038697388,-0.018088952,-0.020021617,-0.015587986,0.006027392,-0.017427882,-0.010388983
0.02033347,0.05003773,0.014275535,-0.018836016,0.03759781,0.039138667,-0.01804362,-0.019982854,-0.015598141,0.005996239,-0.017426992,-0.010339567
0.020267231,0.050056323,0.014260566,-0.018849796,0.03756623,0.03896806,-0.018159544,-0.020060072,-0.015597686,0.006033231,-0.017423533,-0.010304712
0.020424837,0.049967404,0.014229983,-0.018846726,0.03763424,0.03967419,-0.018168405,-0.020038381,-0.01559415,0.006050891,-0.017423863,-0.010255396
0.020395264,0.049944155,0.014291286,-0.018852668,0.037563734,0.039206356,-0.018218327,-0.020153802,-0.015590195,0.006050822,-0.017424252,-0.01023298
0.020439386,0.049930125,0.014241111,-0.018858062,0.037517957,0.039340172,-0.018250449,-0.019943686,-0.015616369,0.006051293,-0.017424123,-0.010224179
0.020425024,0.04997425,0.014186185,-0.018859278,0.03739461,0.039066546,-0.018324262,-0.019973965,-0.015625218,0.006081292,-0.017422447,-0.010077632
0.020383362,0.049943637,0.014202851,-0.018854918,0.03730822,0.03905329,-0.018285697,-0.019897696,-0.01568889,0.006044535,-0.017423168,-0.010106827
0.020468805,0.04992236,0.0141784,-0.018850809,0.03731145,0.03922636,-0.018364135,-0.019979144,-0.01567318,0.006158521,-0.017422607,-0.010174252
0.020463374,0.049852517,0.014158647,-0.01884299,0.037442207,0.039509613,-0.018349972,-0.01990501,-0.015724154,0.00608438,-0.017427148,-0.010105397
0.020487426,0.049905393,0.01413946,-0.018837703,0.03742785,0.039231796,-0.018349577,-0.019962266,-0.015751528,0.006067632,-0.017430559,-0.010209071
0.020489998,0.04976793,0.014153278,-0.018834269,0.03751502,0.039557923,-0.018309332,-0.019896766,-0.015765186,0.00604758,-0.017428352,-0.010104611
0.020559745,0.049903575,0.01416532,-0.018843254,0.037433248,0.039247446,-0.018273834,-0.019828001,-0.015753588,0.006021173,-0.017424377,-0.010161486
0.020441903,0.04984955,0.014208561,-0.018836632,0.037517343,0.039089993,-0.018302966,-0.019823028,-0.015755545,0.006088849,-0.017429106,-0.010181053
0.020445133,0.049920294,0.014193001,-0.0188425,0.037586935,0.03938107,-0.018319646,-0.019911338,-0.015781444,0.006047671,-0.017429842,-0.010213038
0.020371992,0.049770005,0.014233273,-0.018839827,0.03763686,0.039352477,-0.018323136,-0.01994456,-0.015771484,0.006098922,-0.017422756,-0.010176718
0.020379957,0.05005187,0.014196715,-0.018841418,0.037633523,0.039208658,-0.018375129,-0.019955687,-0.015784869,0.006130782,-0.01742376,-0.010196414
0.020399835,0.049986504,0.014169553,-0.018837264,0.03765897,0.039120425,-0.018342918,-0.01990491,-0.015793243,0.00609016,-0.01742399,-0.010226679
0.020459289,0.050202746,0.014139974,-0.018844385,0.03745586,0.03878691,-0.018446986,-0.019946927,-0.015820278,0.006167139,-0.017432718,-0.010176406
0.020334233,0.04983606,0.014292918,-0.018843701,0.037615612,0.03900535,-0.018514935,-0.020056043,-0.015814647,0.006152676,-0.01743027,-0.010137536
0.020796973,0.05003225,0.014246752,-0.018848874,0.03741304,0.03885135,-0.018320246,-0.020072566,-0.015785275,0.006126026,-0.01743158,-0.010234689
0.02056026,0.049809065,0.014339054,-0.0188463,0.037561394,0.03898097,-0.018472776,-0.020070849,-0.015766272,0.006148021,-0.017426495,-0.010157499
0.020596512,0.049998004,0.014330198,-0.018843556,0.037579205,0.038952366,-0.018430399,-0.019998176,-0.015813738,0.006202887,-0.01742625,-0.010218334
0.020430416,0.049846448,0.014411129,-0.018850438,0.037631243,0.039098024,-0.018436866,-0.020039704,-0.015772738,0.006226816,-0.017425003,-0.010116509
0.020427834,0.049742833,0.014442697,-0.018847767,0.03765564,0.039241407,-0.018356767,-0.019980872,-0.015812255,0.006089358,-0.01742387,-0.010174953
0.020455617,0.04979977,0.014408286,-0.018844448,0.037680365,0.039336722,-0.0184047,-0.02003596,-0.0158211,0.006037052,-0.017424304,-0.010216909
0.020428907,0.04980659,0.014452706,-0.018837787,0.03767244,0.03929335,-0.018473374,-0.02005988,-0.01581391,0.006092303,-0.017426493,-0.010128387
0.020368742,0.049752086,0.014446748,-0.018842231,0.037665196,0.039510667,-0.018515628,-0.020080894,-0.015835881,0.006100966,-0.017426372,-0.010165053
0.020347571,0.04967518,0.014413834,-0.018847052,0.037614908,0.039426934,-0.018498303,-0.020015469,-0.015804974,0.006126785,-0.017425666,-0.010115877
0.020392966,0.04999825,0.014402228,-0.018837,0.037373167,0.039165173,-0.018425358,-0.019965388,-0.015779162,0.006139744,-0.017424848,-0.010201959
0.020253932,0.04983847,0.014464148,-0.01883506,0.037488192,0.039228007,-0.018569471,-0.019950164,-0.015795842,0.006116661,-0.017425152,-0.0101098
0.020236267,0.04982383,0.014478148,-0.018830067,0.03759812,0.039479394,-0.018713882,-0.019962996,-0.015792444,0.006172815,-0.017422942,-0.01001722
0.020267302,0.04987665,0.014376997,-0.018827764,0.037593357,0.03933732,-0.018696697,-0.019862007,-0.015753018,0.006191174,-0.017422872,-0.009980804
0.020176468,0.049824085,0.014423953,-0.018825993,0.037538737,0.03925637,-0.018653998,-0.019886531,-0.015742062,0.006249179,-0.01741924,-0.009978996
0.020147601,0.049806908,0.014448595,-0.018812984,0.03759503,0.039513074,-0.018601744,-0.019788817,-0.015770407,0.006256323,-0.01742167,-0.009942242
0.020368155,0.04996092,0.01438612,-0.018817088,0.037530553,0.039573234,-0.018629804,-0.019658972,-0.015814388,0.006213802,-0.017422345,-0.010032683
0.02015896,0.04984064,0.014485765,-0.018819304,0.037343305,0.038385797,-0.018639315,-0.019679135,-0.015792686,0.006258693,-0.017425967,-0.010063211
0.020140234,0.049736008,0.014461493,-0.018826729,0.03739816,0.038753107,-0.018624814,-0.019585717,-0.015764952,0.006173239,-0.017439079,-0.009899485
0.020136693,0.049622253,0.014458317,-0.018827725,0.037385844,0.038886942,-0.01850371,-0.019538587,-0.015738128,0.006165841,-0.017434748,-0.00991987
0.020181527,0.049737602,0.014401952,-0.018823259,0.037455466,0.039435245,-0.018495018,-0.01958222,-0.01573244,0.006165291,-0.017433241,-0.009822631
0.020139927,0.049718052,0.014423695,-0.018819027,0.037460208,0.03947278,-0.018427335,-0.019694813,-0.01572473,0.006129163,-0.017430719,-0.009945953
0.020111589,0.049611557,0.014437802,-0.018825065,0.037483647,0.03957415,-0.01859785,-0.01969008,-0.015735753,0.006194816,-0.017431589,-0.009853596
0.020098066,0.04966092,0.01440176,-0.01882427,0.037452392,0.039452963,-0.01868981,-0.019600019,-0.015768262,0.006122452,-0.017428905,-0.00994799
0.020134268,0.049755555,0.01440943,-0.018817019,0.037440006,0.03956359,-0.018717973,-0.01958209,-0.015745362,0.006111263,-0.017428275,-0.00995004
0.020111762,0.04981419,0.014373199,-0.018824888,0.03752217,0.039521493,-0.018653262,-0.019586138,-0.015705973,0.006165387,-0.017430004,-0.009870234
0.020089539,0.04975792,0.014369886,-0.018816974,0.037531924,0.03983155,-0.018622685,-0.01952342,-0.015672345,0.00623376,-0.01742968,-0.00997839
0.02000131,0.049907696,0.014365052,-0.018822685,0.03756941,0.039440714,-0.018577289,-0.019598711,-0.015724748,0.006186902,-0.017434549,-0.009955412
0.020026961,0.049821552,0.014395328,-0.018819096,0.037646968,0.039938536,-0.018501706,-0.019643573,-0.015690701,0.006146607,-0.017432364,-0.010075512
0.019982785,0.049864173,0.014394379,-0.018818034,0.037668996,0.03985441,-0.018505372,-0.019685244,-0.015641801,0.006148328,-0.017425247,-0.009995434
0.0200333,0.049776748,0.014389984,-0.018805763,0.03783324,0.04036884,-0.01848015,-0.01963234,-0.015712328,0.006086527,-0.017428227,-0.009923152
0.020015923,0.049994264,0.014431922,-0.018815104,0.03775112,0.040047362,-0.018453997,-0.019804526,-0.015709462,0.006093375,-0.017428849,-0.01008315
0.020069664,0.04982055,0.014462414,-0.018810777,0.037787803,0.04056428,-0.01880817,-0.019710856,-0.015721278,0.006086606,-0.017430222,-0.009922236
0.02002246,0.05002764,0.014468801,-0.018812193,0.037672,0.0398726,-0.01875715,-0.01973814,-0.015734665,0.006085928,-0.017429143,-0.01003575
0.020144572,0.05004246,0.014439425,-0.018803198,0.037612963,0.040045805,-0.018930024,-0.019700324,-0.015732732,0.006083623,-0.017428476,-0.010006375
0.020075701,0.05003391,0.014460764,-0.018805968,0.037747435,0.040112372,-0.018992439,-0.019703893,-0.01573825,0.006092327,-0.017429102,-0.009984001
0.020048544,0.04992088,0.014476779,-0.018804165,0.037668016,0.039967556,-0.018945621,-0.01975146,-0.015681775,0.006187304,-0.017424585,-0.009949234
0.020059818,0.05001173,0.014427796,-0.018795662,0.03773776,0.03999457,-0.018927084,-0.019792106,-0.01569275,0.006224097,-0.017421618,-0.009961056
0.02000697,0.04985707,0.014484882,-0.01878991,0.037833855,0.040328786,-0.01886681,-0.019834122,-0.015707135,0.006184771,-0.017423945,-0.009927536
0.019912284,0.049701087,0.014501737,-0.018783003,0.037721194,0.040049188,-0.018905995,-0.019816726,-0.01566736,0.006190552,-0.017424382,-0.00991069
0.0198001,0.049834196,0.014419317,-0.018780608,0.037756674,0.04002616,-0.018716503,-0.01965597,-0.015792519,0.006211025,-0.017428074,-0.009820581
0.019841693,0.05001769,0.014388549,-0.01877403,0.037503384,0.039749324,-0.01866167,-0.019667815,-0.015738022,0.006232575,-0.01742563,-0.010010453
0.019778816,0.049739998,0.014425428,-0.018768815,0.03763164,0.039947633,-0.01870838,-0.019635567,-0.015748652,0.006150242,-0.017424984,-0.009923101
0.019743219,0.049758606,0.014404606,-0.018778516,0.0376578,0.040102188,-0.018676016,-0.019645954,-0.015751202,0.006172719,-0.017425532,-0.009961105
0.019699167,0.049853962,0.014467735,-0.018776469,0.037616335,0.04012264,-0.018686408,-0.019673022,-0.015740473,0.006171797,-0.01742288,-0.010058038
0.019642452,0.04979221,0.014531167,-0.018777082,0.03765943,0.040146228,-0.018668348,-0.01964976,-0.015752438,0.006207452,-0.017422846,-0.010041035
0.01966406,0.049984716,0.014442857,-0.018770497,0.037676856,0.04051411,-0.018759683,-0.019492032,-0.015760038,0.006340752,-0.01743713,-0.00991051
0.01955464,0.050007835,0.014442081,-0.018759517,0.037814323,0.040138725,-0.01880495,-0.01951469,-0.01572755,0.00636933,-0.017436927,-0.009937288
0.01958861,0.04996962,0.014472701,-0.018755594,0.037798613,0.040391173,-0.01871186,-0.01948512,-0.015714362,0.006392021,-0.017434154,-0.009932388
0.019590352,0.04991959,0.0145132,-0.018762311,0.03782168,0.04050472,-0.01873743,-0.0194957,-0.015704995,0.006375848,-0.017431097,-0.009968312
0.019618928,0.049919043,0.014527214,-0.018754413,0.037894964,0.04058765,-0.018775797,-0.019493371,-0.01571472,0.006292923,-0.017431283,-0.010060255
0.019651473,0.05007555,0.014559545,-0.018761726,0.03781615,0.040246606,-0.01873131,-0.01961439,-0.015720714,0.006304865,-0.017428918,-0.009967706
0.0196276,0.050070558,0.014521878,-0.018759083,0.037925214,0.040591087,-0.018756147,-0.019588606,-0.015708856,0.00631275,-0.01742732,-0.010017108
0.019523913,0.049972743,0.014488543,-0.018747704,0.03798266,0.040717743,-0.01906798,-0.019463504,-0.015736738,0.006325135,-0.01742459,-0.009979329
0.019627675,0.050072484,0.014491493,-0.018747272,0.03788941,0.040629704,-0.018889708,-0.019506196,-0.015756274,0.006322179,-0.017425373,-0.010115841
0.019456996,0.04979501,0.014556055,-0.01875066,0.038074996,0.040701374,-0.01879387,-0.01945844,-0.015695218,0.006316149,-0.017422441,-0.009903234
0.019439545,0.049974825,0.014581934,-0.018749688,0.038050167,0.040408533,-0.018795455,-0.01949401,-0.015714511,0.006217822,-0.01742147,-0.010006303
0.019489197,0.050015673,0.014482425,-0.018754894,0.03789795,0.04012181,-0.018933928,-0.019488877,-0.015742578,0.006281842,-0.017421033,-0.010096002
0.01939798,0.049873,0.014542204,-0.018742234,0.038012832,0.040133856,-0.018988678,-0.019501075,-0.015748149,0.006221509,-0.017425835,-0.010075197
0.019524254,0.04982928,0.014524117,-0.018751472,0.03793542,0.040308904,-0.018937565,-0.019524017,-0.015742369,0.006238022,-0.017423103,-0.010092697
0.019491876,0.049973547,0.014491543,-0.018744526,0.03785207,0.040219694,-0.018954366,-0.019543933,-0.015756724,0.006232678,-0.017423114,-0.010196772
0.019490011,0.050122917,0.014512398,-0.018758139,0.03774803,0.040192362,-0.018923715,-0.019565517,-0.015753342,0.006233692,-0.017429689,-0.010183943
0.01942507,0.0497325,0.014628113,-0.018741531,0.03788269,0.040494293,-0.018964505,-0.019502118,-0.015760522,0.006181908,-0.017424827,-0.010043691
0.01951633,0.050136074,0.014581773,-0.01874195,0.037768852,0.040304203,-0.01902537,-0.019551396,-0.015715355,0.00628649,-0.01742497,-0.01018431
0.01960296,0.049768876,0.014631843,-0.018739916,0.037838213,0.040648445,-0.019048259,-0.019484235,-0.015750246,0.006226306,-0.017424894,-0.010131045
0.019524323,0.049667902,0.014677998,-0.018744543,0.038017936,0.040479638,-0.0190979,-0.01953059,-0.015785322,0.006203224,-0.017422758,-0.010025939
0.01959315,0.049632736,0.014621583,-0.01874715,0.037900798,0.0408767,-0.019171525,-0.019444382,-0.015833795,0.006165759,-0.017430553,-0.0100598
0.019558713,0.049813658,0.014590858,-0.018751234,0.037821956,0.040802278,-0.01917262,-0.01952991,-0.015788209,0.006241281,-0.017430516,-0.010136724
0.019501394,0.049857184,0.014554071,-0.018750396,0.037926607,0.041011315,-0.019218491,-0.019489637,-0.01579023,0.006236518,-0.017429443,-0.010109049
0.0194752,0.049811613,0.014538298,-0.018745186,0.03796544,0.040659502,-0.019190405,-0.019487169,-0.015805613,0.006213069,-0.017431697,-0.010073486
0.019486258,0.04984103,0.014589633,-0.018739706,0.037701335,0.040449988,-0.019239867,-0.019457053,-0.015779978,0.006286503,-0.01743317,-0.010008712
0.019497123,0.049700603,0.014589625,-0.018734658,0.03788332,0.0410845,-0.019197397,-0.01941387,-0.01576898,0.006276303,-0.01743302,-0.009936652
0.019414106,0.049732424,0.014660539,-0.018739384,0.03786273,0.04044803,-0.019246332,-0.019506268,-0.015802575,0.006223536,-0.0174329,-0.010010632
0.019514207,0.0496917,0.014495583,-0.018748619,0.03775683,0.040583562,-0.019248119,-0.019438803,-0.015741093,0.006205061,-0.017430278,-0.010004756
0.019402422,0.04948803,0.01459204,-0.018754171,0.037871677,0.04079081,-0.01922385,-0.019440543,-0.015748965,0.006167204,-0.017428868,-0.009920573
0.019442145,0.04969507,0.014565866,-0.01875188,0.03768506,0.04041642,-0.019268176,-0.019493511,-0.01572416,0.006264268,-0.017426858,-0.010089112
0.019381467,0.049608607,0.014562406,-0.01874796,0.037661042,0.04045994,-0.019347856,-0.019404903,-0.015757704,0.006238341,-0.017426977,-0.010032227
0.019367427,0.049549334,0.014595666,-0.0187456,0.03770764,0.040631603,-0.019329373,-0.019420123,-0.015752336,0.006243138,-0.017425572,-0.010028032
0.019355632,0.049737748,0.014557963,-0.018760026,0.037606094,0.04067647,-0.01935112,-0.019445153,-0.015715968,0.006346576,-0.017427398,-0.010112139
0.019362649,0.049914442,0.014540622,-0.018750764,0.03752997,0.040469587,-0.019410964,-0.01943074,-0.015740067,0.006370512,-0.017425962,-0.010066242
0.019343408,0.04978259,0.014552636,-0.018743997,0.037640113,0.0406946,-0.019438075,-0.019463498,-0.015732102,0.006236238,-0.017428886,-0.010031832
0.01937592,0.049822897,0.014583088,-0.018738177,0.03762632,0.04072145,-0.01947952,-0.019451184,-0.015740283,0.006286396,-0.01742177,-0.010116018
0.019395145,0.04970378,0.014591998,-0.018740963,0.03772621,0.04096611,-0.019459814,-0.019411163,-0.01577903,0.006184102,-0.017423999,-0.010053018
0.019382127,0.049856815,0.014623185,-0.018746527,0.03779387,0.040801648,-0.019487118,-0.019485759,-0.01580712,0.006159484,-0.017422356,-0.010120769
0.019502236,0.049978852,0.01465707,-0.018754639,0.037799247,0.041234754,-0.019263986,-0.019410774,-0.01577945,0.006153484,-0.017424684,-0.01009085
0.019468427,0.049897943,0.014678302,-0.018737808,0.037760753,0.040925182,-0.01923455,-0.019452136,-0.01578526,0.006179642,-0.017423892,-0.010118719
0.019493885,0.05003846,0.014671307,-0.01873392,0.03774237,0.040626656,-0.019400386,-0.019472586,-0.015785126,0.00612946,-0.017425569,-0.010089391
0.019326711,0.0497596,0.014760309,-0.018732645,0.03780456,0.040845077,-0.019349221,-0.019496791,-0.015777886,0.006143597,-0.017425617,-0.010012992
0.019356282,0.049817007,0.014724938,-0.018748438,0.037731133,0.040929597,-0.019370731,-0.01935455,-0.015766868,0.006187585,-0.017427234,-0.010047812
0.019369511,0.049873307,0.014758571,-0.018754445,0.037714254,0.040744755,-0.019470766,-0.019309632,-0.015761437,0.006254503,-0.0174282,-0.010056355
0.019412247,0.049911205,0.014762295,-0.018749435,0.03763635,0.04076689,-0.01951604,-0.019398931,-0.015772205,0.006151857,-0.01742616,-0.010036753
0.019384567,0.049831882,0.014712608,-0.01874806,0.037516575,0.0409548,-0.01951976,-0.019326126,-0.015771553,0.006171307,-0.017425755,-0.009917353
0.019320758,0.049769014,0.014816375,-0.018742537,0.03749652,0.04094863,-0.019582305,-0.019353246,-0.015770027,0.00622352,-0.017424174,-0.009831644
0.019284995,0.04979715,0.014799278,-0.01874163,0.037407838,0.040407706,-0.019510241,-0.019416846,-0.01577774,0.006320724,-0.017424533,-0.009880563
0.019327095,0.049699403,0.014654675,-0.018742971,0.037477937,0.04107984,-0.019582057,-0.019234806,-0.015827205,0.006247941,-0.017431425,-0.009817169
0.019278703,0.04994239,0.014766593,-0.018743137,0.037350748,0.040091563,-0.019569278,-0.019325987,-0.015821466,0.0062934,-0.01743022,-0.010016226
0.019243624,0.049778357,0.014796408,-0.01873995,0.03757751,0.04074671,-0.019505372,-0.019309001,-0.015834987,0.006329606,-0.017429946,-0.009927435
0.019254187,0.04984867,0.014715252,-0.01874228,0.037599243,0.040860448,-0.019509902,-0.019253362,-0.015817141,0.006326824,-0.017431095,-0.010060238
0.01929641,0.049780194,0.014663043,-0.01875047,0.037683167,0.040899005,-0.01953687,-0.019161122,-0.015815856,0.006267048,-0.017429905,-0.010047937
0.019325959,0.049764175,0.014619062,-0.018745482,0.037781604,0.04113406,-0.01959597,-0.019176496,-0.015837403,0.006288285,-0.017426215,-0.010013595
0.019343706,0.049716633,0.01459605,-0.018737486,0.03776655,0.04117508,-0.019673595,-0.019171868,-0.015856333,0.006343652,-0.017430019,-0.009978629
0.019323671,0.049670506,0.014627358,-0.018744376,0.037951596,0.04127736,-0.019740703,-0.019156907,-0.015864968,0.006299362,-0.01742909,-0.009936559
0.01921993,0.04965276,0.014614202,-0.018743474,0.037880342,0.041032672,-0.019638395,-0.01924545,-0.015844429,0.006345151,-0.017425802,-0.009911376
0.01932967,0.049803752,0.014610914,-0.018745372,0.037738442,0.040385857,-0.01977328,-0.019200915,-0.015858142,0.006314377,-0.017427774,-0.00998914
0.019233843,0.049479038,0.014685858,-0.018749095,0.037867896,0.040503427,-0.019783743,-0.019177897,-0.015883338,0.006252563,-0.017426876,-0.00985613
0.019231884,0.049547233,0.01473404,-0.018761644,0.037789553,0.040390916,-0.019851625,-0.01925197,-0.01584801,0.006447159,-0.017425748,-0.009862586
0.01933074,0.04961967,0.014674934,-0.018759701,0.037776433,0.04069792,-0.019862529,-0.019258838,-0.015842635,0.006444544,-0.017427852,-0.009788363
0.019256882,0.049669795,0.014670664,-0.018757824,0.037830435,0.040444396,-0.02000404,-0.019374039,-0.015827391,0.006562994,-0.01742996,-0.009910787
0.019184373,0.049407277,0.014735743,-0.018749919,0.038031653,0.040918197,-0.019996127,-0.01931221,-0.015832493,0.006513187,-0.017429028,-0.009873511
0.019233173,0.049618736,0.014679276,-0.018731477,0.037967373,0.040656723,-0.020002194,-0.019335434,-0.015804173,0.006583566,-0.01742516,-0.0099392
0.019110948,0.04951426,0.014746554,-0.018738167,0.03795838,0.040357623,-0.020077873,-0.019334259,-0.015797986,0.006521911,-0.017423755,-0.010009537
0.019109597,0.049406186,0.014798453,-0.018743267,0.037935052,0.040388294,-0.020179836,-0.019310389,-0.015834954,0.006570322,-0.017420864,-0.009992415
0.019172145,0.04940226,0.014790056,-0.018743038,0.037951402,0.040282737,-0.020129686,-0.019246431,-0.015796104,0.006571951,-0.017422209,-0.00998725
0.019192854,0.049517866,0.014778559,-0.018736986,0.037882153,0.040054232,-0.020100607,-0.019218486,-0.015802544,0.00655985,-0.01741817,-0.010043044
0.019235961,0.049603447,0.014735497,-0.018715024,0.037738714,0.040116254,-0.020109287,-0.019223431,-0.01582168,0.006501584,-0.017417576,-0.010070694
0.019233664,0.049681228,0.014742597,-0.018715998,0.037724603,0.040138718,-0.020021264,-0.01925057,-0.015807519,0.00649962,-0.017417466,-0.010030529
0.019161446,0.049554348,0.014763892,-0.018710932,0.037948105,0.040504843,-0.020091407,-0.0192249,-0.015831769,0.006499519,-0.017415836,-0.009970087
0.019295726,0.04975332,0.014682436,-0.018714415,0.037706777,0.040213898,-0.019830327,-0.019237598,-0.015799884,0.006553717,-0.01741583,-0.010033562
0.019243471,0.049669802,0.014751784,-0.01871223,0.03772782,0.03988798,-0.019885227,-0.019309666,-0.015835013,0.00646474,-0.01741566,-0.009989753
0.01927617,0.049857147,0.014678978,-0.018724969,0.037808716,0.0404652,-0.019825442,-0.019275727,-0.01584028,0.006470592,-0.01741777,-0.010103347
0.019224912,0.04970564,0.014696593,-0.018728703,0.037808985,0.04031273,-0.020029617,-0.019294178,-0.015842324,0.006446717,-0.017414633,-0.010170487
0.019182563,0.049579006,0.014760273,-0.018723862,0.037927594,0.04039885,-0.020169329,-0.019263582,-0.015854001,0.006429174,-0.017414456,-0.010118322
0.019266294,0.049840465,0.01463602,-0.018730225,0.037827365,0.040357865,-0.020073067,-0.0191943,-0.015828658,0.00649487,-0.017415687,-0.01019485
0.019212136,0.0496291,0.014645091,-0.018725546,0.037899427,0.04039327,-0.020090815,-0.019121526,-0.015830051,0.006523934,-0.017415924,-0.010160603
0.019143268,0.0496703,0.014683179,-0.018727537,0.03798025,0.040050484,-0.020113058,-0.019189797,-0.01584154,0.006558612,-0.017416934,-0.01012274
0.01913351,0.049636405,0.014640654,-0.01872197,0.0380684,0.04016474,-0.020233234,-0.019190421,-0.015884431,0.006523994,-0.017418705,-0.010048966
0.019166688,0.049754526,0.014641337,-0.01869107,0.037884824,0.040224347,-0.020081699,-0.019174267,-0.01583461,0.006601877,-0.017422859,-0.01010292
0.019087186,0.049690638,0.014678174,-0.018693024,0.037957847,0.040213346,-0.02013259,-0.019221015,-0.015838066,0.006604028,-0.017420856,-0.010045353
0.019135455,0.04963164,0.01466806,-0.018687481,0.03792956,0.040405624,-0.020075213,-0.019176215,-0.015821302,0.006576558,-0.017419491,-0.010077835
0.019245142,0.049655046,0.014676001,-0.018685212,0.038022913,0.040854022,-0.020098876,-0.019261654,-0.015841587,0.006629624,-0.017420467,-0.010227844
0.019126588,0.049585596,0.014690527,-0.01868147,0.038086552,0.040559158,-0.020070631,-0.019264476,-0.015844628,0.006562419,-0.01741842,-0.010131423
0.019183712,0.0496161,0.014652327,-0.018688207,0.038088884,0.040932078,-0.02014478,-0.019204892,-0.015932146,0.006564417,-0.01741856,-0.010101432
0.019044152,0.049533084,0.014732976,-0.018671606,0.037973255,0.04042586,-0.020107161,-0.019197933,-0.015950471,0.006500941,-0.017420243,-0.009969307
0.019041594,0.049746364,0.014813615,-0.018683793,0.037768,0.0397697,-0.019991646,-0.019177385,-0.015924722,0.006544167,-0.017414598,-0.010042002
0.019126475,0.04961533,0.014686672,-0.018695401,0.037886843,0.04052235,-0.020027725,-0.019113293,-0.015967725,0.006466792,-0.017418748,-0.009959669
0.01904229,0.049708355,0.014725201,-0.018702338,0.03785468,0.04019411,-0.020029102,-0.019150896,-0.01595149,0.006440182,-0.017417317,-0.010053903
0.018991284,0.04941968,0.014804149,-0.018696731,0.037907116,0.040292297,-0.020120254,-0.019104417,-0.015956245,0.006460564,-0.01741806,-0.009998613
0.018973188,0.04957078,0.014799801,-0.018704183,0.037737805,0.03960328,-0.020064387,-0.019209368,-0.015942542,0.00646037,-0.017425317,-0.010267682
0.0189565,0.049350683,0.014864224,-0.018707378,0.03795991,0.040314388,-0.020083502,-0.019222597,-0.015992178,0.006409814,-0.017424032,-0.010137672
0.018928383,0.049661335,0.01479221,-0.01870408,0.03783434,0.040222038,-0.020266823,-0.019084152,-0.016014127,0.006526192,-0.017427348,-0.010215561
0.018821565,0.049638394,0.014832918,-0.0187073,0.037824545,0.03997055,-0.020146314,-0.019070707,-0.016012762,0.00645346,-0.01741938,-0.010297353
0.01885263,0.049748342,0.014776441,-0.018706627,0.03795268,0.040490672,-0.020027012,-0.019042801,-0.016048167,0.006447678,-0.017412025,-0.010244126
0.018905036,0.04971768,0.014793281,-0.018703956,0.03791245,0.04054571,-0.020088503,-0.01905326,-0.016062154,0.006406856,-0.017407017,-0.010255587
0.01884312,0.0495724,0.014862235,-0.018694,0.037932087,0.040541403,-0.020115651,-0.019068051,-0.016056119,0.006342875,-0.017404577,-0.010195381
0.019019661,0.04972775,0.01471832,-0.018691767,0.03785616,0.040746987,-0.020239003,-0.019191591,-0.016056404,0.00633453,-0.017408058,-0.010208547
0.019019755,0.04972916,0.014759891,-0.018693255,0.03793519,0.040735465,-0.020345792,-0.019147985,-0.016073048,0.006361249,-0.017407628,-0.010241801
0.01911532,0.049802437,0.014731848,-0.01869779,0.03800293,0.040905148,-0.02037492,-0.019147873,-0.01603212,0.006305639,-0.017404743,-0.010267364
0.01906719,0.049785495,0.014776736,-0.018703606,0.03811631,0.04112825,-0.02032562,-0.01914317,-0.016036209,0.00638762,-0.017404964,-0.010289803
0.019087413,0.049785838,0.014761409,-0.01870252,0.038092256,0.04122271,-0.0202761,-0.019090824,-0.016034057,0.006235193,-0.017410016,-0.010344912
0.019111244,0.049824845,0.014749195,-0.018696694,0.038088463,0.041366678,-0.020201808,-0.019060029,-0.015998622,0.006304459,-0.017409794,-0.010328073
0.019034354,0.049683005,0.014810743,-0.01869699,0.038015213,0.04079667,-0.020275973,-0.019033805,-0.016018512,0.006281902,-0.01740717,-0.010418934
0.018959474,0.0496527,0.014803268,-0.018695043,0.03806621,0.040457066,-0.020306254,-0.019093763,-0.01601388,0.006257847,-0.017407857,-0.010347093
0.018989142,0.04973325,0.014827308,-0.018682884,0.038072202,0.040517043,-0.020363366,-0.019068813,-0.016018812,0.006268614,-0.01740846,-0.010274546
0.018982345,0.049934424,0.014792474,-0.018692361,0.038240615,0.04091644,-0.020237766,-0.019079013,-0.01603741,0.006331414,-0.01741402,-0.010315191
0.018924262,0.049868703,0.014832046,-0.018687906,0.038261123,0.040921777,-0.020195212,-0.01909299,-0.016024375,0.00636636,-0.01740759,-0.010268291
0.01906219,0.05000216,0.014753372,-0.01869129,0.038195703,0.041094188,-0.02022176,-0.019072922,-0.016042711,0.006311839,-0.017405748,-0.010193395
0.018998679,0.049876403,0.014859801,-0.01870098,0.038154103,0.041288454,-0.020247264,-0.01908884,-0.01603065,0.006399564,-0.017402608,-0.010211634
0.018998273,0.04987276,0.014887739,-0.01870352,0.038148347,0.041136786,-0.02027593,-0.019100044,-0.016039843,0.006420806,-0.017404512,-0.010213314
0.01887708,0.049707867,0.01495141,-0.018708618,0.03811611,0.040860426,-0.020238532,-0.0190532,-0.016061045,0.006410816,-0.017406354,-0.010184853
0.018863628,0.049820635,0.014943692,-0.018705193,0.03813397,0.040814087,-0.020283269,-0.01907736,-0.016082617,0.006536484,-0.017404847,-0.010218018
0.019020038,0.049951185,0.014830493,-0.018699378,0.037985988,0.041024353,-0.020271396,-0.019038046,-0.016117517,0.006603705,-0.017402863,-0.010278354
0.01880779,0.04990411,0.014908347,-0.018709105,0.03807053,0.04108671,-0.020204417,-0.019026985,-0.016124418,0.006557121,-0.01740255,-0.010248171
0.018776495,0.049699146,0.014925408,-0.018709512,0.03817219,0.041804496,-0.020155692,-0.018971283,-0.016129613,0.006505909,-0.017404348,-0.010178221
0.018911649,0.05021918,0.015000929,-0.018725727,0.037857357,0.04082452,-0.020075697,-0.019100288,-0.01613408,0.006501562,-0.017408563,-0.010343345
0.01876865,0.049925737,0.015036879,-0.018713448,0.037926577,0.04099299,-0.020014053,-0.01901342,-0.016165452,0.006474572,-0.017401557,-0.010297759
0.018716387,0.04996759,0.01501087,-0.018719068,0.03807467,0.041153803,-0.020024238,-0.019053565,-0.016142216,0.00651439,-0.01739901,-0.01024266
0.018669132,0.049834166,0.014929408,-0.018706907,0.03797941,0.041228097,-0.020145547,-0.019015476,-0.016119165,0.006528442,-0.017395632,-0.01029832
0.018847216,0.050109558,0.014905137,-0.018697128,0.03804095,0.04155893,-0.020272505,-0.018968303,-0.016140608,0.006478431,-0.01740312,-0.010338475
0.018692024,0.05008269,0.014954315,-0.018708408,0.037971213,0.041260116,-0.020445798,-0.018964598,-0.016144926,0.006558537,-0.01739331,-0.010347942
0.01879163,0.05017845,0.014908793,-0.018702619,0.03801533,0.04175697,-0.020323778,-0.018986227,-0.01613623,0.006493175,-0.017394256,-0.010478526
0.018849669,0.050013073,0.015011055,-0.018687585,0.037936863,0.041892786,-0.020392245,-0.018956512,-0.01614378,0.00653516,-0.017388472,-0.010452793
0.01881069,0.050047334,0.015025284,-0.018689016,0.037980877,0.04185004,-0.020335019,-0.018973745,-0.016137207,0.00657093,-0.01739384,-0.010363019
0.018873123,0.050110117,0.0150327,-0.018672792,0.038027186,0.041683357,-0.020373344,-0.018949002,-0.016157983,0.006584511,-0.017391512,-0.010354873
0.018628038,0.050017815,0.015100314,-0.018676689,0.03773869,0.040619675,-0.020254612,-0.01907364,-0.016133923,0.00654896,-0.017393708,-0.010329451
0.018693238,0.050094813,0.014936119,-0.018675411,0.037849482,0.041120544,-0.020110227,-0.01885849,-0.016149879,0.006486665,-0.017397832,-0.010220676
0.01858658,0.050118584,0.015001529,-0.018662393,0.03782024,0.04099985,-0.020217791,-0.0189421,-0.016142888,0.006553171,-0.01739133,-0.010282536
0.018657329,0.050207525,0.014929427,-0.018664967,0.03771312,0.041138247,-0.020165753,-0.018918755,-0.016125413,0.006544965,-0.017395796,-0.010266582
0.018596537,0.050247364,0.014900253,-0.018667642,0.03786735,0.041220747,-0.020291187,-0.018920833,-0.016132548,0.006626064,-0.017398516,-0.010311488
0.018547714,0.05021495,0.014944504,-0.018656295,0.03782969,0.041182075,-0.020206794,-0.018853161,-0.016127536,0.006597581,-0.017404348,-0.01018719
0.018526645,0.050171494,0.014960919,-0.018665588,0.037910562,0.041212283,-0.020282125,-0.018879898,-0.016114548,0.006613327,-0.017400444,-0.010194927
0.018487971,0.050011545,0.014901397,-0.018666806,0.03797204,0.041243557,-0.020357473,-0.018872445,-0.016097995,0.006678395,-0.017398745,-0.010213804
0.018513914,0.0501269,0.014911396,-0.018666383,0.03791488,0.040731303,-0.020254927,-0.01886136,-0.016123138,0.00661173,-0.0174022,-0.010161961
0.018551577,0.050206196,0.014925851,-0.018680507,0.03793299,0.04084857,-0.02022395,-0.018780129,-0.01612739,0.006620709,-0.017414913,-0.010135561
0.01849152,0.05041124,0.014907814,-0.018679954,0.038002033,0.040545247,-0.020301,-0.018871184,-0.01611432,0.006680307,-0.017406195,-0.010238016
0.018462798,0.050058715,0.014944037,-0.018674761,0.038188793,0.041014098,-0.020423517,-0.01875938,-0.016105872,0.006689067,-0.01740261,-0.010235198
0.018484503,0.050171006,0.014894877,-0.01869052,0.03810125,0.041166995,-0.020576717,-0.018816521,-0.01606627,0.006749238,-0.0174013,-0.010213646
0.018533563,0.050210223,0.01478064,-0.018685268,0.03810261,0.04111289,-0.020714477,-0.018751107,-0.016121242,0.006761348,-0.017404253,-0.010202917
0.01847605,0.050208192,0.014845328,-0.018685935,0.038158372,0.040866658,-0.020654058,-0.018735206,-0.016141905,0.006669012,-0.0174013,-0.010125298
0.018515795,0.05012793,0.014831487,-0.01869545,0.03818708,0.041340414,-0.02080474,-0.018755594,-0.016143052,0.00672827,-0.017409513,-0.010131466
0.018532822,0.050421905,0.01484115,-0.01868773,0.038278155,0.040908504,-0.02082705,-0.018675951,-0.016171042,0.006741663,-0.017401475,-0.010270808
0.01849445,0.050307896,0.014830968,-0.018675853,0.038328,0.041463327,-0.020649077,-0.018621337,-0.016148468,0.006797154,-0.017410679,-0.010225585
0.0184985,0.05043287,0.014828659,-0.018685022,0.038233105,0.041113023,-0.020655591,-0.018773554,-0.016132269,0.006817087,-0.017418446,-0.010295802
0.018498925,0.050353836,0.014861148,-0.018693905,0.038249493,0.04152328,-0.020532249,-0.018736506,-0.016145214,0.006778577,-0.017421007,-0.010200571
0.018568171,0.050304934,0.014829164,-0.018693728,0.03821549,0.041695707,-0.02054261,-0.018811075,-0.016165994,0.006730669,-0.01741766,-0.010221878
0.01849743,0.050184354,0.014835806,-0.018682325,0.03819,0.04169576,-0.020669883,-0.018828502,-0.016238445,0.006720603,-0.017416717,-0.010229404
0.018520916,0.050371837,0.014753122,-0.018719543,0.03797136,0.04174414,-0.020701695,-0.018864183,-0.016106077,0.006758124,-0.017409582,-0.010269654
0.018502967,0.050321266,0.014763195,-0.018726805,0.038034514,0.041702393,-0.020772077,-0.01885537,-0.016137084,0.006706459,-0.017405368,-0.010256311
0.018483354,0.050387733,0.014790284,-0.018746141,0.037893247,0.041545257,-0.020666238,-0.018875152,-0.016152764,0.006655314,-0.017405039,-0.010363332
0.01850608,0.050248247,0.014749319,-0.018750641,0.037951156,0.041770466,-0.020726273,-0.018842977,-0.016170649,0.006615837,-0.017405845,-0.010301894
0.018596271,0.050391987,0.014727849,-0.018764967,0.03777967,0.04176787,-0.0206722,-0.01895746,-0.016168604,0.006603265,-0.017409813,-0.010298131
0.018606858,0.050390776,0.014732716,-0.01876818,0.037843578,0.0417631,-0.020646024,-0.018985627,-0.016136233,0.006595274,-0.017413069,-0.01035299
0.018393362,0.050152373,0.014778464,-0.018764138,0.037954476,0.041650984,-0.020703832,-0.018983766,-0.01610871,0.006557842,-0.0174125,-0.010277118
0.018447833,0.05001885,0.014780025,-0.01875374,0.037947983,0.041737635,-0.02056043,-0.018921487,-0.016172936,0.00649429,-0.017408645,-0.01028942
0.018457687,0.050018597,0.014847664,-0.018760487,0.037837893,0.041372273,-0.020693224,-0.018931154,-0.016163383,0.006518051,-0.017410187,-0.010342673
0.01854329,0.050320517,0.014813054,-0.018755363,0.037710983,0.041575495,-0.020758387,-0.018823223,-0.016142102,0.006517362,-0.017411128,-0.010408871
0.018460799,0.05012429,0.014905582,-0.018757114,0.03784814,0.041577592,-0.020835558,-0.018803686,-0.016142363,0.006514232,-0.0174117,-0.010352226
0.018469738,0.05009802,0.014930959,-0.018751344,0.037775833,0.041374758,-0.020858029,-0.01883163,-0.01613343,0.006558043,-0.01741182,-0.010391935
0.018576877,0.050262354,0.014816068,-0.018746646,0.037643075,0.041453127,-0.020893537,-0.018720128,-0.016149782,0.006548052,-0.01741961,-0.010486845
0.018344415,0.04982157,0.014934899,-0.018741416,0.037652425,0.041005194,-0.020910133,-0.018705806,-0.016178448,0.00647243,-0.01741739,-0.010532423
0.018443363,0.04990312,0.014830773,-0.018747447,0.037530575,0.040981274,-0.0209885,-0.018755412,-0.016204039,0.006472969,-0.017418211,-0.010520081
0.018426243,0.04978359,0.014830056,-0.018747926,0.03774411,0.041190058,-0.020976314,-0.018819708,-0.016192302,0.006469666,-0.017419077,-0.010455167
0.018458057,0.049796056,0.014772956,-0.018746365,0.037730046,0.041482948,-0.021034632,-0.018894434,-0.016164152,0.006503587,-0.017421043,-0.010519738
0.018385421,0.049836237,0.014839237,-0.01874863,0.037849333,0.0413643,-0.021175994,-0.018930443,-0.016155241,0.006472545,-0.01741157,-0.010540541
0.018437685,0.049676947,0.014849806,-0.018740922,0.037800647,0.041406497,-0.021220062,-0.018850887,-0.01619121,0.006474782,-0.017413469,-0.010510291
0.018462727,0.049658954,0.014844074,-0.01874386,0.03783812,0.04148471,-0.021183686,-0.018844383,-0.016196609,0.006545084,-0.017413726,-0.010493306
0.018459229,0.04974772,0.014924418,-0.018743312,0.03780706,0.041078273,-0.02134802,-0.018885765,-0.016195608,0.00660489,-0.017413909,-0.01045955
0.018561026,0.04978055,0.01491141,-0.018750068,0.037793517,0.04161033,-0.021103708,-0.018866695,-0.016227031,0.00661569,-0.01742185,-0.010446521
0.01850715,0.049743846,0.014926834,-0.018741265,0.03776993,0.041321274,-0.021111054,-0.018901883,-0.016231768,0.006663845,-0.017414846,-0.010466594
0.01853799,0.049815875,0.014875785,-0.018739857,0.03774622,0.041486155,-0.021111114,-0.018918104,-0.01622607,0.006671586,-0.017412825,-0.010538702
0.01850793,0.049688216,0.014924928,-0.018737828,0.037893444,0.0415151,-0.02118749,-0.018988775,-0.016231328,0.006687565,-0.01741308,-0.010508987
0.018467173,0.04944617,0.014989251,-0.018736599,0.03789215,0.0415933,-0.021208927,-0.018980822,-0.016252203,0.006651496,-0.017411886,-0.01051158
0.018472543,0.049514446,0.014969816,-0.018740563,0.037699297,0.040996462,-0.021005303,-0.019045161,-0.016337374,0.006525149,-0.017416002,-0.010531428
0.01849271,0.049385715,0.014991539,-0.018732337,0.037526634,0.04150729,-0.02109369,-0.019073607,-0.016324773,0.006615452,-0.017412791,-0.010480817
0.01848705,0.049673907,0.014908455,-0.018736487,0.03763661,0.04163803,-0.021092014,-0.019154822,-0.01632211,0.006592669,-0.017428262,-0.010563111
0.01843584,0.04946963,0.014951199,-0.018728616,0.037659284,0.04179959,-0.020985091,-0.019149886,-0.016348924,0.006471304,-0.017426072,-0.010557721
0.01851191,0.049704198,0.0149279,-0.018729622,0.037739567,0.041637834,-0.020960351,-0.019216161,-0.016343867,0.006456376,-0.017416453,-0.010601386
0.018505782,0.0496969,0.01492094,-0.01873363,0.03771713,0.04157084,-0.020979652,-0.019223427,-0.01630797,0.006445219,-0.01740958,-0.010556124
0.018556954,0.049575254,0.014942804,-0.018739104,0.037764236,0.04188276,-0.020995293,-0.019140458,-0.01639343,0.006494452,-0.01740473,-0.010535135
0.0185901,0.049897168,0.014921964,-0.018749878,0.037666913,0.04156979,-0.020992676,-0.019173969,-0.016382158,0.00653719,-0.017406235,-0.010690306
0.018472262,0.04960807,0.01495961,-0.018746408,0.037838574,0.041872397,-0.020969521,-0.01912585,-0.016366476,0.006522758,-0.017402329,-0.010624813
0.018479738,0.049708527,0.01498042,-0.018743291,0.037763022,0.04163436,-0.021051988,-0.019250084,-0.016334841,0.006575008,-0.01740039,-0.010646638
0.018595854,0.049782496,0.014831804,-0.018744657,0.03775983,0.041893065,-0.021126984,-0.019186102,-0.016412137,0.006598757,-0.017411951,-0.010609828
0.018590553,0.04971923,0.014854929,-0.01875274,0.03764551,0.041609526,-0.021120375,-0.01922293,-0.016362593,0.006629281,-0.017417964,-0.010646024
0.018491114,0.049744885,0.014873811,-0.018751638,0.037601087,0.041657288,-0.021150446,-0.019240769,-0.016344624,0.00664095,-0.01741566,-0.010597118
0.018545171,0.049854334,0.014891431,-0.018761076,0.037612554,0.041718088,-0.021052953,-0.019251948,-0.016312774,0.006605318,-0.017419167,-0.010689388
0.018484801,0.049643073,0.014899393,-0.01876122,0.037771713,0.041917086,-0.02100354,-0.019294523,-0.016322885,0.006556908,-0.017415313,-0.010695064
0.0185245,0.049685337,0.014835396,-0.018764257,0.037851132,0.042251356,-0.021166066,-0.01918501,-0.016335009,0.006682728,-0.017414646,-0.010674758
0.018574033,0.049865447,0.014888263,-0.018762296,0.037724845,0.041368973,-0.021282446,-0.019361917,-0.016349923,0.006711089,-0.017413452,-0.01076538
0.018582635,0.04981108,0.014846253,-0.01876114,0.037833117,0.04186816,-0.021358242,-0.019338368,-0.016372574,0.006758377,-0.01741584,-0.010709314
0.018494787,0.049784455,0.014846023,-0.018762603,0.037886247,0.041946054,-0.021427799,-0.019376663,-0.016351284,0.006837712,-0.01741345,-0.010657474
0.018502735,0.04978906,0.014837993,-0.018775193,0.037824355,0.041980255,-0.0212444,-0.019323142,-0.01635175,0.006821634,-0.017416619,-0.01071576
0.018523311,0.04969792,0.014831064,-0.01878049,0.037761226,0.04195912,-0.02123549,-0.019335091,-0.01636609,0.006825042,-0.01741847,-0.010739481
0.018475797,0.04970869,0.014841443,-0.018779417,0.0378045,0.042302527,-0.021350501,-0.019313633,-0.016359527,0.006858322,-0.017413666,-0.010685591
0.01836531,0.049628545,0.014848763,-0.018773306,0.03804189,0.04201705,-0.021313865,-0.019408336,-0.016378827,0.006807541,-0.017399918,-0.010702151
0.018488064,0.049861565,0.014756964,-0.018773068,0.038082734,0.04209722,-0.021299558,-0.019347444,-0.016314257,0.006979478,-0.017382648,-0.010726772
0.018556695,0.049946856,0.014815697,-0.018776981,0.037959114,0.041845527,-0.021324135,-0.01935458,-0.016310107,0.006988337,-0.01738812,-0.010688714
0.01845632,0.049822304,0.014803349,-0.018773094,0.037942704,0.042034324,-0.021386197,-0.019331949,-0.016308796,0.006990467,-0.017387379,-0.010630398
0.01856453,0.05007382,0.014696361,-0.01880839,0.037759416,0.04177765,-0.021445995,-0.019276107,-0.01632092,0.007018077,-0.017397285,-0.010629803
0.018494947,0.04990836,0.014787948,-0.018804302,0.037872158,0.041538328,-0.021548498,-0.01927725,-0.016340567,0.007157411,-0.017378468,-0.010568915
0.018450152,0.050007466,0.014756826,-0.01880687,0.038021576,0.04202799,-0.02153279,-0.019279258,-0.016339106,0.007160098,-0.017383358,-0.010602329
0.018364187,0.050056685,0.01475561,-0.018804373,0.037721347,0.041489977,-0.021479022,-0.019233154,-0.016352378,0.007128694,-0.017385317,-0.010601977
0.018409051,0.050052244,0.014759882,-0.018802376,0.037941746,0.042080693,-0.021341968,-0.019255554,-0.016310956,0.007034864,-0.017389582,-0.010558656
0.018460093,0.049989462,0.014822392,-0.018799718,0.037964806,0.04187797,-0.021289242,-0.019276993,-0.01629734,0.006985041,-0.017390544,-0.01059763
0.018559828,0.05004133,0.014709872,-0.018795729,0.037935637,0.042183578,-0.021169854,-0.019248087,-0.016283834,0.007031775,-0.017391087,-0.01067064
0.01856876,0.0498026,0.014784782,-0.018789237,0.037996523,0.041846856,-0.02110448,-0.019236673,-0.01630553,0.00696491,-0.017391212,-0.010713263
0.018569048,0.049742512,0.014836269,-0.018789506,0.038052894,0.04185088,-0.02113159,-0.019247286,-0.016303137,0.006993416,-0.017408133,-0.010685473
0.018664477,0.04956899,0.014807277,-0.01879683,0.03816096,0.04231171,-0.021169001,-0.019264271,-0.016308602,0.006908952,-0.017408527,-0.010679051
0.018635754,0.049571875,0.014823945,-0.018797062,0.038212385,0.042259686,-0.021130761,-0.019266503,-0.016336659,0.006894711,-0.017413218,-0.010628641
0.01856846,0.049547732,0.014836575,-0.018796224,0.038153883,0.042303942,-0.021091172,-0.019283254,-0.016344907,0.006886432,-0.01741633,-0.010614801
0.018506007,0.049580626,0.014793292,-0.018805971,0.038176637,0.042213887,-0.021225331,-0.019308059,-0.016382765,0.006882558,-0.017416613,-0.010594408
0.018593466,0.049666222,0.014842278,-0.018806528,0.03807421,0.041959316,-0.021182058,-0.019389382,-0.016341425,0.006975348,-0.01741703,-0.010597426
0.018588083,0.04972294,0.014791991,-0.01879773,0.038112093,0.042299658,-0.021243887,-0.019349065,-0.016376529,0.006966159,-0.017421627,-0.010530973
0.018592928,0.04970225,0.014780464,-0.01878898,0.038128573,0.0424993,-0.02115644,-0.019363597,-0.016374601,0.006995743,-0.017418223,-0.010481961
0.018588364,0.049934145,0.014813241,-0.018783223,0.038040765,0.041919947,-0.021254253,-0.01939861,-0.016362844,0.006986708,-0.017413078,-0.010410297
0.018617071,0.049876075,0.014829291,-0.018780716,0.038113486,0.042603284,-0.02120697,-0.019403903,-0.016376795,0.007013949,-0.017410874,-0.010342144
0.018500641,0.049763434,0.014857265,-0.018776922,0.038097106,0.042621996,-0.021200037,-0.019388534,-0.016395658,0.007016114,-0.01740808,-0.010295177
0.018513553,0.049755607,0.014892858,-0.01877369,0.038192842,0.042680364,-0.02123614,-0.019364255,-0.016384093,0.007047468,-0.017411748,-0.010265769
0.018563498,0.04980668,0.014882663,-0.018776633,0.03815519,0.042858213,-0.021216754,-0.019344663,-0.016381318,0.007000389,-0.017403215,-0.010255617
0.018557485,0.049869724,0.014903203,-0.018782342,0.03819448,0.042855676,-0.021266168,-0.019349743,-0.016386252,0.006991919,-0.017400675,-0.010292363
0.0185281,0.049769547,0.01492305,-0.018769447,0.038061768,0.042667408,-0.021272166,-0.019363321,-0.016383892,0.006980659,-0.017409509,-0.010372512
0.018514037,0.04980398,0.014955004,-0.018773831,0.038090274,0.042776596,-0.021286184,-0.019342672,-0.016349176,0.007014657,-0.01740721,-0.010308953
0.018510856,0.049957953,0.014909713,-0.018769152,0.038088724,0.04287867,-0.021328976,-0.019345455,-0.016336808,0.007013878,-0.017408686,-0.01044471
0.018408285,0.049987845,0.0149086,-0.018784348,0.038103994,0.042464606,-0.021145228,-0.019337729,-0.016348073,0.007067598,-0.01740508,-0.010456202
0.018474236,0.049915314,0.014862095,-0.01878295,0.038058553,0.04270238,-0.021087153,-0.019343244,-0.016343717,0.007067773,-0.017399853,-0.010502958
0.018350326,0.049694996,0.014896126,-0.018776914,0.038275436,0.042870544,-0.021275606,-0.019330584,-0.016313046,0.007024766,-0.017395468,-0.010469165
0.018347355,0.049591437,0.014952174,-0.018769667,0.038269702,0.04266867,-0.021261292,-0.019349046,-0.01627717,0.006966677,-0.017422354,-0.010401207
0.018450122,0.049487807,0.014971715,-0.018777864,0.038315244,0.04302578,-0.021223426,-0.019327277,-0.016302453,0.006965162,-0.017422728,-0.010432325
0.018406378,0.04948057,0.015023326,-0.018769672,0.038100183,0.041933596,-0.021179069,-0.019429162,-0.016352521,0.007027079,-0.017426759,-0.010468876
0.018435087,0.049385916,0.014970128,-0.018766966,0.03823658,0.04259158,-0.021163195,-0.019327788,-0.016345521,0.007057379,-0.017428217,-0.010340946
0.01840581,0.049396608,0.015021597,-0.018772189,0.038127817,0.042540714,-0.021273764,-0.019368198,-0.016346812,0.006983025,-0.017426165,-0.010400893
0.018315835,0.049438383,0.015004041,-0.018779814,0.038214266,0.042471137,-0.021196207,-0.019309254,-0.016328154,0.007038049,-0.017425245,-0.010390469
0.018348895,0.04958548,0.014934902,-0.018784646,0.038078003,0.042451676,-0.021173775,-0.019329583,-0.01632834,0.007017015,-0.01741525,-0.010407927
0.018389272,0.049604405,0.014882023,-0.018770581,0.038012225,0.042273484,-0.021100448,-0.019280832,-0.016319292,0.006959047,-0.017413534,-0.010350126
0.018440994,0.049626235,0.014890621,-0.018768454,0.038000774,0.042297848,-0.021114977,-0.01932601,-0.016315175,0.006942724,-0.017409377,-0.010380733
0.018447693,0.049552206,0.014946143,-0.01877252,0.038025714,0.042534802,-0.021136006,-0.01931951,-0.0163077,0.006960176,-0.017410414,-0.01033177
0.01859015,0.049490545,0.014919269,-0.018773278,0.03803635,0.042587094,-0.02121438,-0.019270588,-0.016299257,0.007015991,-0.017411044,-0.010363453
0.018708833,0.049706798,0.014846688,-0.018771786,0.03787027,0.04206422,-0.021163126,-0.019297307,-0.016310656,0.006938412,-0.017420866,-0.010338482
0.018544665,0.04956804,0.014885422,-0.018776247,0.03806471,0.04214794,-0.021211173,-0.01929841,-0.016306944,0.006963053,-0.017418982,-0.010254653
0.018432537,0.049441777,0.014900037,-0.018784514,0.038129963,0.0420754,-0.021182245,-0.019304598,-0.016302181,0.006964278,-0.017417558,-0.010184529
0.018576704,0.04961309,0.014901681,-0.018790979,0.038014844,0.04221555,-0.02117663,-0.01929095,-0.016305553,0.006928156,-0.017415788,-0.010349076
0.01851342,0.04948672,0.014922669,-0.018802397,0.03805339,0.042346794,-0.021210253,-0.01930527,-0.016288392,0.006889993,-0.017424071,-0.010304902
0.018455876,0.049519103,0.014919636,-0.018805815,0.038111024,0.042331815,-0.021281708,-0.019318812,-0.016280573,0.00691301,-0.01742525,-0.010264327
0.018409293,0.049526583,0.014909282,-0.018808343,0.038102362,0.04240597,-0.021306355,-0.01928249,-0.016256375,0.006927123,-0.017426334,-0.010300393
0.018388066,0.049478497,0.014915677,-0.018811075,0.038195796,0.042566683,-0.021247732,-0.019301506,-0.016230946,0.006943759,-0.017431151,-0.010313405
0.01830217,0.04933002,0.014891471,-0.01881574,0.038249727,0.042811453,-0.021327946,-0.019203369,-0.016254578,0.006968318,-0.017419513,-0.01029688
0.018364452,0.049312077,0.014919943,-0.018815495,0.038154244,0.042481292,-0.02125723,-0.019219978,-0.016258584,0.006966225,-0.017415928,-0.010310144
0.018416807,0.049179096,0.0149214,-0.018816251,0.038158517,0.04230309,-0.021326106,-0.019189112,-0.016248748,0.006941017,-0.017414179,-0.01030255
0.018454816,0.049362816,0.014882209,-0.018816235,0.038165815,0.042163268,-0.021354346,-0.019180674,-0.016283447,0.006859457,-0.017412368,-0.010274065
0.018463422,0.04933012,0.014908994,-0.018816907,0.03820732,0.042129446,-0.021492492,-0.019198714,-0.016260296,0.006963345,-0.01741247,-0.010208921
0.018537415,0.04948467,0.014790204,-0.018807786,0.038105737,0.04239326,-0.021512842,-0.01919377,-0.01627323,0.006968351,-0.01741325,-0.010136338
0.018420625,0.04950848,0.014811775,-0.01879898,0.038078275,0.04180165,-0.021507641,-0.019197395,-0.0162776,0.006908098,-0.017421875,-0.010137114
0.01833705,0.04950613,0.01480382,-0.018806105,0.037957013,0.041852035,-0.021538652,-0.019203326,-0.016294464,0.006899739,-0.017425556,-0.010143711
0.018313171,0.049352765,0.014874727,-0.018809956,0.03784161,0.041557785,-0.02142763,-0.019170877,-0.016299017,0.006872689,-0.017426599,-0.010176755
0.018291237,0.049278364,0.01492392,-0.018806402,0.037873745,0.041442327,-0.021448523,-0.019145483,-0.01631275,0.006890939,-0.017421767,-0.010155661
0.01836496,0.049355064,0.014855974,-0.018801903,0.03766517,0.041518837,-0.021539573,-0.019139005,-0.016348079,0.006900181,-0.017421454,-0.010224918
0.018314354,0.049290717,0.014926336,-0.018811366,0.037804417,0.041638665,-0.021588104,-0.019147262,-0.016337346,0.00691762,-0.017408403,-0.010160881
0.018285662,0.04928717,0.014918105,-0.018812388,0.037963618,0.041901816,-0.021552064,-0.019187076,-0.016325176,0.006906557,-0.017402278,-0.010087431
0.01833963,0.049250066,0.014979546,-0.018809687,0.038013905,0.04198988,-0.021524051,-0.019210912,-0.016310005,0.006932242,-0.01740568,-0.010159084
0.018565655,0.049470857,0.014898279,-0.01881071,0.03738734,0.04165962,-0.021634344,-0.019299107,-0.016337963,0.00671379,-0.017406298,-0.010192907
0.018444428,0.049021035,0.014966595,-0.018819094,0.037488915,0.04175979,-0.021636643,-0.01932376,-0.01632868,0.006743104,-0.017387636,-0.010175968
0.01839097,0.049139537,0.014949147,-0.018822828,0.037538,0.041715216,-0.02158587,-0.01932018,-0.016337669,0.00673279,-0.017398931,-0.010231731
0.018289145,0.0490956,0.014909833,-0.018823039,0.037684143,0.04214034,-0.021838551,-0.019284336,-0.016343482,0.006677515,-0.017385487,-0.010212957
0.018373294,0.049372267,0.014895671,-0.018834442,0.03749375,0.04143395,-0.02187171,-0.019363316,-0.016329337,0.006634342,-0.017390596,-0.010246018
0.018261602,0.04924557,0.014926643,-0.018835897,0.037621744,0.041727856,-0.02180988,-0.01936102,-0.016327452,0.006625884,-0.01738489,-0.010171082
0.018312598,0.04939268,0.014931452,-0.018847467,0.037440266,0.041207552,-0.021807486,-0.019388944,-0.016306909,0.006694235,-0.017396078,-0.010161388
0.01826973,0.049233623,0.014954099,-0.018845797,0.03753334,0.041487068,-0.021840125,-0.019399075,-0.016320916,0.006659029,-0.017389232,-0.010076203
0.018324273,0.049435418,0.014981546,-0.01885092,0.03744127,0.04126026,-0.021722134,-0.0194083,-0.016323341,0.006624411,-0.017382743,-0.010130576
0.01832038,0.049380507,0.014979919,-0.018851725,0.03745795,0.041465916,-0.02192717,-0.01937479,-0.016323827,0.006660387,-0.017377991,-0.010102234
0.018331196,0.04956724,0.014950602,-0.018851712,0.037543796,0.041663118,-0.02191925,-0.019387564,-0.016331876,0.006599726,-0.017384248,-0.010056217
0.01852171,0.04967147,0.014857343,-0.01886152,0.037565496,0.041800026,-0.021875773,-0.019410059,-0.01630569,0.006665286,-0.017388256,-0.010037988
0.018476984,0.049639385,0.014881167,-0.018851612,0.03757797,0.041572843,-0.022110067,-0.019356934,-0.01630548,0.006680924,-0.017368747,-0.010144437
0.01848203,0.04961412,0.014823113,-0.018847477,0.037572827,0.04173086,-0.0219992,-0.019341266,-0.016295247,0.006571972,-0.017359635,-0.010122173
0.018471234,0.04950546,0.014853039,-0.018841067,0.03763275,0.041547,-0.021967148,-0.019458372,-0.016306072,0.00652041,-0.017356982,-0.009981819
0.01851188,0.049528927,0.01482334,-0.018846065,0.037698876,0.041990828,-0.022007955,-0.019441718,-0.016266847,0.006537542,-0.017352065,-0.009995651
0.018569505,0.049681455,0.014859136,-0.018848782,0.037617523,0.041810926,-0.022077678,-0.019460903,-0.016257005,0.00655633,-0.017353645,-0.010025159
0.018561367,0.04957,0.014903521,-0.018849244,0.037778623,0.042128105,-0.022159591,-0.019431707,-0.016244367,0.006639081,-0.017346293,-0.009953062
0.018644249,0.049787115,0.014893862,-0.018853826,0.037798446,0.042121947,-0.022172246,-0.019433698,-0.016229978,0.006738147,-0.017353065,-0.010138826
0.018596971,0.049632885,0.014925534,-0.018851858,0.03790953,0.04238106,-0.022044478,-0.01941251,-0.016268352,0.006679233,-0.017353809,-0.010127525
0.01871198,0.049775284,0.014903762,-0.018842917,0.037574433,0.041853014,-0.021994907,-0.019372173,-0.016230755,0.006647201,-0.017351648,-0.010235682
0.018876396,0.049919944,0.014826198,-0.018851262,0.03745924,0.042344186,-0.022087257,-0.01934523,-0.016244147,0.006545136,-0.017347509,-0.010226403
0.01879402,0.049783275,0.014937597,-0.018835349,0.03749645,0.04134076,-0.022128504,-0.019365557,-0.016229574,0.006633337,-0.017342884,-0.01018016
0.01878856,0.049757794,0.014913298,-0.0188364,0.03764808,0.04231963,-0.022098884,-0.019374324,-0.016227342,0.006640335,-0.017341083,-0.010200189
0.01873401,0.049765963,0.015012819,-0.018837195,0.037663143,0.04168028,-0.02214877,-0.019415589,-0.016279887,0.006646844,-0.017347226,-0.010282095
0.019002216,0.04990671,0.01484298,-0.018830365,0.037626512,0.042301536,-0.022424541,-0.019378623,-0.016316151,0.006673965,-0.017348368,-0.010280278
0.018923454,0.04979902,0.014933509,-0.018822428,0.03770516,0.041902374,-0.022366507,-0.019405235,-0.016314184,0.006659672,-0.017344043,-0.010214122
0.01886952,0.049837213,0.014890411,-0.018821413,0.037695084,0.041906834,-0.02227799,-0.019401746,-0.016300801,0.006664692,-0.017340504,-0.010155804
0.018866653,0.0498201,0.014862506,-0.01882753,0.03763092,0.04191926,-0.02229855,-0.019401457,-0.016338388,0.006617117,-0.017342867,-0.010067941
0.018816639,0.049696874,0.014850335,-0.01882874,0.037815467,0.042041764,-0.022305246,-0.019384338,-0.016327044,0.006574136,-0.017327195,-0.010086165
0.018876672,0.04985108,0.014872692,-0.018831912,0.03766797,0.041916013,-0.022301741,-0.019398864,-0.016337741,0.006490307,-0.017330669,-0.010284957
0.018718287,0.049782675,0.014900738,-0.01883043,0.037920296,0.04245482,-0.022198478,-0.01937842,-0.016379656,0.006450829,-0.017328847,-0.010214582
0.01865849,0.049846362,0.014909531,-0.018831367,0.03805389,0.042344555,-0.022274017,-0.01940306,-0.016362809,0.006488374,-0.0173307,-0.010239479
0.01872026,0.049703702,0.014894601,-0.018826913,0.037883714,0.042023316,-0.022308603,-0.019357674,-0.016358146,0.006562394,-0.017339043,-0.010277356
0.01869602,0.04990068,0.014843192,-0.018829912,0.03782271,0.041965898,-0.022220455,-0.019279528,-0.016363041,0.006519526,-0.01733959,-0.010331323
0.018695453,0.049809847,0.014867677,-0.018834095,0.037919242,0.042020913,-0.022256043,-0.019265812,-0.016331403,0.006483028,-0.017332315,-0.010323956
0.018703269,0.04995802,0.014862501,-0.018840518,0.038042344,0.042344898,-0.02240062,-0.019242885,-0.01633546,0.00646509,-0.017333642,-0.010409717
0.01862778,0.049933203,0.014828655,-0.018844416,0.038018804,0.042105332,-0.022418495,-0.019206755,-0.016331183,0.006483412,-0.017346397,-0.01032522
0.018595407,0.04989737,0.014869869,-0.018842008,0.03803379,0.042171054,-0.022312818,-0.019154878,-0.016385196,0.006354869,-0.017350813,-0.010259745
0.01865372,0.050067656,0.014845805,-0.01884583,0.037921615,0.041786436,-0.022214154,-0.019228516,-0.01636268,0.006300246,-0.017350752,-0.01031094
0.018549537,0.049847323,0.014923221,-0.018852375,0.03796175,0.04136755,-0.022267297,-0.019220324,-0.01635356,0.006348397,-0.017347133,-0.010294363
0.01850332,0.04977024,0.014903502,-0.01885564,0.03793145,0.04202351,-0.022263972,-0.019224802,-0.016373204,0.006327934,-0.017352063,-0.010275628
0.018476218,0.04990154,0.014948011,-0.018852819,0.03776222,0.04166409,-0.022254473,-0.019258715,-0.016373817,0.006391622,-0.017350037,-0.010207048
0.018453272,0.04982874,0.014884239,-0.018856438,0.037768237,0.04190863,-0.022199225,-0.01923901,-0.016367646,0.006367947,-0.017354656,-0.010229192
0.01847643,0.049975183,0.014910458,-0.0188755,0.037584852,0.041482426,-0.022284899,-0.019287238,-0.016344748,0.006396491,-0.01736511,-0.01020025
0.018495824,0.04996418,0.014889658,-0.01886815,0.037698496,0.041387133,-0.022209087,-0.01930599,-0.016373502,0.006329923,-0.01736663,-0.010149705
0.018484471,0.050001662,0.014936949,-0.018867232,0.037736915,0.041366562,-0.022108633,-0.019297527,-0.016356057,0.006341919,-0.017362176,-0.010140466
0.018445948,0.04991711,0.014955667,-0.018875567,0.037835333,0.041544277,-0.022200892,-0.019267447,-0.01634383,0.006377578,-0.017348863,-0.01017896
0.018414551,0.049888965,0.014888131,-0.018873632,0.037879184,0.041636743,-0.022163264,-0.019292869,-0.016355958,0.006398139,-0.017348401,-0.01017182
0.018410755,0.04974005,0.014915993,-0.018873034,0.037998542,0.04192177,-0.022150144,-0.019292014,-0.016376924,0.006343123,-0.017354125,-0.010076703
0.018455949,0.049857195,0.014952049,-0.018873451,0.037877843,0.041656505,-0.022067122,-0.019301783,-0.016375277,0.006328546,-0.017360555,-0.010085362
0.018560268,0.049788374,0.014938127,-0.018867318,0.03773688,0.041616965,-0.021976711,-0.019266956,-0.016401308,0.006324132,-0.01736318,-0.010143914
0.018663067,0.04994689,0.014911265,-0.018867528,0.037550863,0.041332625,-0.021934345,-0.019231109,-0.016429413,0.006258494,-0.01737261,-0.010182298
0.018581957,0.04973657,0.014932778,-0.018872991,0.037724826,0.041374415,-0.021987686,-0.019226443,-0.016426804,0.006264761,-0.017369432,-0.010082336
0.01855883,0.049859814,0.014903917,-0.018867273,0.03779192,0.04160081,-0.022144603,-0.019265397,-0.016412606,0.006305159,-0.017375378,-0.009980498
0.018565262,0.049794104,0.014904309,-0.01886655,0.037796255,0.042146288,-0.022143392,-0.019223815,-0.01641728,0.006323483,-0.017371384,-0.010013272
0.018524159,0.050022453,0.014905563,-0.018857945,0.037745424,0.041655224,-0.022258112,-0.019439224,-0.016375892,0.006298473,-0.017383123,-0.010129615
0.018511312,0.04989805,0.014890648,-0.018855104,0.03784731,0.0421121,-0.02226163,-0.01943282,-0.0163791,0.006252032,-0.017367354,-0.010143081
0.018420227,0.049882736,0.014911505,-0.018863618,0.037917588,0.042028997,-0.022337131,-0.019405605,-0.016382875,0.006281679,-0.017374592,-0.010150516
0.018467454,0.04986066,0.014932701,-0.0188513,0.037728142,0.0417503,-0.022130793,-0.019373346,-0.016337894,0.00626156,-0.017380973,-0.010243675
0.01843018,0.049963865,0.014836074,-0.018860571,0.037792794,0.042083345,-0.022189239,-0.019336618,-0.016370494,0.006174984,-0.017375108,-0.010219248
0.01837108,0.05005392,0.014853285,-0.01885952,0.03764261,0.041560207,-0.022229252,-0.019373225,-0.016385153,0.006220979,-0.01738272,-0.010243365
0.018327957,0.049926125,0.014841932,-0.018857067,0.037773807,0.042065747,-0.022239119,-0.019319858,-0.016383504,0.00616032,-0.017383037,-0.010193552
0.018329216,0.049950387,0.014906309,-0.018856544,0.0376392,0.0417848,-0.0221866,-0.019317642,-0.016409101,0.00607693,-0.017384913,-0.01021889
0.01837553,0.049968265,0.014894655,-0.01886344,0.037773676,0.041990228,-0.022229606,-0.019332895,-0.016405502,0.006139533,-0.01738604,-0.010183034
0.01842725,0.05009229,0.014911144,-0.018859249,0.037770998,0.041900467,-0.02231626,-0.019397043,-0.016388973,0.006131493,-0.017385285,-0.010192724
0.01854696,0.050192274,0.014905339,-0.018860843,0.03778372,0.042139497,-0.022341171,-0.019424604,-0.016395846,0.006152961,-0.017380195,-0.010180335
0.01853868,0.05008166,0.014915391,-0.018847486,0.03778924,0.04218075,-0.022205712,-0.0193646,-0.016398741,0.006109552,-0.017386245,-0.01021975
0.018406026,0.050002784,0.014993028,-0.018857475,0.037823856,0.042218514,-0.022159977,-0.019391201,-0.016372213,0.005999352,-0.017387442,-0.010174408
0.018609114,0.050403878,0.01490768,-0.018849567,0.037657253,0.042154036,-0.022252532,-0.019297209,-0.016377877,0.006113215,-0.017389182,-0.010169858
0.018475818,0.050275184,0.01494488,-0.018849408,0.03781967,0.0418445,-0.022289332,-0.019284632,-0.016398858,0.006089348,-0.017389275,-0.010069257
0.018501254,0.050369192,0.014952351,-0.018850606,0.037730128,0.04171468,-0.02224916,-0.019321302,-0.016391894,0.00607906,-0.01739022,-0.010117412
0.01850085,0.05032958,0.015019354,-0.018847339,0.03791928,0.04185168,-0.022294603,-0.01933877,-0.016426384,0.006060361,-0.017393162,-0.010099919
0.018549263,0.050445285,0.015066473,-0.018845301,0.03783507,0.041735355,-0.022093002,-0.019433305,-0.016442215,0.005959902,-0.017392145,-0.010096228
0.018535865,0.050741814,0.015039155,-0.018840462,0.037927344,0.041919243,-0.022174569,-0.019383183,-0.016423667,0.006055482,-0.017391184,-0.01008215
0.018422812,0.050385885,0.015112271,-0.018843042,0.037783697,0.04163943,-0.022220144,-0.019362483,-0.01644241,0.005969339,-0.017396087,-0.010159689
0.018484863,0.050624475,0.01509638,-0.018840205,0.037703503,0.04134144,-0.02214141,-0.019388346,-0.016420878,0.006070955,-0.017414168,-0.010216634
0.018267913,0.050216213,0.015129251,-0.018841628,0.037855472,0.041518446,-0.022146126,-0.019322926,-0.016417066,0.00602903,-0.017412327,-0.010210625
0.018299306,0.050183333,0.015080838,-0.018840589,0.037951946,0.04170086,-0.022209438,-0.019276574,-0.01638582,0.006061899,-0.017410768,-0.010259093
0.018365283,0.05030514,0.015044345,-0.0188458,0.037772212,0.041460562,-0.022188066,-0.01930984,-0.01635051,0.006058408,-0.017415898,-0.01030565
0.01829932,0.050089832,0.01508221,-0.01883964,0.03788317,0.04160281,-0.022218212,-0.019328605,-0.016403226,0.005988977,-0.017412547,-0.010239133
0.018271307,0.050008193,0.015064717,-0.018843163,0.037878092,0.041781597,-0.022189712,-0.019360624,-0.016405484,0.006005907,-0.01741003,-0.010268875
0.018239321,0.049925826,0.015077871,-0.01884596,0.037859548,0.04171392,-0.022179453,-0.019337825,-0.016418654,0.005893531,-0.017412968,-0.010299495
0.01823329,0.05013147,0.015050199,-0.0188441,0.037827894,0.041780733,-0.022008955,-0.019383484,-0.016401174,0.005888969,-0.017409561,-0.010344075
0.018232698,0.050049543,0.014974426,-0.018851899,0.037565865,0.041811235,-0.022033434,-0.019336069,-0.016428322,0.005827292,-0.017414723,-0.01042639
0.018162932,0.050030608,0.01501967,-0.018850388,0.037658036,0.04182174,-0.022000594,-0.019345563,-0.016441882,0.005870887,-0.017402396,-0.010421378
0.018118495,0.050060607,0.014979702,-0.018853618,0.037608784,0.04164097,-0.022121584,-0.01934459,-0.016446901,0.005903168,-0.017401664,-0.010348364
0.018155271,0.0501671,0.014980075,-0.018854659,0.037399292,0.04131492,-0.022224048,-0.01931141,-0.016475877,0.005830993,-0.017402222,-0.010371506
0.018138085,0.049992025,0.015063762,-0.018857285,0.03762843,0.04179792,-0.022201603,-0.019262606,-0.016474167,0.005857994,-0.017405692,-0.010343282
0.01818199,0.04997574,0.014995772,-0.018849244,0.037583407,0.041833002,-0.022240259,-0.019225603,-0.016497107,0.005792488,-0.017404549,-0.010324319
0.018164074,0.050001733,0.015021313,-0.018850029,0.03756558,0.04170555,-0.022275032,-0.019177156,-0.016488964,0.005857932,-0.017401017,-0.010304013
0.018153023,0.049900927,0.015038735,-0.018854935,0.037646513,0.041969527,-0.022252547,-0.019161882,-0.016484229,0.005892632,-0.017400473,-0.010346346
