w11,w12,w13,w21,w22,w23,w31,w32,w33,w41,w42,w43
0.014985245,0.058793914,0.025953174,0.025518328,0.009785521,0.013785339,-0.0054509146,0.016882446,0.02695162,-0.022223288,-0.002048667,-0.005440144
0.014886871,0.059330918,0.025741214,0.025659628,0.00982423,0.013960973,-0.005430762,0.016881479,0.026928617,-0.022188779,-0.0020741841,-0.005441674
0.014885636,0.059346847,0.025746787,0.025691696,0.009856262,0.0140020475,-0.0054982714,0.016877826,0.026931554,-0.02218066,-0.0020600858,-0.005435509
0.014881651,0.059641745,0.02569381,0.02572941,0.009832644,0.014046998,-0.0054796105,0.01687813,0.02688771,-0.022165632,-0.0020355817,-0.005427226
0.014913839,0.05909837,0.025778964,0.025686199,0.009884553,0.013899652,-0.0055248537,0.016878646,0.026874054,-0.02213959,-0.0020363256,-0.0054116556
0.014929514,0.059216335,0.025784785,0.025653137,0.009875914,0.01395725,-0.0055474355,0.016880944,0.02688976,-0.022135664,-0.002023413,-0.005406934
0.014974875,0.05910779,0.025844162,0.025734404,0.009921592,0.013957218,-0.0055145393,0.0168823,0.02687108,-0.022012696,-0.0020423431,-0.005402236
0.014951113,0.059779998,0.025702193,0.025948226,0.0099854665,0.01430918,-0.005476647,0.016885579,0.02687843,-0.02222741,-0.0020301125,-0.005395096
0.014908105,0.059899226,0.025700975,0.026042322,0.009969987,0.014493897,-0.0054782773,0.016885204,0.026866848,-0.022148503,-0.0020366586,-0.005386713
0.014931804,0.059259642,0.02585899,0.025729567,0.009961525,0.014483328,-0.005572985,0.016874425,0.026867485,-0.02204117,-0.0020819332,-0.005375671
0.014942316,0.059282925,0.025847796,0.025899945,0.009980255,0.014368462,-0.005539986,0.016883405,0.026897226,-0.02199164,-0.0020969703,-0.005373663
0.014998059,0.059497774,0.025805967,0.025974281,0.00984528,0.014011476,-0.005526848,0.016883474,0.026878852,-0.02204763,-0.0020482473,-0.0053734514
0.014936508,0.059632976,0.02572436,0.026060179,0.009934171,0.014582838,-0.005553776,0.016866008,0.026919,-0.02206484,-0.0020407701,-0.0053765574
0.014924783,0.05959559,0.025745964,0.025987502,0.009834838,0.0141292205,-0.005496202,0.016896745,0.026807517,-0.022115503,-0.0020633298,-0.005370201
0.014948247,0.058995023,0.025767675,0.025932597,0.009894607,0.014310004,-0.0056207953,0.016913787,0.026855383,-0.022070903,-0.0021278467,-0.0053561423
0.014974419,0.059214022,0.025704097,0.026000934,0.009917431,0.0143898465,-0.005632207,0.01690233,0.026879508,-0.022071889,-0.0020962995,-0.0053529916
0.014988875,0.059095364,0.025615243,0.025946733,0.009858524,0.014365879,-0.005613442,0.016895795,0.02684784,-0.022027366,-0.0021207123,-0.005348747
0.015057705,0.059096806,0.0256292,0.025900664,0.009874431,0.014302259,-0.0056147976,0.0169048,0.026871132,-0.02215568,-0.0021310383,-0.005361394
0.01500205,0.059018884,0.025617527,0.025883608,0.009924873,0.014421197,-0.0056274193,0.01691153,0.026854068,-0.022175036,-0.0021327543,-0.005356256
0.014976324,0.059427153,0.02555385,0.026057415,0.010017877,0.014762887,-0.005537832,0.016915016,0.026876751,-0.022181945,-0.0021315573,-0.005360407
0.014935214,0.059389707,0.025496628,0.026077218,0.009971469,0.014617317,-0.0055772397,0.016921476,0.026869187,-0.022120735,-0.0020842056,-0.0053605917
0.014987733,0.059492495,0.02544969,0.026136035,0.0100179035,0.014770371,-0.0056126066,0.016913412,0.026916897,-0.022147667,-0.002066424,-0.0053653778
0.014993453,0.059131745,0.025454763,0.026093865,0.010028135,0.014692732,-0.0056038736,0.016910158,0.026888976,-0.022152329,-0.0020826226,-0.0053546415
0.014985122,0.059590984,0.02528189,0.026178814,0.009933173,0.0147512825,-0.0055942857,0.01691503,0.026897995,-0.022148952,-0.0020412395,-0.005365033
0.014936502,0.05855405,0.025485845,0.025781253,0.010051187,0.014853594,-0.005561916,0.016913468,0.026918942,-0.022035373,-0.0021416731,-0.0053669713
0.014979191,0.058649935,0.025403645,0.025813114,0.009900311,0.014461269,-0.0055983625,0.01690974,0.026901718,-0.022038752,-0.0021121744,-0.005351827
0.01494934,0.05948649,0.025283417,0.026052855,0.009995551,0.014787838,-0.00552929,0.016916009,0.026917739,-0.022135928,-0.0021316868,-0.005351897
0.014970348,0.059319086,0.025338884,0.02585137,0.009998351,0.01477049,-0.0055239727,0.01692163,0.02690896,-0.022099327,-0.0021855526,-0.005382557
0.014941178,0.059017178,0.025395969,0.025865408,0.009965559,0.014717072,-0.0056040166,0.016907757,0.026928332,-0.022157937,-0.002170181,-0.005377122
0.015003397,0.059181727,0.02537402,0.025911352,0.010128957,0.014766246,-0.0055773393,0.01691186,0.02695521,-0.022181008,-0.0021300686,-0.005372638
0.014951689,0.058996446,0.025414828,0.025813032,0.010048276,0.0145678595,-0.0055590076,0.016923845,0.026906293,-0.02211577,-0.0021211617,-0.00537024
0.014966089,0.059041455,0.025297105,0.025926786,0.010064102,0.0147076715,-0.0055868956,0.016908856,0.026932053,-0.022150733,-0.0020880394,-0.005360851
0.014931226,0.05914636,0.02527733,0.025835885,0.01005353,0.014942176,-0.0055892803,0.016906502,0.026921216,-0.022092853,-0.0020915323,-0.0053681377
0.014919794,0.05925129,0.025181923,0.025900438,0.010040233,0.014744554,-0.005547505,0.016904138,0.026900342,-0.022093346,-0.0020805656,-0.005367126
0.01486913,0.05918824,0.025222462,0.02583375,0.010042394,0.014985816,-0.0055024084,0.016927974,0.026904928,-0.021984162,-0.0020817155,-0.0053682523
0.014997787,0.059020318,0.025270106,0.025755303,0.01027752,0.015289738,-0.0056485045,0.016876379,0.026980434,-0.022090895,-0.0020462167,-0.005400829
0.014982355,0.058938347,0.025269857,0.025590027,0.01011632,0.014802657,-0.0056140684,0.016885351,0.026940886,-0.021984324,-0.0020650337,-0.0054047997
0.014977713,0.058862098,0.025283225,0.025530314,0.010150928,0.014890778,-0.0056710984,0.016887967,0.026951296,-0.02191562,-0.002058615,-0.0054189293
0.014938178,0.058767773,0.025408436,0.025553718,0.010215006,0.014898781,-0.0056303064,0.016899789,0.026940888,-0.02193331,-0.0021028335,-0.0054100784
0.014951001,0.059186876,0.025283605,0.025738243,0.0101699885,0.014871847,-0.0056366003,0.016901225,0.026928607,-0.022025203,-0.0020760228,-0.005409205
0.014895484,0.059388917,0.02516837,0.025764396,0.010132846,0.014937027,-0.005637877,0.016892692,0.026935771,-0.022036169,-0.002055464,-0.0054018046
0.014874756,0.059121024,0.025209771,0.025637804,0.010105779,0.014812566,-0.005685189,0.016888618,0.026937619,-0.02196938,-0.0020624655,-0.0054052295
0.014925152,0.059311002,0.025160803,0.025652813,0.010050276,0.014759138,-0.0057142694,0.016894436,0.02691907,-0.022016423,-0.0020488934,-0.005410971
0.014964477,0.058991715,0.025254639,0.02568107,0.010121818,0.014811238,-0.0057712295,0.016889198,0.02695254,-0.021938724,-0.002070726,-0.0053968844
0.014954027,0.0592395,0.025189377,0.025807817,0.010134819,0.0146128265,-0.0056512957,0.016909868,0.026924236,-0.022054162,-0.0020369445,-0.0053895903
0.014886768,0.058561202,0.025353134,0.025448369,0.010202861,0.014741077,-0.0056286235,0.016896283,0.026953949,-0.02201643,-0.0020629123,-0.0053912182
0.014961823,0.05871477,0.025358869,0.025460895,0.01014928,0.014967882,-0.005651329,0.016891414,0.026927784,-0.022062618,-0.0020242473,-0.0053929654
0.014949191,0.058941796,0.025278566,0.025587806,0.010058855,0.014964204,-0.005639716,0.016875979,0.026917513,-0.02212711,-0.0020319873,-0.005388707
0.014940469,0.058905944,0.025369953,0.02538324,0.010078296,0.015025222,-0.0056857653,0.016887821,0.02691073,-0.022077123,-0.0020994158,-0.005376722
0.014885613,0.05928225,0.025228752,0.025695156,0.010104492,0.015158839,-0.005678069,0.016890127,0.026919747,-0.022170417,-0.0020646139,-0.0053729136
0.014855121,0.059255023,0.02518456,0.025640268,0.0101133175,0.015528138,-0.0056880047,0.016896224,0.02692961,-0.022129146,-0.0021037345,-0.005369446
0.014899066,0.058898818,0.025260014,0.02546909,0.010283208,0.015313704,-0.0056690816,0.016927253,0.026905647,-0.022171117,-0.002141003,-0.005372459
0.014864439,0.059092917,0.025205797,0.025581965,0.010266086,0.015472004,-0.0055891164,0.016951095,0.026928352,-0.02209904,-0.0021084044,-0.0053548315
0.014856776,0.05879296,0.025155392,0.025370061,0.010105721,0.015272368,-0.005628338,0.016941631,0.026889713,-0.02209851,-0.0021702417,-0.0053638774
0.014859393,0.05883216,0.025167555,0.025519669,0.010230729,0.015539553,-0.0056651067,0.016937347,0.026945194,-0.022138849,-0.0022049106,-0.0053617735
0.014914382,0.059103172,0.025121339,0.025635041,0.01032478,0.015287377,-0.005587011,0.016960394,0.026910601,-0.022150826,-0.002231087,-0.0053554988
0.014969824,0.058868244,0.025253344,0.025432,0.010188476,0.015315439,-0.005742883,0.016933294,0.026934575,-0.022010231,-0.002267919,-0.005337435
0.014955064,0.05872224,0.02522324,0.025396278,0.010372428,0.015492869,-0.005720321,0.01693695,0.026963325,-0.02206063,-0.0022922733,-0.005338905
0.014913647,0.058928158,0.025203988,0.025530063,0.010436358,0.015846603,-0.0057112533,0.01695054,0.027002681,-0.022043759,-0.0023057603,-0.005336239
0.0149330655,0.05909407,0.025167795,0.025589474,0.010370269,0.015467578,-0.005652821,0.016952727,0.0269919,-0.022006627,-0.0022731794,-0.005328367
0.014933753,0.058490377,0.025240831,0.025333742,0.010240982,0.015156978,-0.005733554,0.016941693,0.026994854,-0.021952914,-0.0022836153,-0.0053661265
0.014900293,0.05890291,0.02512161,0.02548741,0.010230583,0.015589924,-0.005723899,0.016949706,0.02700673,-0.02201943,-0.0023014892,-0.0053658183
0.0148701565,0.058992654,0.02514543,0.025600482,0.010226135,0.0156486,-0.005675462,0.01695335,0.026976405,-0.022044372,-0.0022970734,-0.0053701643
0.0148452455,0.059134204,0.025143052,0.025651198,0.010287795,0.015490295,-0.0056800856,0.0169629,0.027011877,-0.022143632,-0.0022564393,-0.0053722966
0.014803214,0.058786377,0.025192006,0.025503928,0.010327267,0.015427302,-0.005690142,0.016960604,0.026971962,-0.022092482,-0.0022626307,-0.0053722323
0.014782011,0.058779385,0.025271105,0.025361108,0.010399209,0.015645914,-0.0056562824,0.016969291,0.027000716,-0.022077693,-0.0022790793,-0.005381172
0.014799319,0.059106484,0.025209682,0.025581358,0.010267264,0.015618664,-0.00568462,0.016973114,0.026999978,-0.022021374,-0.0022443417,-0.005386652
0.01481153,0.05925972,0.025369717,0.025376875,0.010339402,0.015477633,-0.0055102347,0.016992472,0.02699846,-0.021984408,-0.002245301,-0.005390014
0.014878284,0.058810316,0.02555771,0.025158284,0.010180595,0.015226963,-0.005752984,0.016941888,0.027046984,-0.021923255,-0.0022388662,-0.0054252944
0.014861852,0.059208084,0.025427528,0.025366042,0.0102524925,0.014686837,-0.005524788,0.016976777,0.027007256,-0.02203671,-0.002210092,-0.0054206513
0.014860071,0.059086755,0.025468737,0.02543249,0.010270779,0.014924034,-0.005585967,0.016966194,0.02703936,-0.02201101,-0.0022274016,-0.005424264
0.014838793,0.059330504,0.025410298,0.025511235,0.010259883,0.015100713,-0.005609513,0.016966674,0.027010025,-0.021883493,-0.0022095891,-0.0054249326
0.01481679,0.059608635,0.025317285,0.0256149,0.010244175,0.015205252,-0.005650517,0.01696194,0.026994543,-0.021814859,-0.00218697,-0.0054264744
0.014791215,0.05970856,0.025260365,0.02547123,0.010175119,0.015159034,-0.005685343,0.016957002,0.026961546,-0.021872478,-0.0021759006,-0.0054325885
0.0146901,0.05976963,0.025027866,0.025441319,0.010262279,0.01543417,-0.005607302,0.016985057,0.026915645,-0.02165225,-0.0022002805,-0.0054585976
0.014784964,0.05974961,0.025049059,0.025420107,0.010216897,0.015232497,-0.0056848917,0.016967107,0.026941514,-0.02170747,-0.002207007,-0.005482924
0.01479207,0.0600339,0.025103118,0.02546113,0.01023438,0.015236513,-0.0056883437,0.016960056,0.026953503,-0.021757182,-0.0021816979,-0.00548709
0.0148281725,0.059940502,0.025127828,0.02554553,0.010304983,0.015489381,-0.005669009,0.016952783,0.027011355,-0.021792937,-0.0022149207,-0.0054904157
0.014836772,0.06000591,0.025185155,0.025530847,0.010286856,0.015276225,-0.0056746197,0.016953107,0.026979748,-0.021901388,-0.0021911254,-0.00549301
0.014803359,0.059984,0.025214659,0.02548497,0.010285742,0.015419732,-0.0056971614,0.016947335,0.02699247,-0.021882854,-0.0022207072,-0.005486805
0.014789904,0.06001491,0.0252022,0.025399322,0.010284564,0.015478738,-0.005651653,0.016953904,0.026982177,-0.021843398,-0.0021808867,-0.0054803463
0.014775134,0.06004306,0.025125789,0.025612198,0.0103812935,0.015586939,-0.0056333407,0.016967967,0.026983313,-0.021847708,-0.0021437437,-0.005477017
0.014731916,0.06006946,0.025283858,0.025444947,0.010307287,0.015606492,-0.005636805,0.016960861,0.026977984,-0.02185666,-0.0021326132,-0.0054918854
0.014695032,0.060004298,0.025208209,0.025506847,0.010378227,0.015303922,-0.0055981087,0.016975967,0.026957236,-0.02192583,-0.0021546087,-0.005490419
0.014808363,0.060246743,0.025153942,0.025472026,0.010427274,0.015588112,-0.0056602657,0.016965155,0.02700603,-0.02204456,-0.0021334363,-0.005495938
0.014805018,0.059625603,0.025121106,0.025234295,0.010378303,0.015187616,-0.0055835005,0.01699068,0.02698487,-0.022013899,-0.0021309087,-0.0054932893
0.0147546735,0.059842706,0.02504062,0.025286544,0.010361848,0.015482531,-0.005609036,0.016983306,0.026999032,-0.021987407,-0.0021589191,-0.005481313
0.014709082,0.05954249,0.025179861,0.0252518,0.010329232,0.015554536,-0.0055005644,0.017024174,0.026989585,-0.021919195,-0.0022180504,-0.005473828
0.014607956,0.06005215,0.025134275,0.02532028,0.0103003085,0.015349357,-0.005458477,0.017010653,0.026953094,-0.021932812,-0.0021786953,-0.0054588695
0.014707021,0.059442155,0.025231568,0.025128646,0.010325497,0.015440558,-0.0055942615,0.016989235,0.026970267,-0.021915752,-0.0021831277,-0.005471514
0.014712806,0.059691787,0.025177365,0.025221456,0.010352082,0.015509331,-0.0056865504,0.016983893,0.026984053,-0.022009136,-0.002158242,-0.0054746717
0.01465998,0.05965189,0.025246093,0.025334038,0.01036918,0.015660938,-0.0056921206,0.016971739,0.02702258,-0.021960445,-0.0022116161,-0.0054766657
0.014705957,0.059455104,0.02531285,0.025299804,0.010331591,0.015245562,-0.005704848,0.01695396,0.026985833,-0.021965202,-0.0022170015,-0.0054622972
0.014730363,0.059589084,0.025237862,0.025405776,0.010354799,0.015418419,-0.0056956676,0.01694269,0.026999617,-0.02201863,-0.0022072643,-0.0054557854
0.014753589,0.059342988,0.02532324,0.025256908,0.010387039,0.015361209,-0.0057119983,0.016955737,0.026990764,-0.021941831,-0.0022087554,-0.00546934
0.014780934,0.05947832,0.025279917,0.02527456,0.010353601,0.015283694,-0.005687794,0.01695644,0.026967572,-0.021928241,-0.0022145428,-0.005468569
0.0147575755,0.059526388,0.025255648,0.025426846,0.010456489,0.015462857,-0.005707114,0.016953582,0.027006691,-0.021988152,-0.002212384,-0.005466819
0.014787466,0.059591465,0.025227388,0.025394583,0.010367922,0.015271488,-0.005709626,0.016963588,0.026955834,-0.021980569,-0.002206067,-0.0054620565
0.014726873,0.05960459,0.025417248,0.025510095,0.010519764,0.01564117,-0.0055738566,0.016964948,0.027020648,-0.021941029,-0.0022263906,-0.005452856
0.014819799,0.059406813,0.025400467,0.025337303,0.010477302,0.015845243,-0.005676606,0.016907133,0.027059205,-0.021964831,-0.0022725156,-0.005478771
0.014765133,0.059259437,0.025504487,0.025328863,0.010494352,0.015704693,-0.00562815,0.016936937,0.02702188,-0.021953167,-0.0022619928,-0.005461523
0.01476546,0.059133302,0.025478235,0.025358407,0.010524592,0.015878046,-0.0056646504,0.016928542,0.027045744,-0.021970702,-0.0023216829,-0.005453727
0.014712633,0.05938003,0.02538582,0.025496626,0.010506289,0.015778007,-0.005690269,0.016925808,0.027016034,-0.021999998,-0.0022656736,-0.0054449462
0.014649378,0.059550375,0.02541549,0.02548436,0.010528643,0.015722752,-0.0056570745,0.016919438,0.02700095,-0.02196068,-0.002283676,-0.00543916
0.014744191,0.05858014,0.025581902,0.02533584,0.010512933,0.0155512,-0.0056546954,0.016928798,0.027004221,-0.021947812,-0.0023478954,-0.0054694535
0.014651892,0.058795147,0.025403664,0.02542228,0.010448642,0.015581094,-0.005646204,0.016934037,0.026993237,-0.021960571,-0.0023401298,-0.0054534
0.014571108,0.059189364,0.02528432,0.025517331,0.010489568,0.015611002,-0.005616031,0.01694074,0.026995989,-0.022010317,-0.0023245504,-0.0054481933
0.014643653,0.0590936,0.025396928,0.02546188,0.010361033,0.0154253915,-0.0056380616,0.01692738,0.02696251,-0.022028469,-0.0022981113,-0.0054620705
0.014608702,0.05965656,0.025255075,0.02559093,0.010451766,0.015778499,-0.005634851,0.016937383,0.026982613,-0.022063233,-0.0023536296,-0.0054652477
0.014563648,0.0594558,0.025361635,0.025566788,0.010552688,0.015737198,-0.0056045298,0.016941475,0.026986964,-0.022020308,-0.002373092,-0.0054485598
0.014579278,0.05943076,0.025375672,0.02558778,0.010526296,0.015738914,-0.0056473417,0.016929591,0.026995879,-0.02201895,-0.0023918534,-0.0054659494
0.01462877,0.05908681,0.025394896,0.025611877,0.010390118,0.015569683,-0.005719688,0.016935812,0.027003534,-0.022025865,-0.002368912,-0.005475642
0.014637721,0.059177477,0.025390739,0.025589583,0.010353809,0.015693065,-0.0057042176,0.016941467,0.027015788,-0.021989075,-0.0023955093,-0.00546409
0.014561036,0.059504293,0.025318014,0.025785372,0.010543366,0.01566263,-0.0055518225,0.01695777,0.02702184,-0.021974396,-0.0023902012,-0.005464074
0.014480937,0.059668675,0.025219172,0.025857821,0.010582294,0.015701106,-0.005526071,0.016968455,0.027032547,-0.021952791,-0.0023733946,-0.005461953
0.014527879,0.059378125,0.025350135,0.025546782,0.010254602,0.015305439,-0.005636956,0.016966155,0.027037766,-0.021906191,-0.002358545,-0.0054973476
0.014556781,0.059269555,0.025452144,0.025594518,0.010366383,0.015153002,-0.0055454005,0.016986571,0.027080009,-0.02181228,-0.0024227041,-0.0054948633
0.014636729,0.0591305,0.025369242,0.02557218,0.010275373,0.015333956,-0.0056140423,0.016963817,0.027023729,-0.02182813,-0.0024037817,-0.0055239988
0.014636452,0.059332393,0.025235197,0.025698349,0.010260178,0.015491208,-0.005596712,0.016966881,0.027055772,-0.021876752,-0.0023670997,-0.0055251447
0.014731213,0.05913988,0.025414363,0.025552459,0.010260573,0.015003057,-0.0055428175,0.016983347,0.026984276,-0.021901969,-0.0023632993,-0.0055198683
0.014782768,0.059070617,0.02540609,0.025445921,0.010227452,0.014979673,-0.005689086,0.016970217,0.02707504,-0.021955866,-0.0023651668,-0.0055492264
0.014712047,0.059330586,0.025295889,0.025590986,0.010252954,0.01489619,-0.0056356704,0.016969414,0.027055172,-0.021916747,-0.0023504214,-0.0055447235
0.014697584,0.059599523,0.025126828,0.025533803,0.010199369,0.015364954,-0.005682131,0.016947823,0.027058197,-0.021966435,-0.0023049973,-0.005558741
0.014731083,0.05987022,0.02502059,0.025521358,0.010175399,0.015173319,-0.005629479,0.016939541,0.026998114,-0.021940788,-0.00228351,-0.005560949
0.014789965,0.059504762,0.025252728,0.025399057,0.010172089,0.015191193,-0.0056562535,0.016936056,0.027030267,-0.021840056,-0.0023272794,-0.0055549215
0.014759835,0.059532505,0.025235487,0.02557427,0.010279451,0.015084745,-0.0055533093,0.016957803,0.027009828,-0.021761192,-0.0023232629,-0.00554892
0.014738102,0.059289202,0.02503038,0.025513848,0.010194294,0.015191561,-0.005706536,0.016949935,0.026990417,-0.021611653,-0.0023476104,-0.005550596
0.01492592,0.059679378,0.02478491,0.025816353,0.0103594875,0.015271396,-0.0056297923,0.016959857,0.027056014,-0.022182098,-0.0023010753,-0.005555652
0.015002914,0.05891217,0.024954164,0.025663024,0.010352149,0.015388508,-0.005669149,0.016946565,0.027059756,-0.022143768,-0.002273681,-0.00556531
0.015008717,0.05905922,0.024974087,0.025640655,0.010313069,0.015410689,-0.005678782,0.016950235,0.027038567,-0.022113057,-0.0022395048,-0.005566083
0.015007153,0.059139922,0.024991829,0.025562577,0.010305885,0.015413381,-0.005703591,0.01691887,0.027032536,-0.022097198,-0.002194813,-0.0055612945
0.014976488,0.059327036,0.024935985,0.025664603,0.010287755,0.015467849,-0.0057164463,0.016929649,0.027042829,-0.02204441,-0.0022457403,-0.0055587366
0.0149504235,0.059355043,0.024961274,0.025618015,0.010187548,0.0151081905,-0.00573617,0.016931042,0.02702828,-0.022053257,-0.002231669,-0.0055637974
0.014807129,0.05950741,0.025001021,0.025722561,0.010290158,0.014967941,-0.005671784,0.01694437,0.02703872,-0.022034816,-0.002260135,-0.00554052
0.014850252,0.059072785,0.025184343,0.025610147,0.010199749,0.014832191,-0.0056982366,0.01693132,0.027010402,-0.022014549,-0.0022446224,-0.005535023
0.014817667,0.059602387,0.025050972,0.025761053,0.010257213,0.014997594,-0.0056753764,0.01693168,0.027002646,-0.022042803,-0.0022430965,-0.005535209
0.014784544,0.05974178,0.025115201,0.025803888,0.010327825,0.015072959,-0.0056870375,0.016943015,0.027011996,-0.022007963,-0.0022756665,-0.0055233752
0.014824083,0.059726734,0.025012031,0.025834523,0.010336315,0.015127752,-0.00572724,0.016942808,0.026982801,-0.02202519,-0.0022997851,-0.005534732
0.014776008,0.05965721,0.02505891,0.025841536,0.010394224,0.015341773,-0.0056984583,0.016954679,0.026991155,-0.022049056,-0.0022902472,-0.005537562
0.014695518,0.060016874,0.024986923,0.025803352,0.010389923,0.015328947,-0.0056765466,0.01695324,0.027017293,-0.022034816,-0.0023223564,-0.005537565
0.014763912,0.059849232,0.024954267,0.025669435,0.010330499,0.015393163,-0.005656721,0.016946733,0.027037535,-0.022061365,-0.0023692686,-0.005542676
0.014853074,0.059843235,0.0249753,0.025763582,0.010370783,0.015402072,-0.005625997,0.01692999,0.02701366,-0.022088641,-0.0023435852,-0.005548257
0.014791342,0.05967011,0.02500047,0.025776468,0.01043717,0.015566235,-0.0055831666,0.016933821,0.02704052,-0.0221586,-0.0023705515,-0.0055623846
0.014845909,0.059704654,0.025012108,0.025860121,0.010491297,0.015612832,-0.005570276,0.016939865,0.027037252,-0.022150474,-0.0023517262,-0.0055582128
0.014824365,0.059926007,0.024942165,0.025829174,0.010558837,0.015450521,-0.005513103,0.016946882,0.02701483,-0.022141283,-0.0023450379,-0.0055532213
0.014863719,0.059694905,0.024913615,0.025677202,0.0105887875,0.0154365795,-0.0057003344,0.0169181,0.027032712,-0.022100762,-0.0023431834,-0.0055660177
0.014874358,0.0598021,0.024904335,0.02582686,0.010756479,0.0155367255,-0.0054702815,0.016935727,0.026997365,-0.022148792,-0.0023606021,-0.0055608335
0.014907302,0.0594513,0.024987206,0.025802583,0.010555316,0.015140457,-0.005521583,0.016942652,0.027013525,-0.022140905,-0.0023801806,-0.0055810013
0.01496462,0.05950375,0.024989417,0.025777707,0.010547152,0.015146219,-0.0055267853,0.016917065,0.027004944,-0.022175869,-0.0023490079,-0.0055720783
0.014917247,0.059193023,0.025011789,0.02593672,0.010537247,0.015237929,-0.0055147097,0.016913308,0.027017154,-0.022113992,-0.0023556454,-0.0055656093
0.014898025,0.058804378,0.025126262,0.025971884,0.010479164,0.015178903,-0.005599521,0.016909312,0.026998755,-0.022102598,-0.0023704963,-0.005564368
0.01483386,0.059105977,0.025176538,0.026030213,0.010492336,0.015173093,-0.0055229617,0.016918864,0.02699659,-0.02213633,-0.0022904482,-0.0055510825
0.014853625,0.059049807,0.02520916,0.025949012,0.010489759,0.015186124,-0.005576293,0.016895989,0.027040888,-0.021973105,-0.0023516994,-0.0055696433
0.015024128,0.059544142,0.025111916,0.0261287,0.010680306,0.015320918,-0.005440547,0.016922427,0.027095526,-0.022207959,-0.0023457652,-0.0055610575
0.014992914,0.059578903,0.025194537,0.026034165,0.010647726,0.015344748,-0.005458184,0.016924689,0.027062094,-0.022165827,-0.0023477504,-0.0055660517
0.015036181,0.059269052,0.025259364,0.02590434,0.010543418,0.0154094035,-0.005515454,0.0168865,0.027106784,-0.022161096,-0.0023064723,-0.0055916933
0.0150333075,0.05937379,0.025276083,0.02570037,0.010555964,0.015082562,-0.005490481,0.016883202,0.02709461,-0.02211146,-0.0022646897,-0.005587425
0.01502718,0.059500262,0.025159867,0.025820153,0.010555577,0.01535174,-0.0055341125,0.016881196,0.027117265,-0.021990374,-0.00225486,-0.005584504
0.015004609,0.05955038,0.025156112,0.025789013,0.010619547,0.015241374,-0.005518541,0.016878357,0.027112192,-0.021992244,-0.0022499338,-0.005590645
0.014927751,0.059651054,0.025159074,0.025827048,0.01052705,0.015212449,-0.0055091702,0.016874934,0.027108211,-0.021943104,-0.0022435966,-0.0055982983
0.014946761,0.059518814,0.025220461,0.025922975,0.010529356,0.015129179,-0.005478514,0.016868759,0.027106758,-0.021993322,-0.002254251,-0.0055851443
0.014925538,0.059725594,0.02520556,0.025947575,0.010563268,0.015355569,-0.0054309773,0.016880374,0.027121611,-0.02198709,-0.002286237,-0.00557323
0.014827709,0.05943456,0.025282113,0.02575968,0.010482675,0.015137549,-0.005497803,0.016860152,0.027099952,-0.0219803,-0.00221412,-0.005581271
0.014804777,0.05961457,0.0252695,0.025811756,0.010504902,0.015437637,-0.005499896,0.016861266,0.02712432,-0.02198012,-0.002254966,-0.005593989
0.014798079,0.059358567,0.025399357,0.02573751,0.010566868,0.015313876,-0.005400785,0.016872475,0.027091984,-0.0220549,-0.0022643253,-0.0055981446
0.014850281,0.059291136,0.025392218,0.025725294,0.010492374,0.015500225,-0.005460558,0.016873725,0.02710867,-0.021995805,-0.0022464972,-0.0055988687
0.014837219,0.059452772,0.02529874,0.025764603,0.010511554,0.015535332,-0.005484974,0.016879786,0.027121576,-0.021999085,-0.002237483,-0.0056169312
0.014859441,0.059396774,0.025396505,0.025587572,0.010514537,0.015306379,-0.0054457425,0.01689457,0.027108144,-0.02194667,-0.00226159,-0.005621023
0.014748213,0.059581507,0.025366656,0.025496447,0.010500919,0.015277466,-0.0055048787,0.016888145,0.027091958,-0.021969574,-0.0022358727,-0.00561271
0.014726962,0.05970713,0.025198096,0.0255074,0.010447733,0.014995828,-0.005491072,0.016895788,0.027071,-0.022018211,-0.002238059,-0.0056126313
0.014761462,0.059411883,0.025450692,0.025388248,0.010444839,0.01493751,-0.0054879216,0.016897673,0.027055938,-0.021968147,-0.002243102,-0.0056128795
0.014736193,0.059828635,0.02538416,0.025439292,0.010439582,0.01510436,-0.00545087,0.016907187,0.027079497,-0.021996703,-0.0022219562,-0.005610005
0.014783943,0.060031734,0.025323197,0.02548778,0.010524662,0.015185032,-0.0054635154,0.01690528,0.027110878,-0.022066822,-0.0022496332,-0.00561267
0.014759085,0.059473585,0.025529755,0.025243137,0.010491391,0.014808547,-0.0054317247,0.01691265,0.02706697,-0.022065258,-0.0022356692,-0.0056112595
0.014712028,0.059989512,0.025281357,0.025338134,0.010503883,0.015063822,-0.005460462,0.016907457,0.027089821,-0.022096911,-0.0022319932,-0.0056129154
0.014779908,0.05929584,0.025479812,0.025187796,0.01051728,0.015025113,-0.0055036764,0.01689756,0.027051952,-0.02201546,-0.0022517643,-0.005629999
0.014758618,0.059527665,0.025299316,0.025253851,0.010541751,0.01495764,-0.0053962246,0.016908305,0.027015572,-0.022028862,-0.0022355826,-0.0056263786
0.014823848,0.059272315,0.025350781,0.02521325,0.010480553,0.015104679,-0.0055183605,0.016886013,0.027034434,-0.021991111,-0.0022674734,-0.0056178016
0.014764178,0.05932581,0.025412906,0.025239026,0.010578158,0.015293198,-0.0053300504,0.016900826,0.027083041,-0.022111656,-0.002262553,-0.00561629
0.014727554,0.059591364,0.025331425,0.025280219,0.010376394,0.014999573,-0.0053444644,0.016867438,0.027073463,-0.02211113,-0.002199252,-0.00562517
0.014564126,0.06012243,0.02538048,0.025297482,0.010516966,0.015480085,-0.0051903925,0.016895318,0.027107133,-0.022114651,-0.0022098578,-0.005616627
0.01457987,0.059863657,0.025535341,0.025137067,0.010482084,0.015288901,-0.005174471,0.016889574,0.027061222,-0.022112167,-0.0022059563,-0.00562291
0.01457767,0.059827715,0.025359208,0.02517569,0.01052328,0.0157393,-0.0052343323,0.016881129,0.02707082,-0.022124419,-0.0021917487,-0.005628465
0.014600265,0.06013047,0.025308,0.02533511,0.010506244,0.015656233,-0.005237896,0.016869597,0.027082674,-0.02207676,-0.0021698957,-0.0056237984
0.014673001,0.059246603,0.025599374,0.025169503,0.010478405,0.015535702,-0.0053118323,0.01681773,0.02704872,-0.022046167,-0.00218278,-0.005634728
0.014660353,0.059554517,0.025463078,0.02539807,0.010477275,0.01558019,-0.0052662008,0.01681923,0.027043505,-0.022086564,-0.002148834,-0.0056350394
0.014597311,0.059805393,0.025310064,0.025369748,0.010480829,0.015682466,-0.0053326953,0.016843228,0.02707575,-0.022073133,-0.002178728,-0.0056339055
0.014594832,0.059421785,0.025350116,0.025283447,0.010490947,0.015428189,-0.005342702,0.016858343,0.027032213,-0.022024954,-0.002208007,-0.005641567
0.01453968,0.06016838,0.02521362,0.02542526,0.010507852,0.015518182,-0.00529763,0.01686713,0.027062975,-0.022146976,-0.0022144679,-0.005637605
0.014496361,0.060292177,0.025174912,0.025290683,0.010500813,0.015670102,-0.005317002,0.016848484,0.027097836,-0.022110043,-0.002162746,-0.0056407154
0.014432241,0.060159665,0.025103109,0.025297992,0.010534314,0.015272987,-0.0052874447,0.016849032,0.02703393,-0.022096979,-0.002174147,-0.0056431056
0.01451683,0.060076572,0.025176743,0.025168411,0.01058569,0.015720816,-0.005247512,0.01683666,0.02707914,-0.021977471,-0.0022922347,-0.005636205
0.014521752,0.06039202,0.025037332,0.025309017,0.010591538,0.015408088,-0.0051801763,0.01682539,0.027134309,-0.022170607,-0.0021870928,-0.005624032
0.014475673,0.05942694,0.025117928,0.0251586,0.010549233,0.015396224,-0.0054594046,0.016794764,0.027132753,-0.022043861,-0.0022349998,-0.0056508323
0.0144322775,0.05959346,0.025161438,0.02517571,0.010667865,0.01565642,-0.0053884317,0.016798753,0.027133109,-0.02203133,-0.0022691514,-0.0056486824
0.014380063,0.059900504,0.025072465,0.025173988,0.010611344,0.01560228,-0.0054228352,0.016799191,0.027126925,-0.021991463,-0.002244905,-0.0056526363
0.01428436,0.06020987,0.02502659,0.02523138,0.010639534,0.015722126,-0.005388992,0.016814554,0.027118156,-0.022018932,-0.00226855,-0.005649218
0.014358503,0.060310155,0.024943598,0.025373789,0.01068792,0.015883133,-0.005395823,0.01681715,0.02711,-0.022024179,-0.0022607606,-0.005640151
0.014325218,0.060152177,0.024992816,0.02524738,0.010740279,0.015745208,-0.0053871344,0.016808571,0.02709836,-0.022020116,-0.0022382208,-0.005637094
0.014321934,0.06034938,0.024992973,0.025192114,0.010796498,0.015839716,-0.005381378,0.016801346,0.02711454,-0.022056874,-0.0022121598,-0.0056373873
0.014314749,0.06066977,0.024913583,0.025298024,0.010856689,0.01595065,-0.0053273807,0.016804745,0.02714688,-0.02203976,-0.002179685,-0.0056388895
0.014329868,0.060346685,0.024957513,0.02528641,0.010896871,0.0159743,-0.005332858,0.016810793,0.027161682,-0.022071112,-0.0022308934,-0.005633781
0.01436695,0.06042849,0.024917956,0.025252167,0.010842974,0.016081851,-0.005373906,0.01681781,0.027165871,-0.022045154,-0.0022042186,-0.0056309984
0.014323641,0.06022342,0.024840407,0.025272675,0.01085658,0.0160398,-0.005402642,0.01681481,0.027176838,-0.022072755,-0.002222625,-0.0056342836
0.0143165225,0.060462948,0.024883779,0.025255674,0.010847722,0.016104514,-0.0053756903,0.016809318,0.027173067,-0.021969547,-0.0022267185,-0.005636264
0.014307773,0.06084769,0.024788005,0.025436392,0.010877312,0.01637595,-0.0053855204,0.016822547,0.027214639,-0.022029985,-0.0022247043,-0.0056347093
0.014470088,0.05993798,0.02508358,0.024968784,0.010828818,0.016036997,-0.0053834235,0.016785378,0.02714742,-0.021927394,-0.0022821126,-0.0056429314
0.014335559,0.06018286,0.024967443,0.02513233,0.010883196,0.016442686,-0.00532267,0.016784027,0.027190143,-0.022035873,-0.0022611069,-0.0056409696
0.014398412,0.060295098,0.024892822,0.025204714,0.010841926,0.016240977,-0.0053790654,0.016762212,0.027171971,-0.022080597,-0.0022252144,-0.00562911
0.01434058,0.059783235,0.025139729,0.025100945,0.010947206,0.016381212,-0.005352283,0.016761856,0.027149105,-0.021991687,-0.0022110657,-0.00562846
0.014328936,0.059766416,0.025216611,0.025091087,0.010787358,0.016117923,-0.0055007297,0.01674645,0.027176198,-0.02198159,-0.0021846262,-0.005628882
0.014270006,0.060025107,0.025132798,0.025214378,0.010866636,0.01614636,-0.0054327375,0.016768869,0.027186045,-0.02201372,-0.002193344,-0.0056188074
0.014302675,0.060098283,0.025103789,0.02523311,0.010752001,0.016039135,-0.005433328,0.01677134,0.027168669,-0.022001255,-0.0022207238,-0.0056275264
0.014342274,0.059871193,0.025114711,0.025254535,0.010886634,0.015990114,-0.0053889537,0.01675436,0.027199488,-0.022105046,-0.0022076613,-0.00561614
0.014346938,0.05993982,0.02512109,0.025351748,0.010827712,0.01611656,-0.0054295207,0.016742026,0.027161162,-0.022080446,-0.0021903012,-0.005612542
0.014365836,0.060021345,0.025233999,0.025241558,0.010871168,0.015789498,-0.0053896788,0.016728405,0.02714404,-0.022061964,-0.002192773,-0.0056058997
0.014340778,0.06038775,0.025093151,0.0253682,0.0109279845,0.016153581,-0.0054421094,0.016727518,0.027204059,-0.022120532,-0.0021945145,-0.005603267
0.014410854,0.06016811,0.025035862,0.02515878,0.010843424,0.01551194,-0.0054625585,0.016713567,0.027095,-0.02203853,-0.0022154495,-0.0056195464
0.014324125,0.060449235,0.02499179,0.025242765,0.0108826095,0.015591853,-0.0054212864,0.016744055,0.027145822,-0.022118296,-0.0021879028,-0.0056299428
0.0142686805,0.059481442,0.025331661,0.02487868,0.010856668,0.01595555,-0.0055221114,0.016734652,0.027063183,-0.021890404,-0.0022759174,-0.005626335
0.014233259,0.05936499,0.025236215,0.025315367,0.0113061825,0.014858829,-0.0051638368,0.016759481,0.027171727,-0.022078138,-0.0022082948,-0.005609802
0.014267835,0.059764754,0.024792807,0.025321528,0.011310595,0.015224108,-0.0053083454,0.01671249,0.027270196,-0.0221494,-0.0022608666,-0.0056178356
0.014218377,0.060059868,0.024827732,0.025398348,0.011271528,0.015365328,-0.0052511757,0.016728316,0.027243994,-0.02214794,-0.0022791983,-0.0056064483
0.01422502,0.06012385,0.02481633,0.025209693,0.011239117,0.015388004,-0.005220983,0.01671045,0.027223645,-0.022047538,-0.0022898766,-0.00563325
0.014222982,0.060207862,0.024854124,0.025114931,0.011139964,0.015146389,-0.0052482462,0.01672218,0.02719396,-0.022052264,-0.0022763072,-0.005633102
0.014164228,0.060446806,0.02476096,0.025244901,0.01116272,0.015373117,-0.00525009,0.016706746,0.02723818,-0.02205578,-0.0022868887,-0.0056259856
0.014186447,0.06032423,0.024837019,0.025236387,0.011144159,0.015290658,-0.0052568126,0.01673835,0.027187683,-0.02200217,-0.00227077,-0.0056370352
0.014125665,0.060685642,0.024798885,0.025353638,0.0111417025,0.015427165,-0.0052100243,0.016733969,0.027184675,-0.022002723,-0.0022747586,-0.0056361556
0.014191924,0.060187172,0.02482384,0.025150632,0.010989089,0.015170688,-0.005320328,0.016689524,0.027137445,-0.021976067,-0.0022629204,-0.0056585427
0.01405079,0.06080377,0.024704088,0.025305822,0.011041494,0.015494532,-0.00517555,0.016686812,0.02713945,-0.022028401,-0.0022645642,-0.005643817
0.014103132,0.060913473,0.024689507,0.025274502,0.010979644,0.01546497,-0.005116633,0.016688457,0.02711014,-0.022001661,-0.002268527,-0.005641879
0.014107022,0.060735196,0.024637735,0.025337614,0.011084642,0.015661199,-0.005156414,0.016704407,0.027097056,-0.022014217,-0.0022803263,-0.0056219385
0.014098551,0.06098798,0.024609063,0.0254679,0.011030479,0.015712889,-0.005115672,0.016682481,0.027068108,-0.021999806,-0.0022454867,-0.0056245234
0.014146176,0.060852576,0.024601074,0.025464052,0.010989436,0.01573332,-0.005098531,0.01667028,0.027058883,-0.022010576,-0.0022794898,-0.0056338
0.014216348,0.05989615,0.024808204,0.0252224,0.011074873,0.015450933,-0.0052909963,0.016639253,0.027008021,-0.021972258,-0.0023151662,-0.0056511885
0.0141155105,0.06031417,0.024752162,0.025325188,0.010981621,0.015387399,-0.00514669,0.016645296,0.026967907,-0.021997733,-0.0022774038,-0.005657369
0.01410746,0.060124017,0.024762554,0.025297694,0.010968828,0.01560451,-0.0052224593,0.016633887,0.02699382,-0.022003492,-0.0022805633,-0.0056664567
0.014149258,0.06005392,0.02487905,0.025247388,0.011026863,0.0155615825,-0.0052398993,0.016635517,0.026997346,-0.021983482,-0.0022844453,-0.0056618163
0.0140805915,0.06030283,0.02478803,0.025277982,0.0110268,0.015700359,-0.005239654,0.01663112,0.0270037,-0.021982217,-0.002278476,-0.0056572068
0.014169492,0.059988983,0.024871558,0.025248116,0.011067667,0.01561566,-0.0052718637,0.01661254,0.026982237,-0.021992208,-0.002291573,-0.005636441
0.014154035,0.060354963,0.02469459,0.025201948,0.010998138,0.015537553,-0.005259505,0.016609512,0.026925737,-0.0219571,-0.0022605842,-0.00563559
0.014197561,0.06036192,0.024754887,0.025093116,0.010929796,0.015564021,-0.005303139,0.016607992,0.026942438,-0.02194856,-0.002268247,-0.0056284717
0.014121319,0.06045138,0.024765564,0.025192952,0.011030702,0.015725413,-0.0053024655,0.016622717,0.02695221,-0.021940451,-0.0023143878,-0.0056301774
0.014034896,0.060941417,0.024773376,0.025243854,0.011014093,0.015807366,-0.005239468,0.016633935,0.026947567,-0.021918204,-0.002313004,-0.0056278654
0.01409892,0.06072763,0.02473152,0.025186304,0.010780106,0.015344056,-0.005372533,0.016581872,0.027002633,-0.021927454,-0.0022854756,-0.0056212116
0.014135491,0.060895104,0.024882006,0.025221813,0.010866744,0.015582509,-0.0049089654,0.016661564,0.026949728,-0.02191646,-0.002392189,-0.0056092804
0.014203287,0.060512442,0.02486534,0.02517622,0.010806464,0.015747527,-0.005161405,0.016633498,0.0269943,-0.021909663,-0.0023507762,-0.005655838
0.0141671505,0.060817685,0.024795156,0.025290389,0.010813433,0.015790442,-0.005119624,0.016641183,0.026958365,-0.021921063,-0.0023268613,-0.0056547876
0.014154393,0.060745563,0.02481073,0.025284238,0.010785358,0.015819632,-0.0051813074,0.016639048,0.026953941,-0.021939559,-0.0023409612,-0.0056566074
0.014188254,0.060759086,0.024822872,0.025332952,0.010760392,0.015831811,-0.0051697376,0.016627278,0.026927516,-0.02196486,-0.0023118348,-0.0056596864
0.014257069,0.060183838,0.025076289,0.02514266,0.010726763,0.015577325,-0.005195991,0.016621076,0.02693553,-0.021899993,-0.0023454756,-0.005685994
0.014173248,0.061040126,0.024921054,0.02528318,0.010700573,0.01561763,-0.0051574516,0.01662927,0.02694312,-0.021904334,-0.0022978764,-0.005684152
0.014102923,0.0610293,0.02489725,0.025293726,0.010713965,0.01567518,-0.005107437,0.01664344,0.026928537,-0.021880113,-0.0023089878,-0.0056750295
0.0141512705,0.06076602,0.024854328,0.025220152,0.010717979,0.015720157,-0.005154584,0.01661951,0.02689306,-0.021857865,-0.0022348093,-0.005682241
0.014116316,0.06097701,0.024740558,0.025228756,0.010779299,0.015922826,-0.0051666223,0.016611952,0.026921934,-0.02186474,-0.0022430301,-0.0056817774
0.014125658,0.06115597,0.024771322,0.025219217,0.010722632,0.015965784,-0.005095,0.016613545,0.02691025,-0.021873156,-0.0022137698,-0.005673804
0.014124912,0.06095539,0.024736522,0.025234414,0.010723008,0.016144631,-0.0051879026,0.016604574,0.02693389,-0.021935673,-0.0021979734,-0.0056766784
0.014144773,0.061072435,0.024785353,0.02515386,0.010763717,0.016029382,-0.005208778,0.016617352,0.026927903,-0.021979941,-0.0022422606,-0.005641083
0.014202836,0.060926866,0.024709927,0.025104372,0.010788671,0.015989624,-0.0052566295,0.01661802,0.026947848,-0.021945532,-0.0022260726,-0.0056352806
0.0142148,0.060770813,0.024722563,0.025109636,0.010825645,0.015974792,-0.0052546905,0.016636368,0.026889043,-0.021861315,-0.0022688187,-0.0056415536
0.014268884,0.06132135,0.024586616,0.025179503,0.010811173,0.016051145,-0.0052408874,0.016624032,0.026892554,-0.021905165,-0.0022482302,-0.0056317444
0.014226424,0.060379725,0.02481465,0.024761679,0.010794915,0.015709955,-0.0052951127,0.016667226,0.026882686,-0.021855908,-0.0023048196,-0.005621273
0.014255402,0.060752362,0.024771048,0.024784261,0.010853079,0.01583459,-0.00524046,0.016663311,0.026864791,-0.021916928,-0.0023048928,-0.005619132
0.014254071,0.061081473,0.024681777,0.024796937,0.0107668685,0.015742669,-0.0052696117,0.016652277,0.026863648,-0.02194166,-0.0022725177,-0.0056138975
0.014286385,0.06111614,0.02476355,0.024928425,0.010917223,0.015837487,-0.005250979,0.016664796,0.026912447,-0.022008853,-0.0022918086,-0.005604346
0.014274961,0.061075497,0.024788478,0.024826998,0.010810029,0.015781242,-0.005313883,0.016650101,0.026906298,-0.022001084,-0.002240671,-0.005621397
0.014234046,0.061027985,0.024761047,0.024874754,0.010851559,0.015923128,-0.005317469,0.01665566,0.026920998,-0.02205215,-0.002265524,-0.005628409
0.014285579,0.06111777,0.024746759,0.024970612,0.010797191,0.015882678,-0.005352461,0.01666954,0.02692694,-0.021998694,-0.0022736622,-0.0056202076
0.014130723,0.06076759,0.024739698,0.02504136,0.0108208135,0.015996143,-0.005371414,0.01664196,0.02692176,-0.021992067,-0.0022386638,-0.005618431
0.01412228,0.060759652,0.024789827,0.024965206,0.010839794,0.01586784,-0.0053284816,0.016654158,0.026893267,-0.022008644,-0.002276152,-0.005624806
0.014200412,0.060973164,0.024613567,0.025067102,0.0108597465,0.015930468,-0.00542245,0.016665133,0.026920313,-0.02208327,-0.0022697782,-0.0056451876
0.014222909,0.06103935,0.024517583,0.025139926,0.010757551,0.015712185,-0.005442478,0.016663656,0.026905762,-0.022055635,-0.0022209103,-0.005643043
0.014212721,0.06101104,0.024564367,0.025152907,0.010883817,0.015905201,-0.005417778,0.016691344,0.02689555,-0.022001462,-0.0022194937,-0.005642862
0.014224606,0.061148282,0.024475278,0.0252488,0.01091306,0.016061183,-0.005348885,0.016703162,0.026849078,-0.022019567,-0.0022161857,-0.00564039
0.014240457,0.060657345,0.024545358,0.025174767,0.010871728,0.015990788,-0.0054350947,0.01667156,0.026871206,-0.022005733,-0.0022107824,-0.0056784037
0.0142114,0.06095888,0.024418605,0.02524408,0.010873513,0.016116818,-0.0053940904,0.01667505,0.026881639,-0.02206101,-0.0021993755,-0.0056662615
0.014143448,0.060887348,0.024564177,0.025141194,0.010723865,0.015896223,-0.0053743324,0.016702246,0.026861126,-0.022031344,-0.0022027844,-0.0056663197
0.014132816,0.06090098,0.024500221,0.025192145,0.010787897,0.016197082,-0.0054116827,0.016702663,0.026910294,-0.022052463,-0.0021867433,-0.005663843
0.014198035,0.06093107,0.024468143,0.025088526,0.01078008,0.015896767,-0.005348919,0.01671827,0.026879046,-0.022061104,-0.0021725816,-0.005644273
0.014142226,0.06112931,0.024428748,0.02510731,0.0108308,0.016118132,-0.0053961407,0.016712917,0.026908003,-0.022066647,-0.0022162555,-0.005644933
0.0142132705,0.06077806,0.024585003,0.0248663,0.010874322,0.015934037,-0.005344068,0.016702825,0.02688505,-0.022022216,-0.002187709,-0.0056520603
0.01417349,0.06070756,0.024629992,0.024959693,0.010848092,0.015680222,-0.005399439,0.016676035,0.026899049,-0.022031352,-0.002153575,-0.005650959
0.014220919,0.06094509,0.024614457,0.025085367,0.010901786,0.015811404,-0.0053483425,0.01673173,0.026910802,-0.021948857,-0.0022000226,-0.005639058
0.014260112,0.060830865,0.024571124,0.025002217,0.01089854,0.015745757,-0.005415624,0.016687548,0.02689397,-0.021928305,-0.0021474774,-0.0056750225
0.014238822,0.06071872,0.024621602,0.025147608,0.010887163,0.015788704,-0.0054908697,0.016692217,0.026930468,-0.021931281,-0.0021171544,-0.0056760525
0.014239994,0.06101931,0.024508625,0.025286077,0.010842447,0.015890203,-0.005440613,0.016721597,0.026908258,-0.021910027,-0.0021626598,-0.0056727277
0.014175917,0.061018307,0.024518268,0.025269685,0.0109565845,0.015800403,-0.005329005,0.016759215,0.026914753,-0.021828525,-0.002142299,-0.005678321
0.014317547,0.060913566,0.024521966,0.025171533,0.010896298,0.015847845,-0.0054753167,0.016719375,0.026919689,-0.021832615,-0.002163874,-0.0056771534
0.014276878,0.061114054,0.02442366,0.025179006,0.011063253,0.016125169,-0.0053641456,0.016775452,0.026958836,-0.021980071,-0.0021999467,-0.0056824335
0.014351636,0.06050454,0.024613762,0.02486169,0.011047315,0.015926326,-0.0054577296,0.01678485,0.02688497,-0.021992095,-0.0021770876,-0.0056940727
0.014253475,0.06087419,0.024418494,0.025100242,0.010983624,0.016150083,-0.0054250876,0.016798018,0.026913166,-0.021985086,-0.0021450135,-0.0057049086
0.014320357,0.06105218,0.02439452,0.025142951,0.0109501695,0.01604875,-0.005460917,0.016764464,0.026896585,-0.022075424,-0.0020880196,-0.0057095597
0.014348065,0.06091517,0.024529397,0.02493186,0.011027284,0.01619313,-0.00540021,0.016748615,0.026930146,-0.02199388,-0.0021389714,-0.005687
0.014384347,0.0609976,0.024381073,0.024992835,0.010896785,0.01586971,-0.00548635,0.016728202,0.026948376,-0.022006495,-0.002102637,-0.005693012
0.014450439,0.06106599,0.024225939,0.024975318,0.0110485405,0.015920112,-0.00533331,0.01674651,0.026937388,-0.022051781,-0.0020920306,-0.0057102046
0.014500062,0.06103456,0.024141517,0.024869116,0.010933681,0.015846226,-0.005455557,0.016727027,0.026950486,-0.022000555,-0.0021099397,-0.0057565356
0.014491217,0.061183985,0.024161642,0.024891537,0.0109261,0.015754314,-0.005450272,0.01674753,0.026938617,-0.021995427,-0.0021260323,-0.0057537537
0.014536715,0.06119277,0.02419692,0.024821443,0.01096166,0.015631886,-0.005410957,0.01672897,0.026917635,-0.022047225,-0.0020845237,-0.0057343203
0.014568232,0.061323307,0.024133978,0.024875922,0.0109438775,0.015659157,-0.005480117,0.016720766,0.026960324,-0.022067385,-0.0021132687,-0.0057489574
0.014496972,0.06132393,0.024217054,0.024795698,0.010962839,0.015653983,-0.005431081,0.01674959,0.026924646,-0.02204389,-0.002133166,-0.005736499
0.01440596,0.061459757,0.02416352,0.024883738,0.010968026,0.015848413,-0.005430789,0.016745342,0.026906097,-0.022064775,-0.0021302518,-0.005747301
0.014450376,0.061372902,0.024249662,0.024651296,0.0109113315,0.015489963,-0.005412449,0.016729873,0.026905894,-0.022064067,-0.0021143458,-0.005747538
0.014415505,0.061530486,0.024159549,0.02469531,0.01102414,0.015787981,-0.0053609144,0.016734686,0.026949257,-0.022029411,-0.0021461293,-0.0057348767
0.014430785,0.061552312,0.024067074,0.024677034,0.010933992,0.015547146,-0.005397939,0.016718058,0.026931347,-0.022035237,-0.0020796133,-0.005723076
0.014351126,0.061427716,0.024038585,0.024537783,0.01101591,0.015620497,-0.0054161684,0.01674872,0.026942946,-0.021991264,-0.002124369,-0.005713871
0.014401965,0.06147047,0.023926463,0.024636285,0.010938041,0.015471589,-0.005387021,0.016709253,0.026948392,-0.022004377,-0.0021399562,-0.0057062083
0.014431441,0.061240837,0.024019731,0.024562942,0.010948622,0.0154722715,-0.0054947776,0.016692378,0.026962547,-0.02197702,-0.002167584,-0.005703358
0.014400367,0.06161577,0.024058344,0.024624841,0.0110437805,0.015560075,-0.0054619107,0.01671797,0.026926365,-0.022003986,-0.0021336325,-0.00569265
0.014277344,0.061827704,0.023970174,0.024573375,0.010955958,0.015436872,-0.0054073683,0.016730154,0.026919985,-0.021998934,-0.0021437334,-0.0057014576
0.014274609,0.06150617,0.024142897,0.024489291,0.010939263,0.015489553,-0.005545192,0.016743546,0.026909146,-0.02195105,-0.0021241647,-0.0056961225
0.014298201,0.061259147,0.024077296,0.02453871,0.010933524,0.015418149,-0.005503979,0.016773613,0.026849685,-0.021926092,-0.0021608719,-0.005695236
0.014327388,0.061221614,0.024146965,0.024597416,0.011022582,0.015381537,-0.005475616,0.016770033,0.02688457,-0.02214063,-0.0021787668,-0.0056903646
0.014352453,0.06118725,0.024105422,0.024669115,0.011044462,0.015525455,-0.005512886,0.016758226,0.026885318,-0.022144262,-0.0021350665,-0.005680402
0.014217988,0.06117141,0.02422286,0.024619186,0.010969042,0.015466614,-0.005499839,0.016754802,0.026867619,-0.02214952,-0.0021747209,-0.005684293
0.014244874,0.061309837,0.024295527,0.024656644,0.010968378,0.015578519,-0.005528877,0.01673533,0.026868084,-0.022124691,-0.002131251,-0.005687151
0.014211804,0.061097723,0.024266314,0.024525255,0.011008203,0.015528036,-0.005520003,0.016775385,0.026813712,-0.022104964,-0.0021923468,-0.005668983
0.014244171,0.061408654,0.02415192,0.024678968,0.011002128,0.015393699,-0.005477941,0.016756361,0.026825182,-0.022107823,-0.002175738,-0.005665371
0.014296236,0.061434958,0.024047557,0.024721267,0.011017855,0.015779966,-0.005516119,0.016743205,0.026873494,-0.022050332,-0.0021728154,-0.0056599076
0.014223985,0.06150941,0.024177285,0.024618844,0.011026785,0.015889958,-0.005488263,0.016767092,0.02690036,-0.022075722,-0.00219472,-0.0056473454
0.014244301,0.061378185,0.024131134,0.024457721,0.010916885,0.015335264,-0.0054418417,0.016729608,0.026785566,-0.022095094,-0.002175271,-0.0056553097
0.014185566,0.061141625,0.024003651,0.024429869,0.010991586,0.015754268,-0.0055079577,0.016726539,0.026840726,-0.02210415,-0.0022000214,-0.005662739
0.014120545,0.061325025,0.024023969,0.024520807,0.011089986,0.015787903,-0.005335445,0.016766539,0.026832078,-0.022090102,-0.002209303,-0.0056591365
0.0140326265,0.061105736,0.024059145,0.024507025,0.0110061625,0.015647853,-0.005413309,0.016749289,0.026830457,-0.021993527,-0.0021940114,-0.005654452
0.014111092,0.06163438,0.024008118,0.02478547,0.011046454,0.015694946,-0.005308422,0.01675816,0.026840022,-0.022091025,-0.002178004,-0.005654323
0.01412089,0.06166209,0.024008732,0.02451799,0.011000683,0.015549748,-0.005321619,0.016748974,0.02677211,-0.022039702,-0.0021340514,-0.005665404
0.014164387,0.06126593,0.02413356,0.024412613,0.01102667,0.015541722,-0.005298583,0.016755182,0.026811901,-0.022253927,-0.0021343585,-0.0056672106
0.014122921,0.06151134,0.02411732,0.024438353,0.0110677155,0.015676094,-0.0052460874,0.016765604,0.026831564,-0.022229759,-0.0021393248,-0.005669685
0.014051276,0.061645385,0.02403248,0.024522088,0.0110076275,0.015602193,-0.0053042797,0.016767103,0.026861958,-0.022212867,-0.0020977976,-0.0056551388
0.0140384035,0.061938033,0.02400013,0.024565114,0.011028015,0.015630962,-0.005236213,0.016793458,0.026834937,-0.022246545,-0.0020887796,-0.005648903
0.014018224,0.06173704,0.023912942,0.024644261,0.011052011,0.015529747,-0.0053624203,0.016784018,0.02685844,-0.022329597,-0.0020835635,-0.0056488607
0.01402904,0.06185125,0.023910196,0.024621397,0.011093165,0.015601216,-0.005362568,0.016787395,0.02683734,-0.022269865,-0.0020982386,-0.0056511504
0.014129466,0.061951745,0.023874754,0.024541609,0.011168348,0.015310489,-0.005330648,0.016780447,0.02682002,-0.022301901,-0.0021199426,-0.0056548226
0.014047714,0.06225518,0.023725191,0.024705298,0.011135603,0.015514864,-0.005322504,0.016801437,0.026827592,-0.022278182,-0.0021089385,-0.0056377403
0.014044369,0.06200788,0.023859965,0.02464012,0.011082059,0.01540554,-0.0054470194,0.016798526,0.026790038,-0.022259144,-0.0020746482,-0.0056386907
0.014074723,0.06205249,0.023789722,0.024651974,0.011208205,0.015543951,-0.0054061236,0.016816676,0.026762564,-0.022290567,-0.0020783958,-0.0056424565
0.014214925,0.06187319,0.023801092,0.024593396,0.011221391,0.015467055,-0.005438409,0.016810825,0.026786232,-0.022302551,-0.0020929086,-0.005651556
0.014176364,0.061677027,0.02385804,0.02464467,0.011248008,0.015353805,-0.005413762,0.016825425,0.026769131,-0.02223162,-0.0020790587,-0.005647396
0.0141863795,0.061976884,0.023827158,0.024694007,0.011235186,0.015449129,-0.005385451,0.01681511,0.026759047,-0.022259375,-0.0020666006,-0.0056467173
0.014211577,0.06237461,0.023916973,0.024428235,0.011249633,0.015451053,-0.005352695,0.016799808,0.026797438,-0.02232056,-0.0020697683,-0.0056446036
0.014197429,0.062200602,0.023889298,0.024401058,0.011275559,0.015614242,-0.0054401825,0.016791962,0.026815886,-0.022283899,-0.0020796908,-0.0056585837
0.01436702,0.06198421,0.023931583,0.024428831,0.01127698,0.015508002,-0.0053336304,0.016773261,0.02681132,-0.022170935,-0.0020787092,-0.0056528803
0.014331302,0.06180703,0.023916692,0.02446307,0.011323502,0.015514637,-0.0053799907,0.016773619,0.026817942,-0.022156829,-0.0020780172,-0.005650643
0.014345363,0.06208446,0.02380743,0.0244055,0.011329922,0.015626037,-0.0053303405,0.016769538,0.02683248,-0.022210276,-0.0020598995,-0.0056448304
0.014357654,0.06154381,0.024004452,0.02435943,0.011232982,0.015412124,-0.0053714244,0.01675666,0.02678735,-0.02214953,-0.0020487213,-0.0056477273
0.0143046435,0.062028654,0.023778824,0.02453764,0.011263667,0.015562837,-0.0053251013,0.016766112,0.026834551,-0.022227155,-0.0021048845,-0.005636168
0.01419786,0.061483126,0.023868585,0.024425803,0.011314456,0.015553033,-0.0053095925,0.01674515,0.026721057,-0.02217008,-0.002091958,-0.005631181
0.014138763,0.06173489,0.023830244,0.024531256,0.0112576345,0.015559415,-0.005352601,0.016735025,0.026745489,-0.022187782,-0.0020822308,-0.005620591
0.014205241,0.06177903,0.023809891,0.024588672,0.011317601,0.015827967,-0.005344599,0.01673983,0.026751531,-0.022250803,-0.0021089066,-0.005631288
0.014255397,0.061733022,0.02378068,0.024563292,0.0112546235,0.015848653,-0.0053611877,0.01671776,0.02673525,-0.022279102,-0.00211105,-0.005637868
0.014231846,0.06152411,0.023816908,0.02453118,0.011262641,0.01593584,-0.0054446193,0.016728906,0.026820159,-0.0222776,-0.002128225,-0.0056256396
0.014271699,0.06097567,0.023910526,0.02453669,0.011296392,0.0155723095,-0.0053759213,0.016724505,0.026705937,-0.02225304,-0.0020950935,-0.00562558
0.014268393,0.0609784,0.023895912,0.024610966,0.01133362,0.015817877,-0.0053990427,0.016741829,0.026755184,-0.022320537,-0.0021363043,-0.0056297965
0.014193078,0.06087933,0.023986032,0.02440281,0.01120238,0.015695713,-0.0054122927,0.016739579,0.026733723,-0.022254849,-0.0021350272,-0.005640084
0.014039349,0.06126549,0.024029583,0.024559133,0.011251058,0.015675476,-0.005303246,0.016739363,0.0267441,-0.02229126,-0.0020887072,-0.005646107
0.014096072,0.061162416,0.024104886,0.024545956,0.011314869,0.015958866,-0.0053593097,0.016749874,0.02678287,-0.022339964,-0.0021061208,-0.0056595886
0.014030786,0.061645493,0.023893323,0.024691205,0.0112447115,0.015970957,-0.005325624,0.016744306,0.026767103,-0.022369983,-0.0021092154,-0.0056631197
0.013970826,0.062070377,0.023754422,0.024793968,0.011239771,0.016127495,-0.0053251795,0.01678931,0.026821444,-0.022338482,-0.0021674195,-0.0056597283
0.014079432,0.062052432,0.023787405,0.024797719,0.011230959,0.016160762,-0.0053523374,0.016751042,0.026819462,-0.02232175,-0.0021467342,-0.0056964466
0.014188458,0.061431233,0.023982067,0.024518117,0.011223647,0.015978599,-0.0054227053,0.016700886,0.026809914,-0.022340938,-0.0020957692,-0.005706266
0.014119719,0.06177789,0.023892188,0.024615433,0.011231823,0.01614531,-0.005380296,0.016717916,0.026802214,-0.022275211,-0.0021332058,-0.005713595
0.014141371,0.061753206,0.023975521,0.024597334,0.011278605,0.016264714,-0.0053503113,0.016732085,0.026792502,-0.022323966,-0.002169167,-0.0056976355
0.014379614,0.060948536,0.024156628,0.02443261,0.011160559,0.015886389,-0.005580203,0.016683992,0.026802,-0.02233997,-0.0021379185,-0.0057158573
0.0141723845,0.06155712,0.024025476,0.0245583,0.011189717,0.015947577,-0.0053595626,0.016707335,0.026796322,-0.022434203,-0.002150387,-0.0057096775
0.01406139,0.061459426,0.024108995,0.0245794,0.011203798,0.016076628,-0.005342696,0.01672687,0.026737578,-0.022414282,-0.0021480757,-0.0057063964
0.014132256,0.061362,0.024227064,0.024340622,0.011191281,0.015981883,-0.005536616,0.016712816,0.026769426,-0.022449857,-0.0020888231,-0.005713939
0.014029908,0.061699327,0.024008319,0.024417434,0.011195062,0.016240222,-0.0055336803,0.016735353,0.026773654,-0.022372814,-0.0021159928,-0.005713137
0.013998713,0.061908696,0.02402011,0.024422273,0.011157155,0.016228456,-0.005511591,0.016741086,0.02678854,-0.022418829,-0.002097346,-0.0057102307
0.014073238,0.062089935,0.023980921,0.024431951,0.011119431,0.016295508,-0.005490853,0.016722832,0.026725791,-0.022370273,-0.0021205891,-0.0057121553
0.013977091,0.06218597,0.023916816,0.024436636,0.0110444175,0.016147973,-0.0054604006,0.016737917,0.026747987,-0.022388263,-0.002075723,-0.005709862
0.014115737,0.06130287,0.024131969,0.024338845,0.011148279,0.016373906,-0.005470546,0.01675622,0.02673236,-0.022416653,-0.002220698,-0.00571343
0.014158047,0.061760154,0.023886574,0.024563678,0.011092233,0.01613981,-0.005344987,0.01676369,0.026796464,-0.022436628,-0.0022004799,-0.005696935
0.014168023,0.061152443,0.024096904,0.024378628,0.011163141,0.016069734,-0.005471091,0.016747601,0.026763784,-0.022314208,-0.002180833,-0.0057158684
0.014162971,0.061341915,0.024092391,0.024407314,0.011159421,0.016006041,-0.0054693753,0.016733566,0.026757246,-0.022317376,-0.0021516182,-0.0057102847
0.014166239,0.061326,0.024049284,0.024446616,0.0111507,0.016013427,-0.0054843924,0.016732609,0.026739601,-0.02234337,-0.0021204776,-0.005710892
0.014107734,0.06151154,0.02398853,0.024601135,0.01117066,0.016165506,-0.005473435,0.016729051,0.026728684,-0.022362446,-0.0021095283,-0.0057039135
0.014185673,0.06132631,0.024209494,0.024143362,0.011103413,0.015830442,-0.0055517433,0.016655115,0.026730943,-0.022309681,-0.0021242984,-0.0057211816
0.014051296,0.06190665,0.02398417,0.024304101,0.011120043,0.016031357,-0.0054461015,0.016661521,0.026742406,-0.022598762,-0.002101913,-0.0057194387
0.014032962,0.062255416,0.023867508,0.024478596,0.011093931,0.016089128,-0.0055227834,0.016658572,0.026789835,-0.02261539,-0.0021208602,-0.0057207383
0.014134194,0.06239681,0.023720022,0.024484051,0.011220913,0.016041107,-0.005318079,0.016670497,0.02659247,-0.022505637,-0.0021301317,-0.005710761
0.014120559,0.061434276,0.023991179,0.024390617,0.011116223,0.015815971,-0.0055198455,0.01668297,0.02665125,-0.022413403,-0.0022084718,-0.005717547
0.013981608,0.06218853,0.023649884,0.024698477,0.0110529745,0.016019318,-0.0054208827,0.01669121,0.026699742,-0.022501955,-0.0021898663,-0.005706425
0.013983629,0.06241445,0.02362708,0.0247645,0.011032131,0.015971772,-0.005446295,0.016680455,0.026693473,-0.022477012,-0.0021465037,-0.005701828
0.014176614,0.062243767,0.023787258,0.024651023,0.011099734,0.015954673,-0.0055481703,0.016642941,0.026652368,-0.022467772,-0.002028647,-0.0056897323
0.014268978,0.06216685,0.023711506,0.02478453,0.011162356,0.016233113,-0.005604334,0.016648725,0.0267194,-0.022437137,-0.0020689138,-0.0057098577
0.014307912,0.06228976,0.02360087,0.024746291,0.01111615,0.016154528,-0.0056302994,0.016673218,0.026737697,-0.02246176,-0.0020756982,-0.0057121194
0.014380883,0.06227519,0.02363926,0.024639364,0.0111287935,0.016018633,-0.0056793736,0.016665941,0.026782736,-0.022430843,-0.0020648781,-0.0057173357
0.014343759,0.0621836,0.023659555,0.02476833,0.011114894,0.016019305,-0.005647814,0.016694741,0.02668591,-0.022412714,-0.002045036,-0.00571254
0.014385887,0.062508106,0.023577757,0.02482602,0.011110011,0.016190149,-0.005636889,0.016695522,0.026683135,-0.02237739,-0.002085573,-0.005720057
0.014406647,0.062590376,0.023538258,0.024915216,0.011114542,0.016388716,-0.0056302184,0.016662825,0.026758058,-0.022423629,-0.0020674434,-0.0057299295
0.014383404,0.0620668,0.023612026,0.024812972,0.011202046,0.0163352,-0.0056577255,0.01667417,0.026726862,-0.022345716,-0.0020866496,-0.0057224734
0.0144385975,0.062524,0.023567438,0.024869487,0.011203782,0.016300252,-0.0056463177,0.016675387,0.026764773,-0.022476796,-0.0020634406,-0.0057412162
0.014434653,0.062941596,0.023639496,0.024835093,0.011279907,0.016416192,-0.00561103,0.016661113,0.026818357,-0.022460517,-0.002102916,-0.005739721
0.014312701,0.06157082,0.023961263,0.024283497,0.011225991,0.015990516,-0.005600269,0.016692532,0.026732065,-0.022436427,-0.0021112314,-0.0057589286
0.01433472,0.06205766,0.023746587,0.024394855,0.011264551,0.01621252,-0.005568916,0.016681686,0.026737524,-0.022393284,-0.0021104012,-0.00576445
0.014249331,0.062248707,0.023791287,0.024367625,0.011219693,0.016237874,-0.0055810283,0.016673325,0.026724346,-0.022348728,-0.0020613943,-0.0057629044
0.014360065,0.06200243,0.023836952,0.02444145,0.011244117,0.015736409,-0.0053462256,0.016667997,0.026746247,-0.02244564,-0.0020783711,-0.0057555004
0.014324531,0.06166844,0.023943715,0.024450347,0.011298568,0.015964815,-0.005432875,0.016659392,0.026786657,-0.022393392,-0.0020791094,-0.005793197
0.01431368,0.062034898,0.023889821,0.02446668,0.011237816,0.015516945,-0.005411805,0.016667455,0.02676466,-0.022427617,-0.0020157897,-0.0057937093
0.014174044,0.06217514,0.02395671,0.024478434,0.011250886,0.0156593,-0.005299641,0.016665868,0.026793692,-0.022348696,-0.002092592,-0.0057763467
0.014219028,0.062017675,0.023936687,0.024496412,0.011225018,0.01569345,-0.0053092553,0.016669516,0.026755089,-0.022319397,-0.0020590378,-0.0057672164
0.0141075095,0.06228995,0.023903556,0.0245005,0.011238153,0.016007664,-0.0053006615,0.016695157,0.026764994,-0.022267554,-0.002065143,-0.0057594073
0.014134763,0.06235738,0.024062226,0.024478305,0.011153906,0.01575474,-0.005213145,0.016721735,0.02683431,-0.022237543,-0.0020422891,-0.0057329526
0.014150431,0.062152687,0.024095967,0.024466366,0.011201983,0.015818525,-0.005264957,0.016735775,0.026853943,-0.022200184,-0.0020486787,-0.0057337536
0.01414089,0.06204096,0.024050457,0.024514435,0.011139699,0.015588165,-0.0052839722,0.01670515,0.026829166,-0.022218835,-0.0020293253,-0.0057254913
0.014088908,0.062232383,0.024064798,0.024571557,0.011132876,0.01582194,-0.0052814567,0.016695999,0.02680032,-0.022200052,-0.0020285195,-0.005733934
0.014154132,0.062082123,0.024112802,0.024458446,0.011157451,0.015633026,-0.0053010196,0.016674818,0.026762543,-0.02223675,-0.0019701102,-0.0057338537
0.014151405,0.062330153,0.02397126,0.024595268,0.011139917,0.015868803,-0.0053477697,0.016672662,0.026792299,-0.022249943,-0.001993635,-0.005730243
0.014102223,0.06248796,0.024013335,0.024642982,0.011190754,0.015955245,-0.0053407704,0.016696505,0.0267891,-0.022257827,-0.0019724825,-0.00573798
0.01416604,0.062559195,0.024145378,0.024658952,0.0112349745,0.015964687,-0.0052819764,0.016710652,0.026780084,-0.022298828,-0.0019794733,-0.005719131
0.014052186,0.06275497,0.024147505,0.024791785,0.011246379,0.016144458,-0.005385327,0.016728288,0.026823243,-0.022221968,-0.0020111091,-0.005720501
0.014011475,0.06296025,0.024089813,0.024908695,0.011289183,0.01613009,-0.005332232,0.016713098,0.026862718,-0.022230128,-0.0019690308,-0.005728884
0.013967322,0.063086584,0.024106836,0.024896588,0.011250533,0.016062355,-0.005272694,0.016689567,0.026862165,-0.022238074,-0.0019772456,-0.0057400465
0.01397655,0.062471926,0.024132343,0.024904689,0.011315683,0.016046876,-0.0052859136,0.016699022,0.026874766,-0.022258844,-0.0019461253,-0.0057605854
0.014002615,0.06236168,0.024092244,0.024968889,0.011359231,0.015802696,-0.0052510733,0.016697213,0.026837742,-0.02227269,-0.0019512268,-0.005760709
0.01398769,0.062604345,0.024074968,0.025041744,0.011399706,0.01585834,-0.0053511863,0.016699117,0.026828649,-0.02223685,-0.001916859,-0.0057596103
0.013993511,0.062710255,0.024099357,0.025020806,0.011376015,0.015926158,-0.004993863,0.016753452,0.026779104,-0.022316657,-0.0019545108,-0.0057515656
0.014219741,0.061646383,0.024130462,0.024909494,0.011248996,0.015820757,-0.005347663,0.016644072,0.026840458,-0.022214612,-0.002044494,-0.005772314
0.013987325,0.06286563,0.02390851,0.025176836,0.011305866,0.015949301,-0.0051809847,0.016671976,0.026863448,-0.022407278,-0.002000027,-0.005751961
0.013945873,0.062826864,0.02381783,0.025248185,0.011285135,0.015950965,-0.005165849,0.0166645,0.026828561,-0.022369746,-0.0020190515,-0.005744288
0.0139918225,0.062931985,0.0237625,0.025231285,0.011302591,0.016053263,-0.0051425626,0.01666327,0.026813582,-0.022351906,-0.0019983102,-0.0057409117
0.014003769,0.06238386,0.02385103,0.025131786,0.011304035,0.015894001,-0.005175895,0.01666607,0.02676792,-0.022335378,-0.0020416027,-0.0057327203
0.013985599,0.062492315,0.023786455,0.02514195,0.011337085,0.015877143,-0.0051738024,0.016700715,0.026769176,-0.022365604,-0.0020502955,-0.0057317866
0.014024502,0.0627159,0.023694262,0.025181757,0.011355383,0.015867593,-0.0051790806,0.016687648,0.026757797,-0.0223502,-0.0020347661,-0.0057297517
0.014021382,0.06288563,0.023584858,0.025201589,0.0113090575,0.015848553,-0.0052470095,0.016701445,0.026793184,-0.022324521,-0.0020053382,-0.0057414905
0.014058069,0.06263933,0.02374167,0.025097968,0.011417665,0.015931115,-0.0052817888,0.01668815,0.026752302,-0.022326324,-0.0020201716,-0.005735603
0.014108176,0.062522486,0.023728812,0.025136938,0.011397276,0.015815588,-0.005335601,0.01666073,0.026697664,-0.022308795,-0.0019699503,-0.005729146
0.014139396,0.06267677,0.023658443,0.0252442,0.011389944,0.01589362,-0.00530111,0.016689971,0.026767738,-0.02234414,-0.0020349245,-0.0057011778
0.014187152,0.062573105,0.02368695,0.025275776,0.011390895,0.015870808,-0.0054736873,0.016685111,0.026812058,-0.022288015,-0.002001027,-0.005703445
0.014191744,0.06241002,0.023842826,0.025169047,0.011367092,0.015737625,-0.0053649903,0.016727693,0.026727948,-0.022365293,-0.0020517504,-0.0056869425
0.0142732775,0.06222053,0.023935618,0.025247052,0.011411392,0.016000343,-0.00541401,0.016690811,0.026766926,-0.022379132,-0.0020680116,-0.005682569
0.014328696,0.06231732,0.023771953,0.025441296,0.011376162,0.015872182,-0.005425102,0.016693233,0.026749538,-0.022366058,-0.0020446253,-0.0056770295
0.014188665,0.062226336,0.023844326,0.025380319,0.011487684,0.015996354,-0.005418697,0.016719755,0.02676968,-0.022398975,-0.0020851525,-0.005698308
0.014186733,0.062209915,0.023757588,0.02534326,0.011390957,0.015940536,-0.005446457,0.016694263,0.026716156,-0.022378368,-0.0021086938,-0.0056949183
0.014074619,0.062214386,0.023731943,0.025368769,0.01146221,0.016216652,-0.005435061,0.016737057,0.026702503,-0.022342151,-0.002134855,-0.00569323
0.014065607,0.06251493,0.023634976,0.02537577,0.011286758,0.0157152,-0.005440573,0.016726999,0.026688641,-0.022389263,-0.0021221165,-0.0056847422
0.014003423,0.062785976,0.023574261,0.025508199,0.011308454,0.01602183,-0.005440429,0.016734568,0.026711678,-0.022447003,-0.0021065988,-0.0056887493
0.014078917,0.06255606,0.023511482,0.02541771,0.01129266,0.015864177,-0.0054750927,0.016735295,0.026717402,-0.022351854,-0.0021354784,-0.005690813
0.014174249,0.06272496,0.02358227,0.025476908,0.011304601,0.015754875,-0.00541668,0.01673704,0.026807183,-0.022565268,-0.0021734592,-0.0056810216
0.014330353,0.062422168,0.023734758,0.025395323,0.011365988,0.016022373,-0.0053888895,0.016722264,0.026783414,-0.02246871,-0.0022142346,-0.0056861416
0.014367525,0.06264142,0.023586221,0.02525734,0.011257586,0.015807172,-0.005319032,0.01673128,0.02681208,-0.022548204,-0.0022151328,-0.0056958054
0.014250726,0.06272227,0.023489388,0.025209136,0.01127309,0.015784528,-0.0053346856,0.016734907,0.026797734,-0.022492321,-0.0022146744,-0.0056845373
0.01416519,0.06308126,0.023384767,0.025365658,0.01128036,0.01577438,-0.0053078905,0.01673973,0.026771568,-0.02251919,-0.0022343802,-0.00568387
0.014086074,0.063211136,0.02331097,0.025233068,0.0111572,0.015900614,-0.005395413,0.016714342,0.026781578,-0.022460265,-0.0022090045,-0.005699466
0.014070034,0.06325159,0.023541858,0.025158847,0.011208281,0.015603907,-0.0053020967,0.016724287,0.02675378,-0.022429524,-0.0022120955,-0.0056843082
0.01417451,0.06273979,0.023525156,0.025069414,0.01117993,0.0156855,-0.005301604,0.016725842,0.026772361,-0.022379456,-0.0022534817,-0.0056687784
0.014160164,0.063112214,0.023445183,0.025230153,0.01118886,0.015606906,-0.005257488,0.016720489,0.026767755,-0.022383407,-0.0022207783,-0.005670922
0.01407919,0.06324308,0.023551472,0.025118692,0.0112514105,0.015600709,-0.005245053,0.01674181,0.02676121,-0.022402529,-0.0022099393,-0.005658953
0.014043381,0.063132256,0.023537146,0.025000352,0.011122299,0.015591562,-0.0054108878,0.016747259,0.026790276,-0.02230822,-0.002194822,-0.0056763627
0.014017476,0.0629666,0.023663586,0.025109215,0.011145378,0.015356567,-0.0052972115,0.016755752,0.026788548,-0.02234611,-0.0022056717,-0.0056536077
0.013925948,0.06309676,0.023670092,0.024884207,0.011092517,0.0155021325,-0.005368668,0.01676673,0.026828596,-0.022240201,-0.0022438974,-0.0056760805
0.013862001,0.06344853,0.02352198,0.025165606,0.0112083955,0.015841309,-0.0053125825,0.016773446,0.02680799,-0.022318099,-0.002212728,-0.0056712665
0.013948711,0.06309039,0.02356161,0.025111362,0.011118969,0.015802365,-0.0054087443,0.01675922,0.026774326,-0.022255443,-0.002167177,-0.0056800335
0.013990624,0.06335053,0.023876188,0.025301853,0.011295594,0.015812505,-0.005137969,0.016811728,0.026891023,-0.02257962,-0.0021340502,-0.0056531397
0.014082474,0.06299299,0.023950042,0.025166545,0.011291369,0.01569843,-0.005028166,0.016782869,0.026877405,-0.02256952,-0.0021178864,-0.0056464006
0.014044051,0.0629954,0.02391791,0.025204655,0.011247747,0.01588193,-0.0051728366,0.016777158,0.026894499,-0.022554321,-0.0020864517,-0.005643727
0.014080959,0.06291125,0.023838732,0.025223413,0.011276523,0.015934277,-0.005130837,0.01676842,0.026835697,-0.022504607,-0.0020780163,-0.0056448095
0.01402777,0.06312018,0.023751156,0.025359059,0.011309372,0.016193839,-0.0051656226,0.01679548,0.026834683,-0.022499,-0.0020865782,-0.0056372327
0.014093046,0.06281693,0.023763401,0.025341988,0.011343336,0.016116843,-0.005165118,0.016777692,0.026824016,-0.02245667,-0.0020821774,-0.0056430004
0.013961471,0.062966235,0.023661265,0.025443088,0.011314665,0.016023638,-0.005187792,0.016771138,0.026818082,-0.022428537,-0.002074121,-0.005630294
0.013933953,0.06293892,0.023574125,0.025469081,0.011236379,0.015708482,-0.005201273,0.016775843,0.026814759,-0.022440119,-0.0020685825,-0.0056296973
0.013895104,0.06290678,0.023675796,0.025425868,0.011212757,0.01574205,-0.0051236083,0.016773103,0.026814641,-0.022358272,-0.0020832382,-0.0056162225
0.013848023,0.06322643,0.023591492,0.02555263,0.0112487795,0.015598518,-0.005147144,0.016762717,0.026794733,-0.022425538,-0.002042761,-0.0056106625
0.013899344,0.06314296,0.023541646,0.025445307,0.011288236,0.015627036,-0.0051769363,0.01675577,0.02675469,-0.022441072,-0.002037952,-0.0056248712
0.013900948,0.06307426,0.023511348,0.02539604,0.011259891,0.015485362,-0.0051931767,0.016770242,0.026740309,-0.02246243,-0.0020474135,-0.0056185434
0.013888351,0.06296486,0.023385532,0.025325686,0.011268313,0.015555184,-0.0053025982,0.016768316,0.026747203,-0.022439376,-0.002034002,-0.005611446
0.013926099,0.06327714,0.023270747,0.025478488,0.011204815,0.015496627,-0.005234203,0.016798224,0.02670759,-0.022400726,-0.0021016141,-0.0056035803
0.01390021,0.062794305,0.023430863,0.025294872,0.011255438,0.01551296,-0.0052259443,0.016794896,0.026685718,-0.022443818,-0.002112481,-0.0056055957
0.013945571,0.0628587,0.023393756,0.025373016,0.011229279,0.015466876,-0.0051706946,0.016804347,0.026696585,-0.022495287,-0.0020769958,-0.005611681
0.013842719,0.063440375,0.023473594,0.02538474,0.011259142,0.015543249,-0.005161514,0.016801117,0.026733031,-0.022296757,-0.0021074996,-0.0056194873
0.013831164,0.06352299,0.023366787,0.025524303,0.011372717,0.015777769,-0.0052189105,0.016795076,0.0267765,-0.022362575,-0.0020904515,-0.005625114
0.013861653,0.063278675,0.023439802,0.025551254,0.011472047,0.016050104,-0.0052357474,0.016791511,0.026759047,-0.022347793,-0.0020655063,-0.0056215893
0.01386465,0.063816436,0.02338156,0.025480201,0.011328083,0.01580853,-0.0052087684,0.01678371,0.026774524,-0.022345109,-0.0020639251,-0.0056261076
0.013880031,0.06326213,0.023536917,0.02521564,0.011378209,0.015793538,-0.0052095493,0.016768103,0.02678615,-0.022354677,-0.0020437066,-0.0056389994
0.013925766,0.0629586,0.023479545,0.025132021,0.0114023285,0.0157707,-0.0052496707,0.016753133,0.026775641,-0.022279004,-0.0020487907,-0.0056387335
0.013751982,0.06362848,0.023450412,0.025301585,0.01141009,0.015901558,-0.0052333865,0.016766852,0.026777644,-0.022438854,-0.0020252296,-0.005636716
0.013775456,0.06333858,0.02354027,0.02528924,0.011410432,0.015789539,-0.0052582514,0.016748615,0.026734147,-0.022420688,-0.0020358337,-0.00563199
0.013720813,0.06319208,0.023665098,0.025294343,0.011423259,0.016069954,-0.005226794,0.016754938,0.026746519,-0.022477968,-0.0021181295,-0.005644738
0.013608722,0.06356066,0.023544788,0.025313515,0.011433327,0.015915833,-0.0052147973,0.016752135,0.026724456,-0.022527382,-0.002062466,-0.0056378394
0.013732771,0.062794715,0.023705047,0.025175028,0.011535454,0.016156329,-0.0052473815,0.01673249,0.02668072,-0.022499552,-0.0021149402,-0.005649516
0.013652042,0.063147284,0.02365523,0.025305511,0.011461459,0.016129415,-0.005095097,0.01677039,0.02673231,-0.022484418,-0.0020575756,-0.0056585823
0.013954772,0.06242925,0.02380735,0.025082834,0.011389319,0.016059596,-0.0054137367,0.01671124,0.026720243,-0.022461237,-0.0020692109,-0.0057057734
0.013952258,0.0625948,0.02367666,0.025212312,0.011473965,0.015928615,-0.0053855353,0.016730579,0.026714198,-0.022438081,-0.0020524322,-0.0057019573
0.013932577,0.06292079,0.023646263,0.025298791,0.011533772,0.016090108,-0.005316993,0.016746663,0.026712194,-0.022481803,-0.0020585107,-0.0056929793
0.013844847,0.062960856,0.02363594,0.025122918,0.011417055,0.015808562,-0.0053651785,0.01674488,0.026723618,-0.022455074,-0.0020481977,-0.005705431
0.0138333505,0.06304489,0.0236628,0.025160227,0.011452234,0.016046222,-0.005397952,0.016754305,0.026712792,-0.022264607,-0.002046939,-0.0057013226
0.013821879,0.063165046,0.02369011,0.025122318,0.011489322,0.015886018,-0.005396432,0.01676087,0.026724845,-0.022282312,-0.0020202193,-0.0057042064
0.013811645,0.0629596,0.023765454,0.024983555,0.011429231,0.01606629,-0.005350279,0.01680738,0.026725318,-0.022260569,-0.002032325,-0.005708355
0.0139175225,0.06309167,0.023752764,0.025083965,0.011399291,0.015965676,-0.005310933,0.016808571,0.026713656,-0.02229669,-0.0020294688,-0.0057030353
0.013774436,0.0630525,0.023819596,0.025029354,0.01140803,0.016023917,-0.0054420675,0.016801458,0.02671291,-0.022220364,-0.0020530298,-0.005691552
0.013714038,0.06305632,0.023893366,0.024923902,0.011387208,0.016180743,-0.005436862,0.01680743,0.026735568,-0.022184951,-0.0020278126,-0.005704988
0.013753106,0.0630786,0.02393681,0.024753647,0.011457675,0.01577447,-0.0054126605,0.016784668,0.026704988,-0.022165082,-0.0019696378,-0.005708674
0.013769575,0.06277436,0.024072627,0.024779152,0.011542358,0.015966235,-0.005430648,0.016793327,0.026692173,-0.022079276,-0.0019873008,-0.005714169
0.013869951,0.06251063,0.024068521,0.024802903,0.01148011,0.015838698,-0.0055200295,0.016787587,0.026681466,-0.022065619,-0.002001307,-0.0057099783
0.013888855,0.062926106,0.023999184,0.024945905,0.011504905,0.016008563,-0.0054565948,0.016804162,0.026694061,-0.022159908,-0.0019959337,-0.0057082935
0.013827585,0.062022585,0.024046293,0.02461063,0.011389505,0.015423136,-0.005531812,0.016801298,0.02661745,-0.022041684,-0.0020300248,-0.0057074735
0.013873962,0.062707834,0.023933195,0.024704726,0.011416951,0.015526673,-0.0055124545,0.01679973,0.0266182,-0.022030003,-0.002002493,-0.0056940564
0.013933119,0.062665775,0.024023123,0.024699068,0.011429583,0.015456708,-0.005534761,0.01681115,0.02658729,-0.02213658,-0.0020074975,-0.005683953
0.013830194,0.06296432,0.023949185,0.024810467,0.0114043495,0.01559792,-0.005469487,0.016815897,0.026560146,-0.022069413,-0.0020091548,-0.0056755734
0.013853415,0.06307614,0.024005692,0.02468297,0.011426661,0.015764216,-0.0055235066,0.016820703,0.026569424,-0.021983253,-0.0020797935,-0.00566286
0.013796866,0.06348508,0.023889422,0.024855666,0.0114202555,0.015838789,-0.0055330377,0.01682482,0.026609594,-0.022034565,-0.0020592639,-0.0056579392
0.013778259,0.0631813,0.02388804,0.024874076,0.011459909,0.015886927,-0.005412378,0.01684314,0.026555985,-0.021798195,-0.0020678837,-0.0056550913
0.0139180785,0.06352302,0.023752008,0.024851214,0.011433639,0.015771931,-0.005441512,0.016818391,0.026698904,-0.022046247,-0.0020247186,-0.0056648008
0.013834845,0.06306867,0.023816764,0.024776807,0.011448514,0.015727453,-0.0054916386,0.016813083,0.026604977,-0.021905357,-0.0020384425,-0.0056587546
0.013687397,0.06329916,0.023770355,0.02482065,0.011453085,0.015773915,-0.005547439,0.016805068,0.02666712,-0.021961903,-0.00203389,-0.0056581474
0.0137281995,0.06315147,0.023829278,0.024846492,0.0114663085,0.0156208845,-0.005490775,0.016825551,0.02658604,-0.021975279,-0.0020764421,-0.0056496547
0.013745751,0.062893264,0.023789737,0.024831155,0.011437485,0.016121984,-0.0055250847,0.016797451,0.026580412,-0.021835573,-0.0021442429,-0.0056459946
0.01370511,0.062972814,0.023846505,0.024822297,0.011473384,0.016006486,-0.0054957685,0.016790465,0.026572447,-0.022051156,-0.0021376195,-0.005641279
0.013603858,0.0636291,0.023587683,0.02486855,0.011495297,0.016237589,-0.0054794224,0.016793847,0.026617968,-0.022078194,-0.0021493486,-0.0056238766
0.013457756,0.06312705,0.023853859,0.024607526,0.011557199,0.016194416,-0.005420747,0.016806632,0.026494268,-0.021866845,-0.0021426994,-0.0056136623
0.013543838,0.06311277,0.023797374,0.024725745,0.011535799,0.015879862,-0.0052633365,0.016773269,0.026467575,-0.02186466,-0.002117196,-0.005586177
0.013528658,0.06313581,0.02396622,0.02476272,0.011607469,0.015915547,-0.0052968934,0.01681908,0.026516302,-0.021853793,-0.0021297715,-0.0055865827
0.013469425,0.063567646,0.023788914,0.02482212,0.011604613,0.015884582,-0.0052364157,0.01679369,0.026487831,-0.021897914,-0.0021002966,-0.0055926344
0.0135452775,0.06284942,0.023902848,0.024550809,0.011659149,0.01567914,-0.005401535,0.016781222,0.0264954,-0.021899847,-0.0020745029,-0.0056203795
0.013589194,0.06261577,0.023922302,0.02456717,0.011691776,0.015755698,-0.0053340783,0.016775234,0.02648253,-0.02186405,-0.0019991035,-0.0055966247
0.013563391,0.062791795,0.023831956,0.024582505,0.011650723,0.015800957,-0.005500201,0.016776087,0.026518336,-0.021863213,-0.0020793374,-0.0056113014
0.013610664,0.062937915,0.023852715,0.0247063,0.011673103,0.015686508,-0.005402318,0.016779361,0.026521083,-0.021873666,-0.0020577945,-0.005610079
0.013565166,0.06290738,0.02388767,0.024700684,0.011654072,0.01573525,-0.005442488,0.016793292,0.026543567,-0.021867365,-0.0020125876,-0.0056086658
0.0135917645,0.06311845,0.023929965,0.024718022,0.011689347,0.01572344,-0.0053047924,0.0168515,0.026514657,-0.021910923,-0.0020197555,-0.00559337
0.013706095,0.0627016,0.024153687,0.024554811,0.011554842,0.015676213,-0.0052582603,0.016812632,0.02645304,-0.021962147,-0.0019780265,-0.0056026955
0.013690587,0.06307361,0.02411283,0.02460343,0.011554505,0.015735457,-0.0052051595,0.016860139,0.026506536,-0.022015836,-0.0019802223,-0.005601447
0.013703885,0.063183926,0.02407748,0.024555745,0.0115748625,0.015697073,-0.0052814526,0.016844885,0.026475804,-0.021986708,-0.0019359089,-0.0056074657
0.013634889,0.063366964,0.023960266,0.02461418,0.0114560425,0.015811214,-0.005252482,0.016827455,0.026441338,-0.021991681,-0.0019163754,-0.0056074215
0.01369542,0.06296817,0.024041139,0.024425426,0.011427112,0.01574451,-0.0054072333,0.016840518,0.0263975,-0.022043142,-0.0019513222,-0.005617277
0.0136715155,0.06341084,0.023919731,0.024595214,0.011470724,0.01579721,-0.005353734,0.016883485,0.026382346,-0.022094542,-0.0019401655,-0.0056208367
0.013659779,0.063490555,0.023795266,0.02465023,0.011451873,0.015782021,-0.005424066,0.016862208,0.026356636,-0.022057706,-0.0019125827,-0.005621221
0.013736862,0.063546225,0.023814928,0.024561118,0.01149041,0.015898319,-0.0054615657,0.016808292,0.026400842,-0.022113785,-0.0018246938,-0.005636862
0.013709854,0.06395635,0.02385672,0.024542829,0.011528711,0.01613946,-0.005471431,0.016819358,0.026401248,-0.022036916,-0.0018419053,-0.0056342958
0.013671235,0.06373444,0.023768226,0.02456638,0.011461724,0.015654285,-0.0053908173,0.016818684,0.02641837,-0.022080887,-0.0018338192,-0.0056324885
0.013626588,0.06392126,0.023849474,0.024514327,0.011522641,0.016086271,-0.0053251074,0.016844299,0.026389062,-0.022036495,-0.0018242537,-0.0056448937
0.013627707,0.06371071,0.023864524,0.02438619,0.011475763,0.016065244,-0.005444148,0.016836816,0.026429694,-0.021990635,-0.0018006266,-0.0056321933
0.013672778,0.06374751,0.023813648,0.024490636,0.011526846,0.01604325,-0.0054552043,0.01681674,0.026449973,-0.021985902,-0.0017762687,-0.005628176
0.013665459,0.06380097,0.023941394,0.024411248,0.011560657,0.01626316,-0.0054164976,0.016797781,0.026393337,-0.02194645,-0.0018105735,-0.005617886
0.013626543,0.06370589,0.023922786,0.024449598,0.0114912195,0.01612975,-0.0054606423,0.016799241,0.02636633,-0.02196488,-0.0017900941,-0.005616568
0.013641831,0.06385861,0.023798982,0.024610952,0.011544026,0.01634732,-0.0054044235,0.016768048,0.026404807,-0.022003574,-0.0018650944,-0.005604674
0.013693368,0.063244015,0.023970615,0.024589906,0.011510807,0.016211666,-0.0054251906,0.016763419,0.026365208,-0.021943042,-0.0019289632,-0.0055938615
0.013596199,0.06365178,0.023963764,0.024658274,0.011538034,0.01620855,-0.005466306,0.016776925,0.02633182,-0.021931255,-0.0019352208,-0.005601447
0.013675471,0.063156545,0.024064414,0.024660898,0.011429451,0.016347283,-0.0055983346,0.016723312,0.026411626,-0.021992296,-0.0018306943,-0.0056061135
0.0136673665,0.063418046,0.024154956,0.024582965,0.011457385,0.016204622,-0.00554419,0.016721837,0.02635533,-0.022008715,-0.0018437114,-0.0056115533
0.013600897,0.06373856,0.024151439,0.02457659,0.011535335,0.016409127,-0.005529571,0.016762715,0.026393242,-0.022049628,-0.0018677458,-0.0056091784
0.0136892935,0.063259,0.024323199,0.024451356,0.01159499,0.01612039,-0.005553269,0.016705252,0.02634623,-0.022020705,-0.0018118456,-0.0056093787
0.013462937,0.06387065,0.024146974,0.02455964,0.011579256,0.016267437,-0.005562533,0.016698815,0.026400816,-0.021992177,-0.0018740441,-0.005607722
0.013439698,0.064034104,0.024264175,0.024548018,0.011589982,0.016132481,-0.005502038,0.016678808,0.02639377,-0.022093643,-0.0018664623,-0.005605999
0.013432581,0.064166725,0.024074864,0.024483439,0.011534354,0.016080653,-0.0055153472,0.016668249,0.026409267,-0.022045985,-0.0019219377,-0.0056434297
0.013458205,0.06418865,0.024197789,0.024520615,0.011589494,0.016090987,-0.005488773,0.016699292,0.026402542,-0.022072963,-0.0018559636,-0.0056629125
0.013560093,0.06374687,0.024283906,0.024417005,0.011473595,0.015952364,-0.0054519316,0.01671481,0.026397506,-0.02204256,-0.0018888112,-0.005687525
0.01351307,0.06405052,0.024258358,0.024382478,0.011552674,0.016084252,-0.0054178243,0.016716694,0.026404344,-0.022050746,-0.0018823864,-0.005670168
0.013532561,0.06416413,0.024265891,0.024474991,0.011612665,0.016105352,-0.005426379,0.016700229,0.026388118,-0.022070562,-0.0018783385,-0.005664484
0.013484494,0.06443767,0.024306359,0.024560276,0.011654056,0.01634377,-0.0054523647,0.016721014,0.026451001,-0.02213943,-0.0019758032,-0.00566457
0.013480575,0.06441175,0.024290828,0.024487853,0.0116172265,0.016186602,-0.0054433704,0.016714526,0.026321173,-0.022148022,-0.001923539,-0.00564906
0.013474746,0.06399955,0.024311118,0.024291025,0.011627805,0.01623953,-0.005434225,0.016722279,0.02634634,-0.022123726,-0.0019226768,-0.005644606
0.013530899,0.06337873,0.02435474,0.024148496,0.011594148,0.01601277,-0.0055317725,0.016635338,0.026303247,-0.022058118,-0.0018630694,-0.0056352583
0.013460091,0.06374433,0.024272993,0.024261503,0.011577751,0.016104208,-0.0054537216,0.016644748,0.026332224,-0.022087025,-0.001899086,-0.005632599
0.013448801,0.0635424,0.024182072,0.02439084,0.011577082,0.015933614,-0.005421278,0.016659316,0.02628853,-0.021956362,-0.0018954708,-0.0056348382
0.013449841,0.06378747,0.024157964,0.024400603,0.011584561,0.01589119,-0.005472609,0.016659332,0.026332157,-0.021967363,-0.0018364674,-0.0056365537
0.013514169,0.06401974,0.02407271,0.0242296,0.011468564,0.015788503,-0.0055170762,0.01666378,0.026373638,-0.021921458,-0.001833271,-0.005672339
0.013550349,0.06415294,0.024002388,0.024292078,0.011477856,0.015900096,-0.005304278,0.016660461,0.026282826,-0.021958886,-0.0017941606,-0.0056730476
0.013519486,0.06331292,0.0242081,0.02396906,0.011425577,0.015532244,-0.0054410766,0.016640952,0.026335686,-0.021903107,-0.0019971316,-0.005680675
0.013475905,0.06356202,0.024163652,0.024194269,0.011477382,0.015729709,-0.005267056,0.01668602,0.026334276,-0.022002824,-0.0019766402,-0.0056596487
0.013518294,0.06332326,0.024257846,0.024029355,0.011440238,0.015549865,-0.005354644,0.016638406,0.0262867,-0.022020116,-0.001911443,-0.0056589805
0.013514757,0.06359412,0.024188457,0.024011523,0.011421075,0.015613555,-0.005329082,0.016649595,0.026332902,-0.021974677,-0.0018873503,-0.005669655
0.013443568,0.063692115,0.024163667,0.024066681,0.011411717,0.015410787,-0.0053110244,0.016642323,0.026269281,-0.021966022,-0.0018359014,-0.0056503345
0.013439816,0.06348245,0.02422053,0.024140177,0.01139982,0.015493997,-0.0054615997,0.016644774,0.026319515,-0.021955257,-0.0018686482,-0.0056543103
0.013436976,0.06355676,0.02426665,0.02412056,0.011429383,0.01555418,-0.005303883,0.01666536,0.02627852,-0.021962002,-0.001871037,-0.005651387
0.013385225,0.06411286,0.024144365,0.024253376,0.011466179,0.0154607985,-0.0052935216,0.016660662,0.026274152,-0.02193794,-0.0018726516,-0.0056388346
0.0133056,0.06386722,0.024212249,0.024297519,0.011438957,0.015597409,-0.005219146,0.016651824,0.026238725,-0.02193848,-0.0018270094,-0.00563512
0.013346387,0.063878246,0.024188235,0.024231367,0.011442804,0.0155198425,-0.005281311,0.016648967,0.026281178,-0.021902086,-0.001804382,-0.0056331484
0.013305548,0.06372011,0.024201756,0.02429908,0.011477628,0.015489048,-0.0052946415,0.01671093,0.02624741,-0.021956695,-0.0017923905,-0.0056375517
0.013331767,0.06397301,0.024107257,0.024291553,0.011489724,0.015642911,-0.005326659,0.016718213,0.026278624,-0.02198767,-0.0018518975,-0.005642689
0.013354307,0.0633192,0.024347046,0.024160145,0.011542995,0.015546428,-0.0053370097,0.01671386,0.026165929,-0.02202553,-0.0019378789,-0.0056487056
0.0133933695,0.063509315,0.024173332,0.024270501,0.011459996,0.0155363185,-0.0053222375,0.016688917,0.026241077,-0.02199938,-0.0019371592,-0.0056389016
0.01335042,0.06345174,0.024311436,0.024013747,0.011472268,0.0156221995,-0.005308396,0.016654594,0.026302565,-0.02198044,-0.0018803674,-0.0056392015
0.013247974,0.06384683,0.024142556,0.02413843,0.011499709,0.015493722,-0.005301006,0.016628673,0.026258655,-0.021974405,-0.0017832003,-0.005634414
0.013223469,0.06421262,0.02415287,0.024214037,0.011440302,0.015487481,-0.0051775677,0.016672155,0.026247386,-0.021924166,-0.0018113026,-0.0056250608
0.013222774,0.06407898,0.024150927,0.024359863,0.011514819,0.015448466,-0.005117933,0.016625408,0.026201028,-0.021899838,-0.0018668732,-0.0056173573
0.01327864,0.064305246,0.02422169,0.024168571,0.01152714,0.015349909,-0.00505932,0.01658616,0.026240105,-0.021859096,-0.0017983143,-0.0056181084
0.013540455,0.063610494,0.024310552,0.02398454,0.011426744,0.015024938,-0.005234325,0.016576236,0.02631771,-0.02188974,-0.0018647294,-0.0056274887
0.013407765,0.06424129,0.024268754,0.023951113,0.0114706885,0.015157102,-0.00517492,0.016577031,0.026315363,-0.021910371,-0.0018269442,-0.0056175306
0.01327574,0.06444747,0.024291435,0.024045127,0.0114820795,0.015306344,-0.005118135,0.016597306,0.026256038,-0.021814695,-0.0018633407,-0.00560799
0.013404399,0.06432744,0.02425987,0.024181597,0.011492097,0.015460854,-0.005190568,0.01649388,0.026270188,-0.02173392,-0.0018664856,-0.0055973423
0.01346042,0.06427173,0.024201222,0.024182592,0.0114755165,0.015440008,-0.00538091,0.016471526,0.026272535,-0.021792104,-0.0017939825,-0.005600573
0.0133863995,0.06411822,0.024152728,0.024126954,0.011559872,0.015464585,-0.0054081683,0.01648179,0.026212072,-0.021772183,-0.0018327249,-0.0055955653
0.013402385,0.064229675,0.024348777,0.024119385,0.011503774,0.015090438,-0.0053025773,0.016465848,0.026276946,-0.02196552,-0.001752911,-0.0055930233
0.013381188,0.06410242,0.02447515,0.024063054,0.011503769,0.0152053265,-0.005264933,0.016499074,0.026187526,-0.021812579,-0.0017293647,-0.0056091426
0.013373111,0.06400426,0.024522595,0.024067516,0.011673864,0.015299222,-0.005322598,0.016470127,0.026239976,-0.021820063,-0.0017077761,-0.005596372
0.013264251,0.06433903,0.024436928,0.02419034,0.01161643,0.0152790295,-0.0053174607,0.01643665,0.026212376,-0.021751419,-0.001697531,-0.0055958824
0.013153736,0.064213425,0.024431264,0.023902478,0.01155265,0.01501658,-0.00541814,0.016444407,0.026272498,-0.02175908,-0.0017126288,-0.0055991695
0.013199189,0.06453374,0.024462096,0.023997381,0.011678879,0.0151781365,-0.0052273534,0.016478648,0.02626581,-0.021780832,-0.0017426457,-0.0055903085
0.013223795,0.06447938,0.024330754,0.024111172,0.011622652,0.015171832,-0.005115942,0.016473608,0.026249403,-0.021755537,-0.00173895,-0.0055929893
0.013202573,0.06436906,0.024382787,0.024113778,0.011664225,0.015268826,-0.005141229,0.016473515,0.026256448,-0.021688122,-0.0017865023,-0.0055780997
0.013202754,0.064113624,0.024533484,0.023991523,0.01165829,0.015195193,-0.0053267847,0.016471112,0.026283352,-0.021651154,-0.0017999959,-0.0056056357
0.0132947005,0.06416221,0.024655635,0.02392072,0.011649187,0.015189461,-0.005248821,0.016459996,0.02622222,-0.021666406,-0.0017158544,-0.0055930438
0.013156695,0.06426666,0.02475677,0.02391866,0.011674358,0.015480887,-0.0052911094,0.016467052,0.026249258,-0.021726213,-0.0017723864,-0.005589594
0.013247935,0.06407952,0.024722187,0.023927366,0.011563336,0.015263347,-0.0052789864,0.016464865,0.026195418,-0.02167854,-0.0017239054,-0.005578232
0.013211362,0.0644037,0.024781177,0.023911942,0.011615113,0.015527551,-0.0052570095,0.016464889,0.026207888,-0.021726545,-0.0017743907,-0.0055873836
0.01316969,0.06441199,0.024651092,0.023972116,0.011647399,0.015473801,-0.0053369957,0.016471338,0.026224433,-0.021717824,-0.0017791948,-0.005576642
0.013135181,0.064348705,0.024623634,0.023940206,0.011633614,0.015520199,-0.005415443,0.016469281,0.026194,-0.021715172,-0.0017591021,-0.005592946
0.013217829,0.06456929,0.024750434,0.024185076,0.011792603,0.015734041,-0.0052399198,0.016484527,0.026206678,-0.021833414,-0.0017659183,-0.005582996
0.013124605,0.06392723,0.024873985,0.023992639,0.011890526,0.015886957,-0.005176502,0.016519643,0.026117604,-0.021638377,-0.0018882853,-0.005570319
0.013145578,0.06415394,0.024770077,0.024112768,0.011836252,0.015652908,-0.005178978,0.01650176,0.026120553,-0.021580912,-0.0018529888,-0.0055629397
0.013076317,0.06438921,0.02468936,0.024157343,0.011778449,0.01563295,-0.0051217666,0.016538301,0.02611385,-0.021566458,-0.0018546483,-0.005569862
0.013203699,0.064098254,0.024754766,0.02417103,0.011648927,0.015515105,-0.0050600027,0.016524857,0.026039446,-0.021577517,-0.0019052848,-0.005551923
0.013235522,0.06372984,0.024766283,0.024250185,0.01173419,0.015746146,-0.0051830565,0.016480975,0.026139818,-0.021721127,-0.0018523731,-0.005502488
0.013411188,0.06410785,0.02474158,0.023967305,0.011700911,0.015746513,-0.0051834956,0.016442224,0.026064832,-0.021701617,-0.001870011,-0.0055071963
0.013311532,0.06406797,0.02470687,0.023934854,0.011718348,0.015763948,-0.005121672,0.016446305,0.026068723,-0.021727134,-0.0019238547,-0.005524612
0.013362098,0.06410711,0.024587486,0.023961322,0.011805169,0.015978487,-0.0052485666,0.016415035,0.026038298,-0.021734053,-0.0018417663,-0.0055357423
0.013292425,0.064517625,0.02457122,0.024165872,0.011736046,0.016146721,-0.005184489,0.01643761,0.026052257,-0.021732766,-0.0018597877,-0.005530055
0.0132086,0.06413174,0.02459635,0.024158012,0.011667196,0.01623478,-0.005307741,0.016425658,0.02606207,-0.021714002,-0.0018286,-0.0055305785
0.013238934,0.06384677,0.024715146,0.024159549,0.011866489,0.016326396,-0.0053867693,0.016442576,0.026038906,-0.021774586,-0.0017905899,-0.0055220025
0.013040638,0.064246036,0.024590654,0.024363443,0.011767327,0.016396595,-0.0053236773,0.016444385,0.026038539,-0.021688476,-0.0018786276,-0.005521189
0.013035891,0.06438588,0.024545098,0.024336891,0.011685158,0.016715866,-0.005341571,0.01640771,0.026068985,-0.02169305,-0.0018645775,-0.005542312
0.013012385,0.06438867,0.024494873,0.024363345,0.011669868,0.016616885,-0.0053046937,0.016412208,0.026073948,-0.021723783,-0.0018848358,-0.0055393986
0.01305784,0.06460186,0.024467647,0.024324957,0.011622253,0.016668422,-0.0052285343,0.0164127,0.026125193,-0.021749012,-0.0018930695,-0.0055213505
0.013033086,0.06457417,0.024475591,0.024302518,0.01163671,0.01623876,-0.005186008,0.016407864,0.026078623,-0.021692276,-0.0018673635,-0.005525852
0.013223076,0.06449979,0.024622373,0.024145173,0.01166181,0.01648184,-0.0053594876,0.01639318,0.026136145,-0.021684311,-0.0017911248,-0.005532336
0.013208394,0.064584866,0.024493694,0.024195656,0.011701872,0.016362155,-0.005233637,0.016416144,0.026125789,-0.021736298,-0.0017984551,-0.005530767
0.013279627,0.06449427,0.02451866,0.024058538,0.011704649,0.016362967,-0.005365096,0.016383024,0.026130458,-0.021849817,-0.0017870496,-0.005541506
0.013158871,0.06445302,0.02460438,0.024145447,0.011747241,0.016377673,-0.0053630224,0.016413791,0.0260659,-0.021810582,-0.0017819924,-0.0055319574
0.013111415,0.06510925,0.0244905,0.024280265,0.011579992,0.016477719,-0.005308242,0.016421791,0.026099639,-0.021851549,-0.0017497356,-0.0055279033
0.013192027,0.06375596,0.024737189,0.024136104,0.011526811,0.016419794,-0.0055059344,0.016365571,0.02603079,-0.021913424,-0.0017427915,-0.005596782
0.013044772,0.06404315,0.024635015,0.02423201,0.011512627,0.016471485,-0.00541041,0.016378598,0.026102444,-0.021947175,-0.0017475821,-0.0055897348
0.012989052,0.06416571,0.024529018,0.024381887,0.011539904,0.016400896,-0.005429273,0.016374702,0.02610352,-0.021913603,-0.0016986722,-0.0055866954
0.012928468,0.064520314,0.024508322,0.024400065,0.011506457,0.016418226,-0.0053932657,0.016380185,0.026139922,-0.02183678,-0.0017335083,-0.0055963043
0.012939275,0.06435788,0.024464916,0.02435379,0.011459819,0.016270021,-0.0053614094,0.016369298,0.02614899,-0.021832854,-0.0017307837,-0.005584489
0.012889873,0.064321406,0.024395835,0.024459181,0.01148281,0.01640191,-0.00546905,0.01635906,0.026202636,-0.021876447,-0.0016998101,-0.0055707265
0.013113329,0.06420017,0.02445379,0.024465948,0.011584898,0.016622506,-0.005402058,0.01638224,0.026153404,-0.021785794,-0.0017424797,-0.005562786
0.013103673,0.06399022,0.024291089,0.024410581,0.011563798,0.016575202,-0.005338715,0.016406106,0.026152872,-0.021833837,-0.0017501826,-0.0055541764
0.013171476,0.06424625,0.024229836,0.024410326,0.011531519,0.016687216,-0.0053692595,0.016356688,0.026177721,-0.021763988,-0.0017019894,-0.005573109
0.013177998,0.06431496,0.024163015,0.024459405,0.011558296,0.01655839,-0.0053797564,0.016366111,0.026204765,-0.021873109,-0.0016822767,-0.0055777
0.01312871,0.06467772,0.0241091,0.024446648,0.011587877,0.016740331,-0.0054274197,0.016361557,0.02614551,-0.021720527,-0.0017355329,-0.0055818274
0.013097457,0.06481406,0.02407603,0.024358056,0.011559882,0.01651011,-0.0053687887,0.016382536,0.026110258,-0.021764677,-0.0016873758,-0.0055816374
0.013148866,0.06465327,0.024271287,0.024336321,0.011611256,0.016672717,-0.0053588306,0.016410805,0.02616749,-0.021787873,-0.0017603709,-0.0055860514
0.0132759465,0.063879944,0.02417351,0.024177749,0.011549847,0.01608153,-0.0054727206,0.016321098,0.026144346,-0.021761434,-0.0017704795,-0.0055880025
0.013206295,0.064381294,0.024270633,0.024269748,0.011640851,0.016485343,-0.0054718247,0.016377734,0.026195114,-0.021792626,-0.001844369,-0.005578464
0.01312377,0.06455781,0.024187446,0.024193045,0.011640334,0.016311135,-0.005449534,0.01640245,0.026146578,-0.02174073,-0.0017804265,-0.005558329
0.013203306,0.06449039,0.024203924,0.024267148,0.011616068,0.016222075,-0.0055841315,0.016411604,0.026117792,-0.021729,-0.001817454,-0.00555344
0.013192727,0.06470145,0.024185603,0.024312159,0.01164802,0.016266653,-0.005486365,0.016436657,0.02617846,-0.021752758,-0.0018347567,-0.005502775
0.013156723,0.06466212,0.024232334,0.024195107,0.011662135,0.016231315,-0.0054760342,0.016436275,0.026134774,-0.021729754,-0.0017884421,-0.0055007176
0.013269814,0.06439357,0.024158638,0.024268823,0.011594355,0.016317151,-0.00552593,0.016333649,0.0262399,-0.021648053,-0.001846606,-0.005552682
0.013124883,0.06436133,0.02429,0.024131535,0.01162825,0.016324136,-0.005486633,0.016390508,0.02618425,-0.02168668,-0.0018321429,-0.005551697
0.013018693,0.064284414,0.024422389,0.02413311,0.011532718,0.016387874,-0.0055412436,0.016429693,0.026246736,-0.021668341,-0.00189105,-0.0055477982
0.012944137,0.06438401,0.024331637,0.024384558,0.011622349,0.016602535,-0.0054838853,0.016436446,0.02624762,-0.021686008,-0.0019307578,-0.005511124
0.013084093,0.06359283,0.024412306,0.024370331,0.011654388,0.01682288,-0.0059419577,0.01639994,0.02619015,-0.02162659,-0.001967771,-0.0055469717
0.013049963,0.06396577,0.024259947,0.024409484,0.0115976,0.016504819,-0.0059032305,0.016401373,0.026140356,-0.02175568,-0.0019451953,-0.0055364133
0.01310349,0.06410481,0.02430991,0.024351006,0.011570785,0.016376935,-0.005733612,0.016357435,0.026245875,-0.021778533,-0.001956401,-0.0055364533
0.01303156,0.06409748,0.024247536,0.024349643,0.011582274,0.016489334,-0.0058704484,0.016366104,0.02623725,-0.02175026,-0.002003809,-0.005542679
0.013078952,0.06424595,0.024207938,0.024410602,0.011522636,0.016611226,-0.0058718086,0.016341215,0.026220804,-0.021715475,-0.0019834233,-0.0055280686
0.012996854,0.06465983,0.02419703,0.024468709,0.011561449,0.016730163,-0.005756471,0.0163484,0.026236435,-0.021693766,-0.0019798803,-0.00551085
0.013060819,0.06439333,0.024314221,0.024356145,0.011509141,0.016568115,-0.0057871416,0.016375726,0.026210688,-0.021691836,-0.0020164659,-0.005471235
0.012993026,0.06459941,0.024159843,0.024495441,0.011491224,0.016546384,-0.0057936823,0.0163446,0.026241528,-0.021814248,-0.0019333845,-0.005469841
0.012925419,0.064567335,0.024149152,0.024430182,0.0114589995,0.016770996,-0.005885141,0.016322438,0.026238067,-0.021632422,-0.0019106457,-0.0055086534
0.013018011,0.06473808,0.024148285,0.024515955,0.011611003,0.016654218,-0.005743808,0.016371427,0.026261767,-0.021740774,-0.0019210089,-0.0055048494
0.013058545,0.06513847,0.02398377,0.024494834,0.011581594,0.016659934,-0.005819743,0.016368674,0.026264146,-0.021677835,-0.001879185,-0.0055403216
0.012922325,0.06500508,0.023948247,0.024406347,0.011620214,0.016574232,-0.0058192345,0.016361197,0.026264764,-0.021782327,-0.0019096411,-0.0055441586
0.012958459,0.064923346,0.023943523,0.02448937,0.011690372,0.01639194,-0.0057499716,0.01639115,0.026232043,-0.02176811,-0.0019041069,-0.0055344766
0.012931394,0.06498476,0.023971051,0.02438553,0.01163681,0.016550202,-0.0057871435,0.016405184,0.026276574,-0.021772336,-0.001903389,-0.005522259
0.0129475575,0.064991996,0.023835003,0.024327237,0.011608943,0.016369622,-0.0056595798,0.016403602,0.026156265,-0.02175175,-0.0018950467,-0.00551883
0.013007213,0.06512263,0.023790501,0.024329582,0.011596986,0.0165293,-0.0056852275,0.016363632,0.026242439,-0.021810478,-0.0018872891,-0.005517641
0.013043188,0.06444492,0.023897268,0.024285004,0.011640783,0.016381644,-0.0056013265,0.016403187,0.026195154,-0.0218115,-0.001864285,-0.0055122147
0.013184784,0.06417666,0.02400922,0.024405686,0.011604166,0.016677063,-0.0056391954,0.016344896,0.026220493,-0.0217205,-0.0018487801,-0.0055029113
0.0132607315,0.06421175,0.024046363,0.024344489,0.011674285,0.016575724,-0.005628729,0.016344406,0.026247745,-0.02192673,-0.0018048836,-0.0055002808
0.013311322,0.064630985,0.024123864,0.024142776,0.0117462855,0.01652353,-0.005583696,0.016326906,0.02627321,-0.02193677,-0.0017894902,-0.005492699
0.013248992,0.064622074,0.02410383,0.024385404,0.011734104,0.016582245,-0.0055984436,0.016351506,0.026260445,-0.021882867,-0.0018016135,-0.005504157
0.013299041,0.06496188,0.024075914,0.024452543,0.011701899,0.016734466,-0.005609005,0.016347438,0.026238544,-0.02184136,-0.0017858089,-0.005494538
0.013325924,0.0646928,0.024188627,0.02425905,0.011656549,0.016687585,-0.005576648,0.016373247,0.026187517,-0.021693459,-0.0017618836,-0.005492311
0.0133119775,0.064574845,0.024231886,0.02432773,0.011767137,0.016834497,-0.0055565406,0.01636801,0.026142936,-0.0216288,-0.0017244477,-0.0054724077
0.013213171,0.064527206,0.024268184,0.024401525,0.011826095,0.016765952,-0.005596449,0.016392022,0.02618667,-0.02164233,-0.0017721631,-0.005474101
0.013331799,0.06477405,0.023977794,0.024386019,0.011830923,0.016841302,-0.0056917043,0.016373485,0.026139239,-0.021562645,-0.0017949234,-0.0054581435
0.013329054,0.06469438,0.0240127,0.024483213,0.011882233,0.016942022,-0.0055703144,0.016390976,0.026153792,-0.021725591,-0.0017705135,-0.0054668696
0.013346345,0.06455591,0.024026567,0.024404433,0.011831304,0.016728152,-0.0055928123,0.016385661,0.026156332,-0.021783408,-0.0017846711,-0.005478327
0.013113911,0.06479745,0.024004502,0.02440826,0.011897663,0.016857224,-0.0056226226,0.016408546,0.026195617,-0.021646803,-0.0017442318,-0.0054760124
0.013164838,0.065224975,0.024030669,0.024462985,0.011949938,0.016889121,-0.005610812,0.016404219,0.02614427,-0.021711854,-0.0017031744,-0.005475171
